285 100 200
B64:5L2g -0.031437188386917114 0.022725123912096024 0.05039588361978531 -0.04939306527376175 -0.022870590910315514 -0.017501872032880783 0.029518896713852882 -0.04743754863739014 0.020439596846699715 -0.025673670694231987 0.028126709163188934 0.010898989625275135 -0.018107805401086807 0.032186951488256454 0.0075650704093277454 -0.024608450010418892 0.034919947385787964 0.026563245803117752 0.0011704853968694806 0.004795699845999479 -0.027398530393838882 0.0050427550449967384 0.010807733051478863 -0.024911368265748024 0.043396808207035065 -0.026751738041639328 0.05144761875271797 -0.05345568433403969 -0.011561144143342972 -0.026561640202999115 -0.01351991668343544 -0.01969885639846325 0.0834328681230545 -0.01099641527980566 0.07167753577232361 -0.0028610662557184696 -0.006627334281802177 -0.012805415317416191 0.05551014468073845 0.029381612315773964 -0.03631175681948662 -0.042858272790908813 0.043094485998153687 -0.012737719342112541 -0.005898965056985617 -0.04837300628423691 -0.07412167638540268 -0.05401648208498955 0.044160738587379456 -0.029620125889778137 0.005291711539030075 0.057876598089933395 0.017661500722169876 -0.08224783092737198 0.08540236204862595 0.029229002073407173 0.018176350742578506 0.0024024450685828924 -0.0783788412809372 -0.030775735154747963 -0.021030211821198463 -0.0105831203982234 0.018119167536497116 0.018657023087143898 0.012777780182659626 -0.0014913728227838874 -0.04297802969813347 0.05409436300396919 -0.06390757858753204 0.03875948116183281 -0.08030565083026886 -0.023798730224370956 -0.006672726944088936 -2.2111940779723227E-5 -0.01524166576564312 0.011382892727851868 0.023981519043445587 0.05425485968589783 -0.018371256068348885 -0.026218043640255928 0.04444397613406181 -0.06614980101585388 0.06087806448340416 0.027732500806450844 -0.03476858511567116 0.009017416276037693 -0.03591233491897583 0.0650821402668953 0.02493940107524395 -0.024155661463737488 -0.01772664114832878 0.029415428638458252 0.047672104090452194 0.011829459108412266 0.0025639499071985483 -0.007240405306220055 -0.030071429908275604 0.014636378735303879 0.026025068014860153 -0.015969296917319298
B64:5oiR -0.0035631840582937002 -0.007278681732714176 0.025868019089102745 -0.025976158678531647 0.013194428756833076 -0.015744583681225777 0.034836623817682266 -0.031131556257605553 0.018523093312978745 -0.026216896250844002 -0.004141116980463266 0.0167184229940176 0.014163900166749954 0.010322543792426586 -0.010073468089103699 -0.053507447242736816 0.042462874203920364 0.031565841287374496 0.00845046155154705 -0.035578012466430664 -0.018720420077443123 -0.023578278720378876 0.001352448365651071 0.00401249248534441 0.016166798770427704 -0.044171031564474106 0.06345061957836151 -0.02746025286614895 -0.03001374751329422 -0.03465816378593445 -0.037796031683683395 -0.016309747472405434 0.08782602101564407 -0.010758565738797188 0.0509745292365551 -0.027025440707802773 -0.02863420732319355 0.002591358032077551 0.06740657985210419 0.0027929909992963076 -0.03960343450307846 -0.011990554630756378 0.02854926884174347 -0.00450299633666873 8.388588903471828E-4 -0.03869923949241638 -0.031547777354717255 -0.032045118510723114 0.05447220802307129 -0.007049195468425751 0.004042601212859154 0.02529710903763771 0.012469960376620293 -0.061174023896455765 0.08454413712024689 0.027394462376832962 0.010329757817089558 -0.011534394696354866 -0.056202661246061325 -0.05261216312646866 -0.01259093638509512 -0.043353401124477386 0.03718895837664604 0.03839467093348503 -0.003814919386059046 0.002260704291984439 -0.05838554725050926 0.07381166517734528 -0.04378438740968704 0.018009833991527557 -0.048557303845882416 -0.027865296229720116 -0.013007066212594509 -0.018529120832681656 -0.022752488031983376 0.02882184274494648 -0.0039021021220833063 0.04928494617342949 -0.03297796845436096 -0.03390121832489967 0.03797069936990738 -0.04187951609492302 0.03742024675011635 0.03567124903202057 0.008976681157946587 -0.010460051707923412 -0.042288973927497864 0.033739473670721054 0.029315592721104622 -0.026039524003863335 0.028510533273220062 0.012336499989032745 0.015961630269885063 0.011709384620189667 0.011754495091736317 0.0407218374311924 -0.019696500152349472 0.004239268135279417 0.04401647299528122 -0.0019126308616250753
B64:55qE -0.02382352203130722 0.06468207389116287 0.05250636860728264 0.036434248089790344 0.01288819033652544 0.0543256439268589 -0.034503571689128876 -0.05317368730902672 0.031634021550416946 -0.022478165104985237 0.061175212264060974 0.044062450528144836 -0.0472252294421196 0.03070288710296154 -0.01746409572660923 0.048061687499284744 -0.008082583546638489 0.05841396376490593 -0.019112179055809975 0.03437059372663498 0.024977315217256546 0.027704020962119102 0.010748217813670635 -0.10055161267518997 0.05309578403830528 -0.056652236729860306 -0.03584709018468857 -0.07759968936443329 -0.020098622888326645 0.014490545727312565 -0.017857223749160767 -0.09965807944536209 -0.03651481121778488 -0.04267124459147453 0.020356537774205208 0.016606632620096207 0.045934226363897324 -0.016685238108038902 -0.0814722329378128 0.12718476355075836 0.049195725470781326 0.07783614844083786 -0.030474569648504257 -0.028558168560266495 -0.019258955493569374 0.033647775650024414 -0.02800791896879673 0.04092058911919594 -0.06816976517438889 -0.03260672464966774 0.03252986818552017 0.021460285410284996 0.06989496201276779 0.04087626934051514 -0.08466950803995132 -0.07174275815486908 -0.029424000531435013 -0.009780428372323513 -0.024492543190717697 -0.006769272033125162 0.07116974890232086 0.03566676750779152 -0.06760179251432419 -0.07372524589300156 0.05587764456868172 -0.019749071449041367 0.0650378167629242 -0.08486393094062805 -0.0507681705057621 -0.0060707698576152325 -0.05096466839313507 -0.006658629514276981 -0.008653123863041401 0.06020122021436691 0.06515132635831833 -0.0991959422826767 0.05618816986680031 -0.10518759489059448 0.07700732350349426 0.12984007596969604 0.08982720226049423 -0.022770795971155167 -0.031205611303448677 0.01828799769282341 -0.12899896502494812 -0.03405734896659851 0.04872281476855278 -0.0622197687625885 -0.029480958357453346 0.05386209487915039 -0.02989283762872219 -0.010726581327617168 -0.007802373263984919 -0.025100305676460266 0.04397283121943474 -0.06102434918284416 0.0027309367433190346 0.03025791235268116 -0.06294354051351547 0.0024967628996819258
B64:5pei -0.0016358266584575176 0.044847503304481506 0.028736203908920288 0.0019034970318898559 -0.010370790027081966 0.027234945446252823 -0.026399550959467888 0.003307534847408533 0.0023686173371970654 -0.0017854374600574374 0.033196836709976196 0.023883787915110588 -0.03321586921811104 0.007862132973968983 0.005221424624323845 0.018657032400369644 -0.009641588665544987 0.020835720002651215 -0.01174772810190916 0.020112859085202217 0.008363836444914341 0.03179299086332321 0.0022041138727217913 -0.02956792712211609 0.022647524252533913 -0.01118183508515358 -0.016993524506688118 -0.035755451768636703 0.010058734565973282 0.010431692004203796 -0.015692636370658875 -0.02420826628804207 -0.04325442761182785 -0.016664260998368263 -0.004247025586664677 0.015983223915100098 0.037987008690834045 0.014139964245259762 -0.020886007696390152 0.043584126979112625 0.023692673072218895 0.008967038244009018 -0.011598818935453892 -0.019196709617972374 -0.03390617296099663 0.004582878667861223 -0.03938019275665283 0.007599988952279091 -0.027966059744358063 -0.023310242220759392 0.01403454877436161 -9.787733433768153E-4 2.285907685291022E-4 0.020792918279767036 -0.042983755469322205 -0.03920227661728859 -0.009287656284868717 0.0055470033548772335 -0.0065170410089194775 -0.016208894550800323 0.018454834818840027 0.03078308142721653 -0.026784062385559082 -0.04127909615635872 0.016269607469439507 4.083731255377643E-5 0.040182098746299744 -0.062351249158382416 -0.025132037699222565 -0.011542140506207943 8.161989389918745E-4 0.01953204907476902 0.003932271618396044 0.014843195676803589 0.012496174313127995 -0.05211129039525986 0.031611714512109756 -0.05289638042449951 0.03307962417602539 0.041857123374938965 0.029725048691034317 -0.023718219250440598 -0.006683194078505039 -0.012731595896184444 -0.058166299015283585 0.003600698197260499 0.017952406778931618 -0.02462182193994522 -0.027536466717720032 0.010546871460974216 -0.026263536885380745 -0.013820821419358253 -0.015209043398499489 0.012763526290655136 0.0019067887915298343 -0.02508285641670227 0.01810324192047119 -0.007403484079986811 -0.028021812438964844 -7.390906830551103E-5
B64:5Liq 6.186180980876088E-4 0.0037945532239973545 0.03361311927437782 -0.036931369453668594 0.013888816349208355 -0.022108348086476326 0.03396052122116089 -0.04140510782599449 0.017517685890197754 -0.01861380785703659 0.025807417929172516 0.0365242175757885 -0.0010498944902792573 0.006609688512980938 -0.015548248775303364 -0.048282984644174576 0.05762898176908493 0.006335299927741289 0.009343591518700123 -0.029129445552825928 -0.014078025706112385 -0.0128343990072608 0.007852851413190365 -0.0030953274108469486 0.005309780593961477 -0.05961504951119423 0.057409610599279404 -0.03133070468902588 -0.013799022883176804 -0.05042038485407829 -0.04374881461262703 -0.025900091975927353 0.08324730396270752 -0.0075738816522061825 0.06682446599006653 -0.04101671278476715 -0.012367427349090576 -0.022472981363534927 0.07951720058917999 -0.0022980659268796444 -0.03336557373404503 -8.149134810082614E-4 0.024226756766438484 0.00948740728199482 0.00992694590240717 -0.03936128690838814 -0.038010191172361374 -0.03675609454512596 0.04003637284040451 -0.01248030737042427 -9.174302686005831E-4 0.025975877419114113 0.00804403331130743 -0.05128279700875282 0.0777677372097969 0.03785322234034538 0.0012045654002577066 0.0015335880452767015 -0.06121450290083885 -0.04498432204127312 -0.004885891452431679 -0.046503227204084396 0.030167052522301674 0.03972848877310753 -0.005127663724124432 -0.014960583299398422 -0.06555679440498352 0.06380634754896164 -0.03088611178100109 0.01796140894293785 -0.04506555199623108 -0.04204942286014557 -0.0038320680614560843 -0.03631006181240082 -0.031473010778427124 0.007660128641873598 0.010753126814961433 0.057418882846832275 -0.03405437245965004 -0.04402102902531624 0.02646644227206707 -0.04143863916397095 0.04743155092000961 0.03179987147450447 -0.01525947917252779 -0.018427185714244843 -0.042937830090522766 0.020870938897132874 0.02150033414363861 -0.018768295645713806 0.02738979458808899 0.008878614753484726 0.020023925229907036 0.030111901462078094 0.0024413680657744408 0.022804373875260353 -0.017450321465730667 0.012036471627652645 0.05454699695110321 -0.013481362722814083
B64:5bCx -0.003937926609069109 -0.005619803909212351 0.009960753843188286 -0.011077719740569592 0.009075083769857883 -0.014811119064688683 0.009797774255275726 -0.024723371490836143 0.005725166294723749 -8.140567224472761E-4 2.86737980786711E-4 0.017410170286893845 0.008848955854773521 0.0028082120697945356 -0.006781919859349728 -0.02452622354030609 0.013222877867519855 0.02110188454389572 1.458674669265747E-4 -0.017799237743020058 -0.0012640103232115507 -0.010625260882079601 -0.0056740958243608475 -0.0027067363262176514 0.005725304130464792 -0.019393153488636017 0.032529499381780624 -0.01845087856054306 -0.011468786746263504 -0.0272350050508976 -0.022927070036530495 -0.016555888578295708 0.04532035067677498 -0.009460872039198875 0.02620060369372368 -0.013528850860893726 -0.016340946778655052 -0.00627842266112566 0.025772392749786377 0.004382069688290358 -0.009701572358608246 0.0038453422021120787 0.011244299821555614 -0.0011714821448549628 0.011287745088338852 -0.016218461096286774 -0.022780898958444595 -0.013032843358814716 0.02612471580505371 -0.010952258482575417 0.0029857023619115353 0.010823753662407398 0.002884229179471731 -0.028454385697841644 0.03214970603585243 0.013753012754023075 0.006020823959261179 7.332650129683316E-4 -0.029643630608916283 -0.029895000159740448 0.0027438837569206953 -0.01424302626401186 0.0063447109423577785 0.01937117613852024 -0.007076602894812822 -0.007285624276846647 -0.01918104477226734 0.02653513476252556 -0.013578525744378567 0.006732415407896042 -0.026930490508675575 -0.01879028230905533 -0.005231817252933979 -0.011278286576271057 -0.015821142122149467 0.002199591603130102 0.00990334339439869 0.025588225573301315 -0.016842195764183998 -0.01031151320785284 0.015178962610661983 -0.015496965497732162 0.02035560831427574 0.01424842607229948 0.0011955745285376906 -0.006240985356271267 -0.018118202686309814 0.02256050333380699 0.015340102836489677 -0.009120129980146885 0.013528539799153805 0.0016122672241181135 0.01372184045612812 -7.384335913229734E-5 0.011101558804512024 0.012101231142878532 -0.01248269621282816 0.013626746833324432 0.024604395031929016 -0.006005655042827129
B64:5pyJ -0.0050351787358522415 -0.004432953894138336 0.020449966192245483 -0.017265934497117996 0.008346011862158775 -0.006577686872333288 0.011786624789237976 -0.023327959701418877 0.0019102407386526465 -0.00562460720539093 0.014597185887396336 0.027150724083185196 -0.010906822048127651 0.00878499262034893 -0.013494023121893406 -0.028876112774014473 0.035271331667900085 0.010239898227155209 0.012742866761982441 -0.009068546816706657 -0.009856290183961391 -0.002967389300465584 -0.0021229968406260014 -0.0016667780000716448 0.013013436459004879 -0.048578012734651566 0.02148311771452427 -0.018461639061570168 -0.004009041003882885 -0.02580541931092739 -0.028272991999983788 -0.02173636667430401 0.050461411476135254 -2.8230654424987733E-4 0.03324344381690025 -0.0143424766138196 -0.011249294504523277 -0.0038935260381549597 0.04244010150432587 0.015314224176108837 -0.009155487641692162 -0.003822112688794732 0.015618876554071903 0.0016300013521686196 -0.0026126715820282698 -0.026829794049263 -0.024216094985604286 -0.02705119550228119 0.021840453147888184 -0.014522645622491837 0.013365312479436398 0.021607326343655586 0.011127728037536144 -0.02658957801759243 0.05416225641965866 0.02921891398727894 0.0025788438506424427 -0.011694175191223621 -0.04123629257082939 -0.02565411850810051 -0.004602390341460705 -0.018412716686725616 0.006711924914270639 0.0265375766903162 -0.011253307573497295 -0.00434735044836998 -0.03561856970191002 0.026767369359731674 -0.01814199425280094 0.012249423190951347 -0.02190016768872738 -0.01644745096564293 6.350757321342826E-4 -0.014902716502547264 -0.020214954391121864 -0.0026751230470836163 0.006784307304769754 0.03469837084412575 -0.025065867230296135 -0.01574847474694252 0.017652200534939766 -0.03300056606531143 0.02273138053715229 0.01251487247645855 -0.01743350178003311 -0.015331878326833248 -0.024360213428735733 0.022792357951402664 0.007884691469371319 -0.01750079169869423 0.018771721050143242 0.002859390340745449 0.011015214957296848 0.0212697796523571 0.00623026117682457 0.012528636492788792 6.961157778277993E-4 0.00399331608787179 0.01379837654531002 -0.0012097940780222416
B64:6KaB -0.013643778860569 0.052888546139001846 0.0411783792078495 0.033017195761203766 0.013763305731117725 0.03281628340482712 -0.023182334378361702 -0.024631714448332787 0.027673989534378052 -0.001157956081442535 0.03528476506471634 0.019702019169926643 -0.0216001458466053 0.014359865337610245 0.002704076701775193 0.03071332722902298 -0.00183389475569129 0.05847534164786339 -0.007163069676607847 0.02350599318742752 0.013949434272944927 0.01892411708831787 0.003124039387330413 -0.07339610159397125 0.0481986403465271 -0.024950694292783737 -0.025707567110657692 -0.0644124373793602 -0.017850639298558235 0.011500283144414425 -0.01583358459174633 -0.0549323633313179 -0.028633860871195793 -0.02736392617225647 0.0052862148731946945 0.02425125613808632 0.039723701775074005 -0.011287149973213673 -0.05426890775561333 0.0781313106417656 0.05057186260819435 0.05299609154462814 -0.023216363042593002 -0.01802491955459118 -0.029319973662495613 0.010384611785411835 -0.02497236244380474 0.020294727757573128 -0.04771587252616882 -0.006031446158885956 0.031564608216285706 0.0192975252866745 0.04205618426203728 0.017805667594075203 -0.05065217614173889 -0.06366339325904846 -0.02777341566979885 -9.885783947538584E-5 -0.014531266875565052 -0.001257302355952561 0.04378155618906021 0.03146324306726456 -0.0433068685233593 -0.050171636044979095 0.03786265105009079 -0.01720840483903885 0.04989900812506676 -0.06573698669672012 -0.030034808441996574 0.010209196247160435 -0.02700897864997387 0.007500198669731617 -0.013650044798851013 0.03697540611028671 0.037975601851940155 -0.0667220801115036 0.028812319040298462 -0.06817596405744553 0.04745545610785484 0.0889529138803482 0.04303635656833649 -0.01135411486029625 -0.010836693458259106 -0.009906836785376072 -0.08159944415092468 -0.018442384898662567 0.03179876506328583 -0.03380577266216278 -0.029935933649539948 0.034610647708177567 -0.03063175454735756 -0.008468043990433216 -0.009285412728786469 -0.014110520482063293 0.03318546339869499 -0.04130546748638153 0.008647976443171501 0.010190612636506557 -0.043302178382873535 0.0016380278393626213
B64:57O7 0.0012245995458215475 0.0031566808465868235 -0.017494065687060356 0.010697055608034134 0.021732008084654808 -0.01175715308636427 -0.018348664045333862 -0.01629607379436493 -0.0017547636525705457 0.009223436005413532 0.026193669065833092 0.015887489542365074 -0.004026044625788927 -0.011621718294918537 -0.02368805930018425 0.0025239731185138226 -0.00303797353990376 -0.007378553040325642 0.0036200431641191244 -0.009027763269841671 0.0014734123833477497 -0.015832901000976562 -0.008092415519058704 0.012040539644658566 -0.0054306709207594395 -0.03357332944869995 -0.007184376008808613 -0.017440540716052055 -0.001853137626312673 -1.543968974146992E-4 -0.011967548169195652 -0.015199747867882252 -0.010760899633169174 -0.015279115177690983 0.015695132315158844 -0.005929672624915838 -0.002729195635765791 -0.022792385891079903 0.026866944506764412 -0.013676160015165806 0.006883473601192236 0.014388835057616234 -0.009639253839850426 -0.0015157748712226748 -0.00212265201844275 -0.011530349031090736 0.01428935769945383 -0.012518367730081081 0.007305712439119816 -0.005249041132628918 0.012768574059009552 -0.009749514982104301 0.005006128456443548 -0.0030549715738743544 7.60856841225177E-4 0.010510135442018509 0.006048808339983225 0.0035438425838947296 -3.6961943260394037E-4 -0.010328685864806175 -0.00913455430418253 -8.312470745295286E-4 -0.012163763865828514 0.008731355890631676 -0.01284424215555191 -0.009037265554070473 0.008414939977228642 -0.012873238883912563 -0.017852382734417915 -0.007853738032281399 0.009280425496399403 -0.023948542773723602 0.011349358595907688 0.005494214594364166 -0.005697359796613455 -0.01890551671385765 0.02126619964838028 -0.0018895387183874846 -5.924299475736916E-4 0.015482432208955288 -0.0017339016776531935 -0.015697047114372253 -0.0010526442201808095 -0.002483358606696129 -0.021731732413172722 0.0013370910892263055 -0.006083040498197079 -0.024973688647150993 -0.0297549981623888 -0.012297109700739384 0.019450366497039795 0.004617525730282068 -0.029218589887022972 0.014178814366459846 0.006063131615519524 0.009564604610204697 0.021995583549141884 0.015884116291999817 -0.009454196318984032 -0.0028039405588060617
B64:5ZSU -0.01337582990527153 0.01394149474799633 0.03280075639486313 -0.02225537970662117 0.006263883784413338 -0.0029110456816852093 0.006440014578402042 -0.021583011373877525 0.01794395036995411 -0.008933717384934425 0.028488703072071075 0.02634296752512455 -0.00502023147419095 0.009072949178516865 -0.00537805026397109 -0.032879408448934555 0.0437454879283905 0.03024289757013321 0.015073392540216446 -0.024515023455023766 -0.011458918452262878 -0.0027007446624338627 0.0025258625391870737 -0.008515615947544575 0.023778684437274933 -0.048448581248521805 0.03810986131429672 -0.03620798513293266 -0.013875821605324745 -0.029705673456192017 -0.0373859666287899 -0.02902195043861866 0.053062498569488525 -0.021850239485502243 0.04083692654967308 -0.013261262327432632 -0.007741008885204792 -0.009074396453797817 0.06390354782342911 0.015914374962449074 -0.0058464957401156425 -0.005606464575976133 0.018360620364546776 -0.009786451235413551 -0.011248722672462463 -0.03206610679626465 -0.04917442798614502 -0.03254424035549164 0.02718580886721611 -0.007616166956722736 0.013161394745111465 0.01792582869529724 0.006250267848372459 -0.04371247440576553 0.0624091811478138 0.022339651361107826 0.001906098099425435 -0.005318578332662582 -0.051618050783872604 -0.044259581714868546 5.789325223304331E-4 -0.023034818470478058 0.005584790837019682 0.021760128438472748 -0.0052091209217906 -0.010696807876229286 -0.03794558346271515 0.030063660815358162 -0.04693101346492767 0.015436457470059395 -0.039779916405677795 -0.01935470849275589 -0.0053899940103292465 -0.01962776854634285 -0.025309717282652855 -0.00797480158507824 0.013471213169395924 0.02787952683866024 -0.027153853327035904 -0.01667611114680767 0.03126390278339386 -0.05536539480090141 0.03053264692425728 0.013801471330225468 -0.01907484233379364 -0.014058866538107395 -0.027383433654904366 0.0157808605581522 0.002576286904513836 -0.016697313636541367 0.015269880183041096 0.005514444783329964 0.0019571352750062943 0.03047947958111763 -5.054656503489241E-5 0.018081989139318466 0.0036950022913515568 7.246884633786976E-4 0.02669375389814377 -2.1364651911426336E-4
B64:5piv -0.008178487420082092 0.006093904376029968 0.004690609872341156 0.009419006295502186 0.0022468918468803167 7.667060126550496E-4 -0.00311650219373405 -0.014844195917248726 0.009139894507825375 0.0016719774575904012 0.010936876758933067 -0.00263258907943964 0.0018059989670291543 6.428380584111437E-5 -0.005776574835181236 0.005422463174909353 -0.0056361788883805275 0.012091896496713161 -0.0020532526541501284 -6.035821861587465E-4 0.0015468827914446592 -0.009033857844769955 -0.002370209898799658 -0.010083985514938831 0.010556114837527275 -0.011953798122704029 -0.007616927847266197 -0.01596318744122982 -0.013284699991345406 -6.200018106028438E-4 -0.0043892334215343 -0.026635175570845604 -8.976046228781343E-4 -0.007269383408129215 0.006092590279877186 -4.5617675641551614E-4 4.858543397858739E-4 -0.012848764657974243 -0.011331379413604736 0.014681263826787472 0.002294688718393445 0.014267995022237301 -3.053396940231323E-4 -0.012348076328635216 0.007101961877197027 0.004910946357995272 0.0032163013238459826 0.0093466741964221 2.1392710914369673E-4 0.0020345698576420546 0.010711693204939365 0.006348782684653997 0.01790267787873745 -0.0033746471162885427 -0.009195995517075062 -0.013696704059839249 -2.3848522687330842E-4 -8.123806328512728E-4 -0.002806023694574833 0.003471094649285078 0.006440395954996347 0.009629433043301105 -0.008998864330351353 -0.01277705654501915 0.009045498445630074 -0.005490629933774471 0.017138060182332993 7.690384518355131E-4 -0.017048250883817673 0.004199670162051916 -0.01940363086760044 -0.005466793663799763 -0.0020632795058190823 0.014544942416250706 0.021787280216813087 -0.009071103297173977 0.010819859802722931 -0.011192080564796925 0.013042940758168697 0.030892008915543556 0.026095429435372353 -0.005321574863046408 -0.008343004621565342 0.013607986271381378 -0.01852816715836525 -0.009513454511761665 0.005029015708714724 -0.014487274922430515 -0.0018972750985994935 0.009946134872734547 -0.004616146441549063 -0.003604467026889324 0.0012083217734470963 -0.014324738644063473 0.009481789544224739 -0.009526624344289303 -0.0036301452200859785 0.016218116506934166 -0.010920512489974499 -0.002750102896243334
B64:5Lq6 -0.011547433212399483 0.007293696980923414 0.04005106911063194 -0.03423377871513367 0.006146847736090422 -0.025477334856987 0.03240784630179405 -0.052854929119348526 0.02556125447154045 -0.01771552488207817 0.028475182130932808 0.028690949082374573 0.002377339405938983 0.01150708831846714 -0.018349474295973778 -0.044202838093042374 0.05946389213204384 0.02412852644920349 0.004696948919445276 -0.021926887333393097 -0.01643417961895466 -0.01838896982371807 0.00404148455709219 -0.02178843878209591 0.02298618108034134 -0.05887126922607422 0.05887791886925697 -0.044902753084897995 -0.025011254474520683 -0.03628389909863472 -0.04864629730582237 -0.04578379541635513 0.07418326288461685 -0.022571725770831108 0.06611998379230499 -0.024690719321370125 -0.008192786015570164 -0.024396074935793877 0.06815695017576218 0.010500006377696991 -0.02455405332148075 -0.010125944390892982 0.012745197862386703 -0.0011867467546835542 -0.012076020240783691 -0.04892285540699959 -0.04313812032341957 -0.039946310222148895 0.028228584676980972 -0.013045416213572025 0.008915848098695278 0.026796797290444374 0.022598974406719208 -0.06308699399232864 0.06752816587686539 0.02974720112979412 -0.012733731418848038 -0.004079799167811871 -0.059234220534563065 -0.04943949356675148 0.0013229565229266882 -0.0289551243185997 0.032821450382471085 0.03364216536283493 -0.0074917022138834 -0.01110831182450056 -0.044612228870391846 0.05472162365913391 -0.059471458196640015 0.026796741411089897 -0.06974367052316666 -0.03237491846084595 -0.0024785876739770174 -0.028289945796132088 -0.030433740466833115 -0.0034419947769492865 0.013306234031915665 0.02735857479274273 -0.018942607566714287 -0.02565501444041729 0.04891427233815193 -0.060151513665914536 0.04470598325133324 0.03362113609910011 -0.030660200864076614 -0.020477963611483574 -0.036819301545619965 0.024890130385756493 0.008533106185495853 -0.013452800922095776 0.010975895449519157 0.016498658806085587 0.004898671992123127 0.030311981216073036 0.02057602070271969 0.029587838798761368 -0.012398690916597843 0.01390328910201788 0.03501104563474655 -0.005763535387814045
B64:6YO9 -0.016482846811413765 0.008036977611482143 0.02882363647222519 -0.017276963219046593 0.0029271389357745647 -0.010880040004849434 0.023992300033569336 -0.03118695691227913 0.01012655533850193 -0.00835367664694786 0.020489390939474106 0.023762542754411697 -0.005435218568891287 0.012413719668984413 -0.009229193441569805 -0.029849356040358543 0.031569704413414 0.02406199462711811 -8.831190061755478E-4 -0.02012418769299984 -0.011695196852087975 -0.006534161977469921 -0.002327578840777278 -0.013960926793515682 0.024465098977088928 -0.03649599477648735 0.04145320877432823 -0.03652620315551758 -0.015356057323515415 -0.030841724947094917 -0.039643894881010056 -0.02558724582195282 0.05786329135298729 -0.016637174412608147 0.041256729513406754 -0.017166072502732277 -0.013578186742961407 -0.008240250870585442 0.04481196030974388 0.017274485900998116 -0.017586806789040565 -0.00492863217368722 0.021090418100357056 -0.010170862078666687 -0.0022615494672209024 -0.028654923662543297 -0.04260220751166344 -0.029809866100549698 0.030499743297696114 -0.010398044250905514 0.009707650169730186 0.027949927374720573 0.016361571848392487 -0.04249196499586105 0.057578928768634796 0.020462846383452415 0.004546150099486113 -3.953567356802523E-4 -0.04604335501790047 -0.03939024731516838 -4.5878763194195926E-4 -0.023868851363658905 0.020941579714417458 0.019187062978744507 0.004090444650501013 -0.010882338508963585 -0.03385172784328461 0.03547149896621704 -0.04045375436544418 0.012154391035437584 -0.051448702812194824 -0.023506319150328636 -0.011356103233993053 -0.014721237123012543 -0.018549930304288864 -0.005720559041947126 0.010464293882250786 0.020950237289071083 -0.02095944806933403 -0.008982103317975998 0.03667053207755089 -0.03730136156082153 0.03640395402908325 0.026677843183279037 -0.011749127879738808 -0.008680356666445732 -0.02151349000632763 0.02709762193262577 0.007443177048116922 -0.008459540084004402 0.013612980954349041 0.007090792525559664 0.018848076462745667 0.012450461275875568 0.0057529243640601635 0.012964454479515553 -0.012549844570457935 0.009630399756133556 0.022746257483959198 -0.011930159293115139
B64:5ZCM -0.02418547496199608 0.04524758830666542 0.04855973646044731 -0.019105028361082077 0.02158726193010807 0.010286360047757626 -0.011478989385068417 -0.02457275800406933 0.02296963520348072 -0.01578696258366108 0.04789533466100693 0.046956416219472885 -0.024483177810907364 0.01613108068704605 -0.0038022936787456274 -0.026811236515641212 0.04512552171945572 0.05481525510549545 0.010307956486940384 -0.003509494476020336 -0.008394582197070122 0.013366429135203362 -0.004757604096084833 -0.04763353615999222 0.03970601037144661 -0.06273841112852097 0.028958173468708992 -0.06887059658765793 -0.008175618015229702 -0.033251915127038956 -0.05850718915462494 -0.049186207354068756 0.0337768979370594 -0.026530250906944275 0.05397889018058777 -0.006726402323693037 0.017131173983216286 -3.130088734906167E-4 0.05217466503381729 0.04914744570851326 0.003968151286244392 0.012744554318487644 0.012705801986157894 -0.013994406908750534 -0.03010166622698307 -0.030133983120322227 -0.07403349131345749 -0.039131179451942444 0.0017160450806841254 -0.025824323296546936 0.03684101998806 0.032106462866067886 0.02407587505877018 -0.03773212432861328 0.04600813612341881 -7.89324869401753E-4 -0.013570165261626244 0.005680912174284458 -0.06429028511047363 -0.05638308823108673 0.017194878309965134 -0.006724670063704252 -0.013044665567576885 0.003591067623347044 0.010891237296164036 -0.009401955641806126 -0.018398111686110497 -0.006567010655999184 -0.06733153015375137 0.020763058215379715 -0.04405459016561508 -0.021044569090008736 -0.0098770996555686 -0.00160266796592623 -0.005099017173051834 -0.04345151409506798 0.04311501979827881 0.007469411473721266 -0.011152706108987331 0.02576017938554287 0.04699016734957695 -0.07144586741924286 0.03328300267457962 0.004470848012715578 -0.06998991966247559 -0.014980479143559933 -0.02432067319750786 0.001571300788782537 -0.01440679281949997 -0.007844794541597366 -0.009447794407606125 0.0062516615726053715 0.00546617154031992 0.02828521467745304 0.005555559415370226 0.006608688272535801 0.019050458446145058 0.002223961753770709 -2.961120626423508E-4 -0.0041274381801486015
B64:5LqG -0.0064689102582633495 -7.828263333067298E-4 0.029162384569644928 -0.029012620449066162 0.0018791670445352793 -0.02036123536527157 0.02765817753970623 -0.03284421190619469 0.017274467274546623 -0.01271385233849287 0.010644619353115559 0.026314711198210716 0.006805779878050089 0.014219379052519798 -0.015005958266556263 -0.03711207956075668 0.04503143951296806 0.02534349076449871 -9.249347494915128E-4 -0.020066753029823303 -0.008195845410227776 -0.014240968972444534 -0.009342176839709282 -0.008357472717761993 0.010942120105028152 -0.04135580733418465 0.04723501577973366 -0.027151329442858696 -0.020746514201164246 -0.0303325355052948 -0.040986400097608566 -0.03213519603013992 0.07150968909263611 -0.007885407656431198 0.05205304175615311 -0.023232679814100266 -0.011297749355435371 -0.005224625580012798 0.052770454436540604 0.012238669209182262 -0.02976478450000286 -9.970638202503324E-4 0.020558573305606842 -0.009189074859023094 0.004185324069112539 -0.028582578524947166 -0.031288158148527145 -0.0257120244204998 0.034164734184741974 -0.015895767137408257 0.0071112848818302155 0.018230848014354706 0.012217479757964611 -0.049356404691934586 0.06550333648920059 0.028663311153650284 0.002257278887555003 0.001103512942790985 -0.05329381674528122 -0.037806663662195206 0.0038139757234603167 -0.02757149562239647 0.023116910830140114 0.025491217151284218 -0.005306784529238939 -8.23416281491518E-4 -0.048181433230638504 0.052492137998342514 -0.033364515751600266 0.01875947415828705 -0.05600892752408981 -0.027482472360134125 -0.0028395564295351505 -0.02080037258565426 -0.018188470974564552 0.012683916836977005 0.006040049251168966 0.03158562630414963 -0.03019111603498459 -0.01782832108438015 0.039171695709228516 -0.040638551115989685 0.03061850555241108 0.0312163308262825 -0.00719919428229332 -0.01802561990916729 -0.02862735278904438 0.02292078360915184 0.013267512433230877 -0.01279167365282774 0.015541091561317444 0.0073633198626339436 0.011665520258247852 0.02234414592385292 0.00916343741118908 0.017667200416326523 -0.007012180518358946 0.004786576144397259 0.03972046449780464 -0.0037054396234452724
B64:5LiN -0.0073841833509504795 0.013961461372673512 0.018525168299674988 0.014784859493374825 0.005926190409809351 0.020272331312298775 -0.01469368115067482 -0.004719466902315617 0.013220216147601604 1.9029872782994062E-4 0.004030478652566671 0.006815288215875626 -0.01113953534513712 0.003102865070104599 -0.002907078480347991 0.008814659900963306 -0.00929967314004898 0.018624013289809227 2.218867593910545E-4 0.011149280704557896 0.011548715643584728 0.0036878709215670824 0.01115049235522747 -0.030708923935890198 0.01236860640347004 -0.008545002900063992 -0.012434662319719791 -0.01960044912993908 -0.007300729863345623 0.004054315388202667 -0.004802316427230835 -0.02657773159444332 -0.013988742604851723 -0.009964165277779102 -0.004579857923090458 0.004307748284190893 0.010847890749573708 -0.0016534297028556466 -0.027221696451306343 0.036990657448768616 0.016275960952043533 0.0249700378626585 -0.007828203961253166 -0.004516646731644869 -0.0021182727068662643 0.010301746428012848 -0.010675985366106033 0.005766655318439007 -0.018062083050608635 0.003368636593222618 0.01599477045238018 0.007281485944986343 0.021848643198609352 0.012571093626320362 -0.022834593430161476 -0.02266634628176689 -0.011565345339477062 -0.009096438996493816 -5.875564529560506E-4 0.003226076252758503 0.021383192390203476 0.004205870442092419 -0.017756514251232147 -0.02102014236152172 0.00991646759212017 -0.0075362264178693295 0.025074776262044907 -0.018261577934026718 -0.012523846700787544 0.004256378393620253 -0.010606735944747925 -0.001423451118171215 -0.01038410421460867 0.015198104083538055 0.020678667351603508 -0.023970885202288628 0.01488602813333273 -0.025290053337812424 0.02465740591287613 0.036657609045505524 0.022395016625523567 -0.005610288120806217 -0.004955912474542856 -0.001786357257515192 -0.025389960035681725 -0.005126521456986666 0.018934058025479317 -0.012901266105473042 -0.006178699433803558 0.016862954944372177 -0.011533522047102451 -0.00616652425378561 -0.001902600983157754 -0.00705731799826026 0.01219465397298336 -0.013102720491588116 -0.005684402771294117 0.005728567950427532 -0.016232488676905632 0.0017792595317587256
B64:55SY -0.007306208368390799 -0.005189498886466026 0.009732931852340698 -0.013081185519695282 -0.006533638574182987 -0.017627358436584473 0.014913637191057205 -0.00734558654949069 -0.0014305325457826257 -0.008128302171826363 -0.0028263567946851254 0.00728836702182889 -0.0039451769553124905 0.0015284925466403365 -0.0019424052443355322 -0.026989392936229706 0.02513452060520649 -0.001785686006769538 0.008266650140285492 -0.0148275475949049 -0.008437009528279305 -0.008301908150315285 -0.0012590636033564806 0.003757963189855218 0.0034547653049230576 -0.021585693582892418 0.02462642639875412 -0.0029272253159433603 -0.011355618014931679 -0.01896272785961628 -0.017940012738108635 -0.004689455963671207 0.03196631744503975 0.002490547951310873 0.018762361258268356 -0.0135095976293087 -0.006823785603046417 0.0030651709530502558 0.03764268383383751 -0.006477685645222664 -0.015906916931271553 -0.012089157477021217 0.008528085425496101 -0.0012415634701028466 -0.004206289071589708 -0.01623433269560337 -0.019527491182088852 -0.022942056879401207 0.01772603765130043 -4.990339512005448E-4 -0.004765832331031561 0.008386567234992981 -0.0023870740551501513 -0.02893950045108795 0.03498951345682144 0.01749793067574501 -0.002440639305859804 0.0039931731298565865 -0.020628372207283974 -0.015886768698692322 -0.006849698722362518 -0.021824447438120842 0.021468909457325935 0.02240820601582527 -0.011827385984361172 0.003872585017234087 -0.03098161332309246 0.02646256797015667 -0.012394634075462818 0.0057463995181024075 -0.014982746914029121 -0.012263132259249687 -0.00175585993565619 -0.016922075301408768 -0.019251491874456406 0.013258121907711029 -0.009167558513581753 0.024996643885970116 -0.02381356805562973 -0.028323747217655182 8.503485005348921E-4 -0.022543461993336678 0.024634316563606262 0.004909583833068609 0.0025383394677191973 -0.0012509245425462723 -0.011372799053788185 0.016020048409700394 0.010655028745532036 -0.007116339169442654 0.0135364830493927 0.009530825540423393 0.010272922925651073 0.008310198783874512 -0.0036450312472879887 0.01114333514124155 -0.009457647800445557 -0.0023440434597432613 0.016171205788850784 -0.002787354402244091
B64:5b6X 0.0029569645412266254 -0.005897116847336292 0.002885758876800537 5.813363823108375E-4 0.005972894374281168 -0.0019602335523813963 -8.599410066381097E-4 -0.013798543252050877 4.77331894217059E-4 -0.005456388927996159 0.009515240788459778 0.0029580157715827227 9.206100949086249E-4 5.411955644376576E-4 -0.004780456889420748 -0.006424641236662865 0.007872783578932285 -0.003832390531897545 0.005365101154893637 -0.0100021967664361 -0.007471619173884392 -0.009954392910003662 0.005139174405485392 0.0049641248770058155 -0.0038134120404720306 -0.00799556914716959 0.006888405419886112 -0.0034508053213357925 -0.005666978191584349 -0.006970587186515331 -0.0027349020820111036 -0.012420541606843472 0.014343013986945152 -0.005171103868633509 0.009380456060171127 -0.0031201555393636227 -0.006589910946786404 -0.005677252542227507 0.015506509691476822 -0.00490743201225996 -0.004394232761114836 9.9994579795748E-4 -0.0027708609122782946 0.0014768606051802635 0.002924185013398528 8.963329310063273E-5 6.947587826289237E-4 -0.00476583419367671 0.0022997516207396984 0.005338455084711313 3.593157744035125E-4 -2.4110973754432052E-4 0.009639575146138668 -0.00769555289298296 0.013705175369977951 0.0058841402642428875 -9.317194344475865E-4 -0.004599196370691061 -2.6850850554183125E-4 -0.0052159749902784824 -1.0879083856707439E-4 -0.012357843108475208 0.00119890202768147 0.011650879867374897 -0.001353336381725967 -0.0065297698602080345 -0.0022270181216299534 0.014161357656121254 -0.011099672876298428 0.00801144540309906 -0.010302294045686722 -0.007377090863883495 -0.0028348828200250864 -0.006966581102460623 0.00158164172898978 -0.004956619814038277 2.616660203784704E-4 0.004111308138817549 -0.009183498099446297 0.0019609432201832533 0.008562982082366943 -0.0049925693310797215 0.005380559712648392 0.007232188247144222 -0.003046623896807432 -0.004160546697676182 -0.008033644407987595 -0.003862557467073202 0.003410994540899992 -0.0037784134037792683 0.0034162967931479216 0.0039016788359731436 -0.0057287672534585 6.164942169561982E-4 0.004455626476556063 0.0038605195004493 -0.00320392195135355 0.008214556612074375 0.0032004027161747217 -3.4212201717309654E-4
B64:ZA== -0.01938134990632534 0.039500631392002106 0.031057272106409073 0.013762437738478184 0.013973699882626534 0.013963751494884491 -0.019593587145209312 -0.017895376309752464 0.017318008467555046 -2.84170062514022E-4 0.04375944286584854 0.02919607236981392 -0.024833932518959045 0.014365479350090027 -0.011733293533325195 0.0042428006418049335 0.023600062355399132 0.04180539771914482 0.008187837898731232 0.003950680606067181 5.039467941969633E-4 0.011374191381037235 0.0028937605675309896 -0.04427710920572281 0.03188404440879822 -0.04586578160524368 3.480902232695371E-4 -0.05437024310231209 -0.006042528431862593 -0.0067881192080676556 -0.02900632657110691 -0.04491286724805832 0.002793976804241538 -0.020630216225981712 0.02631668746471405 0.00392711628228426 0.021370021626353264 -0.01183721050620079 0.008447879925370216 0.04787156358361244 0.033172912895679474 0.027402682229876518 -0.0054015228524804115 -0.002976398915052414 -0.0348551869392395 -0.017335589975118637 -0.0385250598192215 -0.011382998898625374 -0.015675965696573257 -0.00801730714738369 0.02595939300954342 0.014327938668429852 0.025902554392814636 -0.0014990054769441485 0.004685248713940382 -0.02137734368443489 -0.013196214102208614 -0.003287931904196739 -0.02437974326312542 -0.016012685373425484 0.016460107639431953 0.001938290661200881 -0.02302623726427555 -0.013515958562493324 0.007293653674423695 -0.01534054335206747 0.01371168065816164 -0.034547049552202225 -0.044294729828834534 0.0140111418440938 -0.022941121831536293 -0.007417359855026007 -0.009000631980597973 0.004674811847507954 0.0012421994470059872 -0.057429663836956024 0.03767147660255432 -0.019933007657527924 0.011675513349473476 0.0347384437918663 0.025997165590524673 -0.04049518331885338 0.01006042119115591 0.003668096847832203 -0.05891599878668785 -0.014204385690391064 -0.007281257305294275 -0.016702039167284966 -0.030955055728554726 0.012707505375146866 -0.0025658500380814075 -5.199210136197507E-4 -0.0088847316801548 0.00787518359720707 0.021949706599116325 -0.01866827718913555 0.015380713157355785 0.0033596702851355076 -0.02400675043463707 -0.0020977628882974386
B64:5oOz 0.0028114214073866606 -0.007844784297049046 -0.004095945507287979 -0.006486503407359123 0.0030841422267258167 -0.012799466028809547 0.005987370386719704 -0.003987190779298544 -0.002321425825357437 -6.159110926091671E-4 -0.005256570875644684 1.8595001165522262E-6 0.00890268012881279 -8.486281149089336E-4 -0.006849330849945545 -0.012227598577737808 0.014195137657225132 -8.123929728753865E-4 0.0012022987939417362 -0.007212914526462555 -6.203958764672279E-4 -0.004362593870609999 0.0025950854178518057 0.006195812951773405 -0.005449892021715641 -0.008198662661015987 0.013758525252342224 2.4151547404471785E-4 -0.004888061434030533 -0.004192251246422529 -0.005154100712388754 -0.004059725906699896 0.018296951428055763 0.00453174440190196 0.006050089839845896 -0.012276926077902317 -0.008421866223216057 0.0012167067034170032 0.0175868421792984 -0.010417578741908073 -0.003982124850153923 -0.0030916386749595404 0.002870059572160244 -1.7064753046724945E-4 0.006139345932751894 -0.011710024438798428 -0.0036263158544898033 -0.01159924827516079 0.016991952434182167 3.4412217792123556E-4 0.0021719227079302073 -0.004627052694559097 0.0013002401683479548 -0.015031159855425358 0.019842781126499176 0.013964997604489326 0.0067359874956309795 -0.0028415543492883444 -0.0047289240173995495 -0.010194046422839165 -0.0030602063052356243 -0.010182559490203857 0.002763224532827735 0.017787251621484756 -0.004247958771884441 0.0012426972389221191 -0.00937526486814022 0.020269762724637985 -0.0076273842714726925 -0.001929777325130999 -0.0015774888452142477 -0.009627645835280418 -1.719648134894669E-4 -0.005407360848039389 -0.014185412786900997 0.006887530907988548 -0.006667009089142084 0.014876198954880238 -0.01663520187139511 -0.012873981148004532 2.623824402689934E-4 -0.0096155209466815 0.0015585090732201934 0.003619943279772997 0.010588699951767921 -0.003584620775654912 -0.01291042473167181 0.008807501755654812 -0.0016827670624479651 -0.005111935082823038 0.008786696009337902 -0.003539642319083214 -0.0027897958643734455 0.00805600080639124 -1.8732059106696397E-4 0.014504959806799889 0.0015242244116961956 0.0059078834019601345 0.016459649428725243 -0.004114846233278513
B64:5L+h 4.388774395920336E-4 -0.01838095858693123 0.003054863540455699 -0.02440931461751461 0.005744898691773415 -0.010719739831984043 0.018851298838853836 -0.00797960627824068 -5.894311470910907E-4 -0.017131419852375984 0.0039301710203289986 0.014432922005653381 0.005664416588842869 0.0015693416353315115 -0.0020448146387934685 -0.033029284328222275 0.03291750326752663 0.005149082280695438 0.005536783952265978 -0.015279012732207775 -0.014242058619856834 -0.01649816893041134 -0.006722418591380119 0.012593552470207214 -0.006318168714642525 -0.030165448784828186 0.02698008343577385 0.00580565957352519 -0.013513637706637383 -0.027878103777766228 -0.019230132922530174 -8.370112045668066E-4 0.045803628861904144 0.004451672546565533 0.02633453905582428 -0.027689145877957344 -0.01845579966902733 -0.003395320847630501 0.04726281762123108 -0.004371060524135828 -0.022458555176854134 -0.004506522323936224 0.012672950513660908 -0.006661019753664732 0.006346088834106922 -0.012883884832262993 -0.01341739110648632 -0.019766226410865784 0.025899555534124374 1.16729162982665E-4 -0.006925360765308142 0.005552647169679403 0.001772970543242991 -0.03552518039941788 0.05540413036942482 0.031227070838212967 -0.0012652630684897304 -0.002471697283908725 -0.034896496683359146 -0.026300104334950447 -0.0054994369857013226 -0.02995387092232704 0.019229857251048088 0.020062575116753578 -0.01830226741731167 0.00258765765465796 -0.043587226420640945 0.04666859656572342 -0.008362745866179466 0.005379320587962866 -0.01367991417646408 -0.020253336057066917 0.005160114727914333 -0.018142418935894966 -0.022197693586349487 0.025835780426859856 -0.009095198474824429 0.041682545095682144 -0.03383259102702141 -0.03789609298110008 -5.754883750341833E-4 -0.0181893240660429 0.017821842804551125 0.017393551766872406 0.01143683958798647 -0.013794858008623123 -0.028298435732722282 0.012921919114887714 0.021608823910355568 -0.015856290236115456 0.021984601393342018 9.888842469081283E-4 0.012187293730676174 0.021038949489593506 -0.009028630331158638 0.029824549332261086 -0.0067186178639531136 0.005321735516190529 0.0334203839302063 -0.00624544732272625
B64:5Y+v5Lul -0.002557797357439995 -0.007263936102390289 0.003101649461314082 -0.00876643881201744 -0.005633119028061628 -0.002046880079433322 0.005506142508238554 -0.002344730542972684 -0.0013986029662191868 -6.021729204803705E-4 7.218312239274383E-4 0.0019283435540273786 0.004538847133517265 0.0018255326431244612 -0.003818071912974119 -0.0063990396447479725 0.00634976290166378 0.0020371642895042896 0.002878973726183176 -0.006268056575208902 9.926052298396826E-4 -0.0017606113106012344 -0.0017857957864180207 0.004173134919255972 -0.002717925002798438 -0.004564270377159119 0.006048145703971386 0.004498613066971302 -0.0036877563688904047 -0.008700406178832054 -0.005644512828439474 -0.0010251514613628387 0.007833797484636307 0.0011657405411824584 0.007712694816291332 -0.0020512256305664778 -0.003663943149149418 -0.0017432704335078597 0.01205375138670206 1.5812667697900906E-5 -0.01086623314768076 -0.00974405650049448 0.0018488941714167595 1.8545525381341577E-4 0.0012297218199819326 -0.00743521936237812 -0.0037108128890395164 -0.0038186267483979464 0.010252810083329678 -0.004544148687273264 -0.006064276210963726 0.005495241843163967 -0.004733647685497999 -0.009363215416669846 0.01252120640128851 0.009218401275575161 -0.0018280362710356712 0.004583500791341066 -0.0076045263558626175 -0.0037203659303486347 -0.005375392735004425 -0.006720602512359619 0.005524929612874985 0.0023872896563261747 -0.007331100758165121 -0.0022817328572273254 -0.011041120626032352 0.014759207144379616 5.144717870280147E-4 -0.003690702375024557 -0.0034471326507627964 -0.0022483395878225565 -0.001467334688641131 -0.010424009524285793 -0.003070098115131259 0.0017017965437844396 -0.007247216999530792 0.00677907932549715 -0.010870823636651039 -0.007422707974910736 -0.00580779742449522 -0.003908822312951088 -3.6261786590330303E-4 0.003798764431849122 0.005335796624422073 -0.0035076679196208715 -0.009454322047531605 0.009687523357570171 0.006812277715653181 -0.004837621934711933 0.004510549828410149 0.003908722661435604 0.0030151044484227896 0.0027328499127179384 -0.001984795555472374 0.005876687355339527 0.0012094625271856785 -0.00524101173505187 0.012650677002966404 0.0018835316877812147
B64:5bem 0.003761155763641 -0.006006265990436077 0.006255378481000662 -0.014630251564085484 -0.010738955810666084 -0.007908732630312443 0.0157602671533823 -3.989768447354436E-5 -0.0033079050481319427 -0.007347992621362209 6.246770499274135E-4 0.007026979234069586 0.002072166418656707 0.001071834471076727 -6.51087611913681E-4 -0.010018838569521904 0.018364401534199715 -0.002680824138224125 0.002540378365665674 -0.0031532926950603724 -0.003346705576404929 0.001050700549967587 -0.00784502923488617 0.008722381666302681 0.003711941186338663 -0.007200280204415321 0.025860650464892387 0.001892540603876114 0.006751359440386295 -0.012626072391867638 -0.006577206775546074 0.008403025567531586 0.016680791974067688 0.0026167521718889475 0.011860813945531845 -0.004050835967063904 -0.004498050548136234 0.005088224541395903 0.02297365665435791 -0.01222700159996748 -0.015054531395435333 -0.01230780128389597 0.00939231552183628 -0.002842253539711237 -0.005943468306213617 -0.022825974971055984 -0.013659906573593616 -0.014727270230650902 0.01666884310543537 -0.009700864553451538 -6.33286836091429E-4 0.007858684286475182 -0.012310151010751724 -0.027374062687158585 0.030408062040805817 0.019071729853749275 0.0015695912297815084 0.006313886493444443 -0.02321154810488224 -0.016914723441004753 -0.010670922696590424 -0.005979894194751978 0.017682086676359177 0.013349314220249653 -0.0010669169714674354 7.135607884265482E-4 -0.01895374245941639 0.018587986007332802 -0.005518605001270771 0.0032172282226383686 -0.006445595063269138 -0.011809871532022953 0.0019187814323231578 -0.014010823331773281 -0.018864326179027557 0.01386338286101818 9.46899235714227E-4 0.014638257212936878 -0.011263161897659302 -0.02996876835823059 0.004961499013006687 -0.009217208251357079 0.01648837886750698 0.009308983571827412 0.002742242068052292 -0.004947129171341658 -0.01958250254392624 0.01632160134613514 0.006482817232608795 -0.0059257205575704575 0.011017938144505024 3.665021504275501E-4 0.003793092677369714 0.01922696828842163 5.724569782614708E-4 0.009190705604851246 0.0010142856044694781 -0.007283128332346678 0.026237325742840767 -0.004679128993302584
B64:5Yiw -6.651240400969982E-4 0.003108011558651924 -0.00266456650570035 0.01258030068129301 -2.2383824398275465E-4 0.009724181145429611 -0.010847637429833412 5.598535644821823E-4 -0.003567633917555213 0.007716589607298374 0.004006864968687296 -0.005101809278130531 -0.0048249997198581696 0.0018833616049960256 1.6872680862434208E-4 0.014420157298445702 -0.014966600574553013 -0.002262667054310441 -8.006272837519646E-4 0.0015406579477712512 0.007643213029950857 0.00651650782674551 8.468333980999887E-4 -0.004118249751627445 -0.00537325581535697 0.00202690321020782 -0.009768915362656116 0.004535901825875044 -1.0567851859377697E-4 0.005711870733648539 0.005754290614277124 2.31582424021326E-4 -0.016561489552259445 7.310895598493516E-4 -0.009573996998369694 0.008783415891230106 0.0021528522484004498 0.0020581823773682117 -0.01783961057662964 9.901162702590227E-4 0.0039505320601165295 0.0065079908818006516 -0.00519975321367383 9.437415865249932E-4 -3.281308163423091E-4 0.010389662347733974 0.011982048861682415 0.009373504668474197 -0.005779636092483997 0.004276264924556017 -0.002197382040321827 -0.005887801293283701 4.761634045280516E-4 0.01076526939868927 -0.02457796409726143 -0.005821954924613237 0.0016061734640970826 -0.0028150025755167007 0.008777046576142311 0.012072109617292881 0.003961839247494936 0.003866407787427306 -0.006567352917045355 -0.00801644753664732 4.597932274919003E-4 0.001729500712826848 0.011526317335665226 -0.013939573429524899 0.008384703658521175 -4.897367325611413E-4 0.011161543428897858 -3.096497675869614E-4 0.0012600624468177557 0.00501624820753932 0.00380015280097723 -0.009862659499049187 0.003579409560188651 -0.010419882833957672 0.011368407867848873 0.007113204337656498 -0.0013153166510164738 0.0129164457321167 -0.009896956384181976 -0.002565893344581127 -0.00727228494361043 4.3799987179227173E-4 0.008160464465618134 -0.008042831905186176 -0.0021879253908991814 0.007131541613489389 -0.00346119306050241 -0.006838193628937006 -0.002949959132820368 -0.009085518307983875 -0.001623006770387292 -0.010360208339989185 0.006855734623968601 -0.003259807825088501 -0.006550978869199753 0.006094321142882109
B64:5ZGA -0.010103066451847553 -0.0011704135686159134 0.015338432043790817 -0.004530257545411587 0.006496610585600138 -0.009333804249763489 0.009491467848420143 -0.02393047884106636 0.007519003935158253 -0.010157408192753792 0.010475576855242252 0.01602891832590103 -0.004638466518372297 0.003456549718976021 -0.008603332564234734 -0.014868763275444508 0.02509158104658127 0.01744792051613331 -0.0012536440044641495 -0.014402611181139946 -0.0012390149058774114 -0.011579974554479122 -0.0014894570922479033 -0.012351909652352333 0.005907885730266571 -0.03691878542304039 0.02224869094789028 -0.024251263588666916 -0.01757257804274559 -0.021514592692255974 -0.020079556852579117 -0.028662430122494698 0.03172534331679344 -0.005383903160691261 0.03086984157562256 -0.014270205050706863 -0.0013459705514833331 -0.008796361275017262 0.02672215737402439 0.013197105377912521 -0.0035120388492941856 0.012845237739384174 0.002875702455639839 0.0014630540972575545 0.0041935257613658905 -0.011383645236492157 -0.0185684971511364 -0.01718999445438385 0.013087250292301178 -0.0037207547575235367 0.010588690638542175 0.010557844303548336 0.021327093243598938 -0.02353319711983204 0.025830931961536407 0.011260008439421654 -0.007604870479553938 -0.0026621625293046236 -0.03089848719537258 -0.018343282863497734 0.008532964624464512 -0.020989621058106422 9.352320339530706E-4 0.007894577458500862 0.0036018001846969128 -0.0026638959534466267 -0.022852668538689613 0.02349359169602394 -0.02327280305325985 0.010906948707997799 -0.029962709173560143 -0.023579606786370277 0.0029631778597831726 -5.553816445171833E-4 -0.006553801242262125 -0.0018859958508983254 0.00581410201266408 0.007677863352000713 -0.010072522796690464 7.892530993558466E-4 0.020870190113782883 -0.02161199413239956 0.014637607149779797 0.01998608373105526 -0.014119272120296955 -0.01857380010187626 -0.012892225757241249 0.007895730435848236 0.005588801112025976 -0.009620802477002144 0.013639776036143303 0.004724574740976095 0.002140024211257696 0.007307761814445257 0.011637136340141296 0.007095029577612877 -0.009129800833761692 0.01174245122820139 0.019097410142421722 -0.002103848149999976
B64:5ZKM -0.018472012132406235 0.042646534740924835 0.03479133918881416 0.02418692409992218 0.01962646283209324 0.02312658354640007 -0.02522461675107479 -0.014814146794378757 0.01482994481921196 -0.0054242885671556 0.029121503233909607 0.01969185471534729 -0.031466394662857056 0.015378167852759361 -0.0014042690163478255 0.01085047610104084 -0.0025151935406029224 0.05239475145936012 -0.003294885391369462 0.016274400055408478 0.010879367589950562 0.022873828187584877 0.008025437593460083 -0.07352118194103241 0.04568222910165787 -0.03395223990082741 -0.012825782410800457 -0.05796865373849869 -0.016535518690943718 0.00265900744125247 -0.025354547426104546 -0.046218715608119965 -0.010296955704689026 -0.017015058547258377 0.005594127811491489 0.01899118162691593 0.02539878524839878 0.0036829360760748386 -0.031034421175718307 0.08225668966770172 0.03600931912660599 0.042918331921100616 -0.005611824803054333 -0.021723970770835876 -0.023264016956090927 0.006408632267266512 -0.04264623299241066 0.011565882712602615 -0.04374504089355469 -0.004906360525637865 0.038193538784980774 0.020726297050714493 0.03575355187058449 0.020644355565309525 -0.038821835070848465 -0.0486714169383049 -0.0177665613591671 -0.0018422638531774282 -0.019609708338975906 -0.011140381917357445 0.03963163495063782 0.016221677884459496 -0.040343064814805984 -0.03400649130344391 0.03309987112879753 -0.007988519966602325 0.03912528231739998 -0.05619756132364273 -0.029149020090699196 0.006726487074047327 -0.022878801450133324 0.0016131064621731639 -0.015087632462382317 0.02550472505390644 0.03830986097455025 -0.0597376674413681 0.029705125838518143 -0.051365334540605545 0.02607606165111065 0.07883948087692261 0.04484616592526436 -0.02245444431900978 -0.004265443421900272 -0.010321363806724548 -0.079216368496418 -0.011181963607668877 0.02909371815621853 -0.016341550275683403 -0.024721631780266762 0.03245580941438675 -0.03118900954723358 -0.00496166804805398 0.0053306277841329575 -0.014010603539645672 0.01596079207956791 -0.029154371470212936 0.006380812264978886 -0.0011879057856276631 -0.04564792662858963 0.005647686310112476
B64:552H -0.0023915739730000496 -0.0016035744920372963 0.014180715195834637 -0.0181909017264843 -0.0024841572158038616 -0.01830648072063923 0.01772717386484146 -0.003201315412297845 -8.947757305577397E-4 -0.0032536922954022884 0.001837319927290082 0.004178255796432495 0.006691511254757643 -7.487825350835919E-4 -0.0012033928651362658 -0.024166958406567574 0.020003680139780045 0.01308294665068388 0.0031153163872659206 -0.00711353262886405 -0.0060013169422745705 -0.007169470656663179 -0.01065825019031763 0.004460899159312248 0.004108193796128035 -0.003276483155786991 0.025093110278248787 -9.121066541410983E-4 -0.010042139329016209 -0.018588360399007797 -0.01855785958468914 0.00333988294005394 0.036729760468006134 -0.003268148982897401 0.016235794872045517 -0.009261514991521835 -0.00865931622684002 0.006203967612236738 0.031443316489458084 -0.010058912448585033 -0.026852324604988098 -0.01207063440233469 0.013298939913511276 -0.008274654857814312 -4.97720146086067E-4 -0.017766406759619713 -0.02355477772653103 -0.02285981923341751 0.025822050869464874 -0.009599128738045692 0.0035550121683627367 0.014201849699020386 -0.005284941289573908 -0.02998621016740799 0.04397723451256752 0.015680717304348946 0.012146065942943096 0.005631419830024242 -0.0331655852496624 -0.023170914500951767 -0.013815544545650482 -0.012495234608650208 0.025911103934049606 0.013466563075780869 -0.0048317862674593925 0.007698276545852423 -0.027939092367887497 0.02886076085269451 -0.019835403189063072 0.009664449840784073 -0.02296864427626133 -0.004292692989110947 -0.00240304390899837 -0.016015611588954926 -0.014858115464448929 0.016402576118707657 -0.002730324398726225 0.030449477955698967 -0.01782696135342121 -0.024535832926630974 0.016655385494232178 -0.023393500596284866 0.0266406387090683 0.00790725089609623 0.006650407332926989 -0.004188256803900003 -0.015864944085478783 0.02209305949509144 0.0090975696220994 -0.013461500406265259 0.006006741430610418 0.005027370527386665 0.011902079917490482 0.007165731396526098 -0.005648643709719181 0.018197106197476387 -0.006034947000443935 0.0020269486121833324 0.018579553812742233 0.0021799260284751654
B64:5aSn5Lq6 0.007114069536328316 0.011759206652641296 -0.026915207505226135 0.031010085716843605 -0.006858497858047485 0.009346500039100647 -0.02748369239270687 0.01778467744588852 -0.005492194555699825 0.012752089649438858 -0.006609348114579916 -0.024302102625370026 -0.007916279137134552 -0.009602432139217854 0.008466671220958233 0.04247044399380684 -0.047088462859392166 -0.015847530215978622 -0.00701758312061429 0.02521362155675888 0.012789081782102585 0.012087675742805004 -0.003161775879561901 0.003967372700572014 -0.01654483750462532 0.03998124599456787 -0.04544991999864578 0.01773383468389511 0.017602305859327316 0.03399837389588356 0.03449201211333275 0.013653737492859364 -0.06521843373775482 0.006322144065052271 -0.04465854912996292 0.019506366923451424 0.008925480768084526 0.00597779406234622 -0.0661613866686821 -0.0013980426592752337 0.020567312836647034 0.010764909908175468 -0.020225971937179565 0.0010935929603874683 0.004124599974602461 0.030208587646484375 0.028414873406291008 0.024144481867551804 -0.02799699641764164 0.005518313962966204 0.00246849050745368 -0.015102246776223183 -0.0026973101776093245 0.03687833622097969 -0.07113151997327805 -0.030205169692635536 0.001035972498357296 0.006336988881230354 0.04868517071008682 0.037800099700689316 0.005428090691566467 0.03681483119726181 -0.021344546228647232 -0.03522496670484543 0.01346177700906992 0.003806021995842457 0.05373155698180199 -0.048419028520584106 0.022667864337563515 -0.02410833165049553 0.03295205906033516 0.022348295897245407 0.007666352670639753 0.021220646798610687 0.031341489404439926 -0.019170792773365974 -0.0036609754897654057 -0.045001547783613205 0.03461636230349541 0.029413839802145958 -0.019701002165675163 0.03600086271762848 -0.04166662320494652 -0.023071778938174248 0.0017312447307631373 0.0061836144886910915 0.031684987246990204 -0.034395407885313034 -0.016132930293679237 0.018448684364557266 -0.015156309120357037 -0.0054667629301548 -0.013908659107983112 -0.018357260152697563 0.0035588578321039677 -0.017556579783558846 0.0011120325652882457 -0.005429909564554691 -0.03407479450106621 0.013684972189366817
B64:6K6y -0.0024810966569930315 0.009929993189871311 0.019774291664361954 -3.4932297421619296E-4 0.0043455371633172035 0.0030526695773005486 -2.3676932323724031E-4 -0.010988441295921803 0.007547590881586075 -0.005944430362433195 0.015747008845210075 0.013622110709547997 -0.009199569001793861 0.0031711598858237267 -0.004788573831319809 -0.0028292930219322443 0.0169476680457592 0.016160262748599052 0.00676278630271554 -0.00485198711976409 -0.0050546578131616116 -0.0014666643692180514 -8.887083968147635E-4 -0.014378883875906467 0.016967996954917908 -0.018709052354097366 0.01190863735973835 -0.021945754066109657 -0.0011253603734076023 -0.010194461792707443 -0.020436037331819534 -0.021696042269468307 0.01383715495467186 -0.0094600860029459 0.014300740323960781 -0.001144190551713109 0.003279892262071371 -0.006900352891534567 0.01624441333115101 0.01993926428258419 0.0031715529039502144 0.007836471311748028 0.008562225848436356 -0.0037138317711651325 -0.008951911702752113 -0.013414681889116764 -0.02860298380255699 -0.006409626919776201 0.0051582809537649155 -0.01151918713003397 0.006959949154406786 0.004838613327592611 0.0030792851466685534 -0.01165264192968607 0.012897845357656479 0.0028107641264796257 -0.004412871785461903 -1.4963006833568215E-4 -0.0226032342761755 -0.024402454495429993 0.00826831255108118 -0.004079509060829878 -0.005076908972114325 -0.002294673817232251 0.005864354781806469 -2.6507466100156307E-4 -0.009309480898082256 -0.006578607950359583 -0.013693613931536674 0.004535176325589418 -0.01845642551779747 -0.006748364772647619 -0.003991399891674519 0.002229733159765601 -0.004532889928668737 -0.01255254540592432 0.009052063338458538 -0.0032019680365920067 -2.873335324693471E-4 0.0025312863290309906 0.015278340317308903 -0.01966651901602745 0.0066018844954669476 -0.002018420957028866 -0.01937049813568592 -0.008056729100644588 -0.011571642011404037 -0.0029986933805048466 -0.00818191934376955 -0.0072231898084282875 -0.0018162099877372384 0.003913002088665962 0.004269387107342482 0.01350554171949625 0.009123627096414566 0.003989551682025194 0.005587887950241566 0.0012369540054351091 0.0043938341550529 0.0021898667328059673
B64:6YeO 4.1282217716798186E-4 -0.0016114272875711322 -4.025036469101906E-4 0.005651408340781927 0.00596139021217823 -0.0018132715485990047 -0.007107556331902742 -0.0035557355731725693 -0.002994367852807045 -0.0011269511887803674 0.005843375809490681 -0.006069846451282501 0.0045257434248924255 -0.0033378838561475277 -0.0016739008715376258 0.0026116017252206802 7.65734410379082E-4 0.003631264204159379 -0.005598173476755619 -0.0015917147975414991 0.0015591288683936 0.0014014655025675893 -0.0036409746389836073 0.007503782864660025 -4.11429995438084E-4 -0.0019416265422478318 -0.003590470179915428 -0.0028460740577429533 0.0034026694484055042 0.0035779348108917475 -0.004044007509946823 0.003690761048346758 -0.008247804827988148 0.0021043820306658745 -0.003973968327045441 0.0032841407228261232 -2.759731432888657E-5 -0.0034289518371224403 -0.00458512594923377 -0.00660178204998374 -5.535864038392901E-4 0.005537864752113819 -0.004923109896481037 -0.0032143520656973124 0.002075747586786747 0.0064149233512580395 0.003373141633346677 4.7449718113057315E-4 5.470286123454571E-4 -3.685259725898504E-4 -0.003649550024420023 -0.003196785459294915 -0.006869710050523281 0.006550978869199753 -0.007257451768964529 0.002858896739780903 0.002749090548604727 -0.00257119070738554 -0.0020161313004791737 0.0011302109342068434 -0.001924285665154457 0.00477236183360219 -0.004235474858433008 -0.006310615222901106 0.0034689209423959255 -3.432265075389296E-4 0.008313297294080257 -0.003550120862200856 -2.2433703998103738E-4 -0.0010511885629966855 0.004644698929041624 -8.845982374623418E-4 0.0026433286257088184 -0.001892581582069397 0.004470969084650278 0.0054728020913898945 0.0054679149761796 -0.003745126072317362 0.0012338742380961776 0.0015544162597507238 -0.004245033022016287 0.005082371179014444 0.0016046860255300999 5.948072066530585E-4 0.0013406735379248857 0.0029842827934771776 0.0030069497879594564 -0.007549906615167856 -0.0023175093811005354 -0.0015845481539145112 0.004761469084769487 3.3749587601050735E-5 -0.008807444013655186 0.00260821427218616 -0.0051721688359975815 0.0025282728020101786 0.004518243484199047 0.0012901707086712122 -0.004937566351145506 1.6559848154429346E-4
B64:5Y+I -0.0030162802431732416 0.003942784387618303 -0.003286538412794471 -0.002428041771054268 0.004035498946905136 0.003254176117479801 0.006872099358588457 -0.0032639652490615845 0.0020266950596123934 8.426403510384262E-4 7.92677397839725E-4 0.003957889508455992 1.1144538439111784E-4 0.003066855017095804 -0.00431006820872426 -0.003852199064567685 -0.0032654311507940292 -0.001723768189549446 -0.0013343337923288345 -0.0017086484003812075 6.675710319541395E-4 -0.005517507903277874 -0.004481044597923756 -0.005836764816194773 -0.0020388695411384106 -0.004096052143722773 2.5470583932474256E-4 2.0086762378923595E-4 -0.006179959513247013 -0.0018601397750899196 5.258122109808028E-5 -7.699680281803012E-4 0.0038156406953930855 -0.003992392215877771 -0.0011561551364138722 -0.00360890687443316 0.004216326866298914 7.971253944560885E-4 -0.0017977363895624876 0.0020798584446310997 0.0020293465349823236 -0.0013322242302820086 0.004302495159208775 0.006642627529799938 -0.002464478835463524 0.0038345912471413612 0.0012099515879526734 0.0022125509567558765 -0.0026036601047962904 -0.0013812879333272576 6.079390877857804E-4 -0.002819115063175559 -2.844985865522176E-4 -0.005683328490704298 -0.0034036494325846434 0.00199940986931324 6.496664136648178E-4 -0.001582522178068757 -0.0051728105172514915 0.0025484042707830667 0.001427763607352972 -0.00416840985417366 0.004644953180104494 -0.004626142792403698 5.30892051756382E-4 -0.0039050548803061247 0.0022066838573664427 3.7734434590674937E-4 -0.0025268779136240482 0.001268264721147716 -1.6147419228218496E-4 -0.003352196654304862 -0.004766401834785938 0.005084891803562641 -6.599663174711168E-4 0.004774328321218491 -0.004325668327510357 0.004848503973335028 -0.002666832646355033 0.0035495939664542675 0.0025786585174500942 0.005731899291276932 0.0015138916205614805 0.0075201354920864105 -0.005342730786651373 -0.0013436429435387254 0.00478891609236598 -0.003305991180241108 0.0018330005696043372 -0.0018470591166988015 0.004681007470935583 0.004941810853779316 -9.484712791163474E-6 -0.0011348205152899027 -0.001783632906153798 -0.004770052153617144 -3.073408151976764E-4 0.004828045144677162 0.0012104021152481437 0.0015963255427777767
B64:5oC76LWE5Lqn 0.008294160477817059 0.0017378380289301276 -0.022420089691877365 0.013085523620247841 -0.003749403404071927 0.0017418558709323406 -0.015127219259738922 0.015697363764047623 -0.006906683091074228 0.013453414663672447 -0.005759137682616711 -0.009350224398076534 0.0044290171936154366 -0.002940409118309617 0.0026694952975958586 0.022845294326543808 -0.02382246032357216 -0.009100140072405338 -0.004465878941118717 0.012961529195308685 0.01251227967441082 0.004202071111649275 -0.0038003043737262487 4.3086023651994765E-4 -0.007997367531061172 0.02827305719256401 -0.02727012149989605 0.012903043068945408 0.012560348957777023 0.015337731689214706 0.014506204053759575 0.013156631030142307 -0.03619624301791191 -0.0029510357417166233 -0.029382038861513138 0.013457913883030415 0.003094716928899288 -0.0032706400379538536 -0.029531607404351234 -0.013980753719806671 0.012400048784911633 0.0025139115750789642 -0.015417772345244884 -1.109691511373967E-4 6.189224659465253E-4 0.01862686313688755 0.024849379435181618 0.013598620891571045 -0.0078026000410318375 0.008296005427837372 -0.0014292974956333637 -0.009607653133571148 -0.004675264935940504 0.01819121092557907 -0.032657090574502945 -0.01846526935696602 0.001610913430340588 0.00402973173186183 0.022416971623897552 0.017631037160754204 -0.004199361428618431 0.021579841151833534 -0.0039830803871154785 -0.01205129362642765 -0.0027290615253150463 -8.862976683303714E-4 0.024275224655866623 -0.028950028121471405 0.015870878472924232 -0.015279700979590416 0.02164216712117195 0.007925119251012802 0.004103139974176884 0.007407628931105137 0.014928098767995834 -0.003605568315833807 4.3437749263830483E-4 -0.017736338078975677 0.019103137776255608 0.011654156260192394 -0.011792398057878017 0.018332915380597115 -0.015298017300665379 -0.013390514999628067 0.005491215735673904 0.003962610382586718 0.015269958414137363 -0.016841216012835503 -0.008339287713170052 0.009953305125236511 -0.007646319456398487 -0.004758555442094803 -0.007534492760896683 -0.010158802382647991 2.4603254132671282E-5 -0.00853568222373724 0.004567970987409353 0.0016625754069536924 -0.014427992515265942 0.004725644364953041
B64:55So -0.012767178006470203 0.033317722380161285 0.03101658634841442 0.017694460228085518 0.01196462195366621 0.012028450146317482 -0.014509906992316246 -0.006698872894048691 0.0058634113520383835 0.00344097544439137 0.028156956657767296 0.017990199849009514 -0.019200269132852554 0.004119030199944973 -0.003671464743092656 0.0010142092360183597 -0.0038915385957807302 0.03594329208135605 -0.0016887558158487082 0.011186162009835243 0.00703229196369648 0.008006407879292965 0.0064888629131019115 -0.045215900987386703 0.039165303111076355 -0.01963193342089653 -0.007013863418251276 -0.04326270893216133 -0.011842339299619198 0.001585761085152626 -0.021298913285136223 -0.034177351742982864 -0.008089768700301647 -0.019102318212389946 0.002420877106487751 0.015328885987401009 0.022347331047058105 -0.003122608410194516 -0.015197846107184887 0.046450190246105194 0.030090412124991417 0.02125714160501957 -0.005190474912524223 -0.012130928225815296 -0.022224023938179016 0.003605544799938798 -0.035275157541036606 -0.0030525573529303074 -0.01979975961148739 -0.0059510162100195885 0.027334805577993393 0.013371996581554413 0.022501792758703232 0.0059897094033658504 -0.02339961752295494 -0.03495802357792854 -0.007796665653586388 0.004715308081358671 -0.020105641335248947 -0.010964799672365189 0.026047207415103912 0.009852663613855839 -0.027248620986938477 -0.025577588006854057 0.01639457792043686 -0.0057382360100746155 0.028831737115979195 -0.039481133222579956 -0.026277415454387665 0.003731562988832593 -0.018785666674375534 0.006814268417656422 -0.01554400660097599 0.017345314845442772 0.016286469995975494 -0.04597062990069389 0.023319097235798836 -0.03316238150000572 0.013662926852703094 0.050649985671043396 0.030386941507458687 -0.02322196401655674 0.009528141468763351 -0.006400623824447393 -0.0472002737224102 -0.001289521693252027 0.009732740931212902 -0.01040365919470787 -0.018424639478325844 0.012486819177865982 -0.018793869763612747 0.0019156242487952113 -0.0032010716386139393 -0.0015439859125763178 0.014781606383621693 -0.02105802111327648 0.009258123114705086 -0.005279209930449724 -0.03517637401819229 0.00423924857750535
B64:55yL -7.975534535944462E-4 -0.0012043989263474941 0.009556085802614689 -0.009284469299018383 -0.004482524003833532 9.316315845353529E-5 0.007586014457046986 -0.009869595989584923 0.0018737363861873746 -0.008604511618614197 -0.004393460229039192 0.009395529516041279 -0.004619238432496786 0.005821411032229662 0.00682852603495121 -0.009113491512835026 0.013014447875320911 0.007974936626851559 -0.0014931296464055777 -0.0013118298957124352 -0.0012663041707128286 0.001800334663130343 -0.006664222571998835 -9.602794889360666E-4 0.009573911316692829 -0.004782204516232014 0.01966160535812378 -0.00402487488463521 -0.004584871232509613 -0.014179854653775692 -0.015731818974018097 0.0010924817761406302 0.020890064537525177 -0.0021678516641259193 0.012235195375978947 -0.0046890294179320335 -0.005426038056612015 0.005698804743587971 0.012155923992395401 0.008234592154622078 -0.013822462409734726 -1.306107296841219E-4 0.007449958007782698 -0.0036226564552634954 0.0013668837491422892 -0.0033792504109442234 -0.021814238280057907 -0.007510277908295393 0.014459925703704357 -0.004489613696932793 0.005962737835943699 0.01767747849225998 0.0012449065688997507 -0.019245166331529617 0.022319480776786804 0.011404055170714855 0.007069524843245745 0.005694305058568716 -0.023586178198456764 -0.014509640634059906 0.0020284398924559355 -0.0072462838143110275 0.011716578155755997 8.161506266333163E-4 0.004897797480225563 0.004317155107855797 -0.01568887010216713 0.01367325522005558 -0.012258794158697128 0.00681632524356246 -0.014110596850514412 -0.0010360007872805 -0.007009349763393402 -8.702802006155252E-4 -0.008408795110881329 0.0050170281901955605 0.005095416679978371 0.014519479125738144 -0.00968184694647789 -0.005149173084646463 0.013853874988853931 -0.014752614311873913 0.008230128325521946 0.006406974047422409 -0.00585244782269001 -0.0029540634714066982 -0.010106706991791725 0.01582590863108635 0.008859528228640556 -0.001495953882113099 -0.006013049278408289 -0.0020234023686498404 0.013296878896653652 0.0027775345370173454 -0.0029723690822720528 0.00950950849801302 -0.008266525343060493 0.0033593312837183475 0.011703641153872013 -0.004055670462548733
B64:5q27 1.3331329682841897E-5 -0.005248336121439934 -0.0013034285511821508 -0.015631360933184624 2.492935163900256E-4 -0.013999632559716702 0.014695486985147 -0.0029056326020509005 -7.58012174628675E-4 0.0034164288081228733 -0.005755293183028698 0.005591568071395159 0.0035316008143126965 -0.007321786135435104 -0.008770585991442204 -0.01590895839035511 0.015227391384541988 -0.009745776653289795 0.0034568437840789557 -0.01610451005399227 -0.004287199582904577 -0.013821274973452091 -0.0030535664409399033 0.019503287971019745 -0.010209443047642708 -0.006371545605361462 0.023927705362439156 5.778386548627168E-5 -0.004295760300010443 -0.019068041816353798 -0.007483682129532099 0.0023763428907841444 0.024973813444375992 0.0012231640284880996 0.015763552859425545 -0.011842504143714905 -0.015235577709972858 -0.005946617107838392 0.03591982647776604 -0.022310905158519745 -0.015234243124723434 -0.015541554428637028 0.004332023207098246 0.005502576939761639 0.005150491371750832 -0.02179599553346634 3.3798819640651345E-4 -0.022183338180184364 0.02148752473294735 -9.673938620835543E-4 0.0017590724164620042 -0.0013486469397321343 -0.011979819275438786 -0.02495502680540085 0.03501973673701286 0.020152701064944267 0.0122511712834239 5.71662385482341E-4 -0.01692959852516651 -0.017508704215288162 -0.012011575512588024 -0.01778431423008442 0.019112538546323776 0.023883040994405746 -0.015404114499688148 -1.900108763948083E-4 -0.022456388920545578 0.026591707020998 -0.0061806789599359035 0.0016561088850721717 -0.004160564858466387 -0.016209354624152184 -0.002616714220494032 -0.015008089132606983 -0.01406813133507967 0.012808941304683685 -0.0033388601150363684 0.03237556666135788 -0.022788019850850105 -0.03108002059161663 -0.01082593109458685 -0.010175127536058426 0.016105487942695618 2.3075065109878778E-4 0.018791276961565018 -0.0034256340004503727 -0.023873690515756607 0.020665151998400688 0.005272951442748308 -0.016360703855752945 0.018026335164904594 0.006122063845396042 0.002802572911605239 0.012759956531226635 -0.010882247239351273 0.023768644779920578 0.0012129039969295263 0.0021083469036966562 0.02088662050664425 7.187987212091684E-4
B64:57uD -0.006077615078538656 -6.15078373812139E-4 0.0031205820851027966 -0.003584916703402996 0.0011518059764057398 -0.0042366753332316875 0.004033080767840147 0.001131752273067832 0.0015453458763659 0.00180306367110461 0.002100075827911496 0.0011536297388374805 0.0034474271815270185 0.0026919031515717506 -0.0013082653749734163 -0.0043057105503976345 0.0021335333585739136 0.0047489008866250515 -0.002411837689578533 -0.0013228785246610641 0.0012663023080676794 0.0019950398709625006 0.0011834175093099475 -0.0034719514660537243 0.0016950510907918215 -8.164953906089067E-4 0.003331697080284357 -0.005869694519788027 -0.008061481639742851 -0.004712753929197788 -0.005963523406535387 0.001221281010657549 0.002351401373744011 -0.004466397687792778 0.0059008183889091015 -0.00367900007404387 0.003566387575119734 0.004112268332391977 -0.001586426980793476 -1.704995083855465E-4 -0.006031304132193327 -0.005917155649513006 0.0025022560730576515 0.0010550346923992038 0.004439263138920069 -9.484179900027812E-4 -0.006082662381231785 -0.005100259557366371 -0.0018190820701420307 0.003158791223540902 0.0049674236215651035 0.008388747461140156 0.004403164144605398 -0.004835726693272591 0.010509887710213661 -0.001912986277602613 -0.0015577375888824463 -0.0018881851574406028 -0.005727293435484171 -0.002998680341988802 -0.003596850670874119 -1.4623976312577724E-5 0.007243874482810497 -0.0034898968879133463 8.714760188013315E-4 0.0034610354341566563 -0.00868305191397667 0.003645488293841481 -0.006026103626936674 -0.0015291327144950628 -0.00364795234054327 -8.541089482605457E-5 0.0010622187983244658 -0.0036479798145592213 -0.002492195228114724 7.51378305722028E-4 0.0017531479243189096 0.003134806640446186 6.091112736612558E-4 0.0025612544268369675 0.006080315914005041 -0.0033762860111892223 0.007232925854623318 -6.386443856172264E-4 0.003282698104158044 7.739685825072229E-4 -0.00453720660880208 0.004106821492314339 5.21997339092195E-4 -0.0030891294591128826 0.0029215810354799032 0.004168451763689518 0.006869882810860872 0.0030461130663752556 0.0018348399316892028 -0.0018509577494114637 0.0017321357736364007 -8.479072712361813E-4 0.003131449455395341 -0.004606407601386309
B64:5oiR5Lus -0.007774557918310165 0.023210598155856133 0.0017252088291570544 0.02591637335717678 0.005392357241362333 0.020438754931092262 -0.020782146602869034 0.009519961662590504 0.0021895619574934244 0.009343174286186695 0.0068061137571930885 -0.0031001640018075705 -0.010643853805959225 0.0016502870712429285 5.001941462978721E-4 0.025392552837729454 -0.020680559799075127 0.021186115220189095 -2.96819896902889E-4 0.0260859876871109 0.01641245186328888 0.021929383277893066 -0.002737520495429635 -0.031810082495212555 0.016695601865649223 0.0013306854525581002 -0.03571135923266411 -0.02015521749854088 0.0034245692659169436 0.0129991564899683 0.0016593242762610316 -0.011777782812714577 -0.04388709366321564 -0.008861805312335491 -0.019211912527680397 0.02559652179479599 0.02908693440258503 -4.519268695730716E-4 -0.04692031070590019 0.03386945649981499 0.036074139177799225 0.020098736509680748 -0.011520538479089737 -0.007748945616185665 -0.017266124486923218 0.024920349940657616 -3.36903496645391E-4 0.01820101961493492 -0.04158565402030945 4.6752317575737834E-4 0.018918517976999283 0.0020204291213303804 0.01318715326488018 0.03114042803645134 -0.05293771252036095 -0.03984367102384567 -0.006761206313967705 5.321688950061798E-4 0.012544362805783749 0.01155204139649868 0.02658153511583805 0.024602171033620834 -0.026711653918027878 -0.038665592670440674 0.01988489367067814 -7.821984472684562E-4 0.037586510181427 -0.04750683903694153 0.005617491900920868 -0.010254573076963425 0.003123372094705701 0.01883550174534321 -0.006506836973130703 0.015205783769488335 0.030197162181138992 -0.03505171090364456 0.013146016746759415 -0.049931325018405914 0.024083247408270836 0.053760841488838196 0.00827844999730587 0.00640895776450634 -0.011540219187736511 -0.016139715909957886 -0.03480382263660431 0.007092314772307873 0.0220042634755373 -0.0198057834059 -0.01823079027235508 0.022512231022119522 -0.020801343023777008 -0.0072249737568199635 -7.35775800421834E-4 -0.015919581055641174 0.007757671643048525 -0.027739206328988075 0.013716227374970913 -0.010800454765558243 -0.03734936565160751 0.007941213436424732
B64:54K5 -0.0022605014964938164 0.0224553644657135 0.007871562615036964 0.012246672995388508 0.011688153259456158 0.014586318284273148 -0.009722214192152023 -0.010891088284552097 0.004138014279305935 0.005266665015369654 0.01236494816839695 0.005460850894451141 -0.011839751154184341 -0.0011704500066116452 0.00437570083886385 0.022871069610118866 -0.009119323454797268 0.02262871339917183 -0.004655159544199705 0.014869725331664085 0.011453110724687576 0.0036473271902650595 0.0040364512242376804 -0.025946881622076035 0.014534153044223785 -0.01100347749888897 -0.013545073568820953 -0.019962003454566002 -0.004684206563979387 0.004162583500146866 -0.004663429688662291 -0.024301869794726372 -0.013008920475840569 -0.0070913005620241165 -0.0021153963170945644 0.016663536429405212 0.00982860941439867 -3.1510600820183754E-4 -0.028605710715055466 0.03803959861397743 0.018644453957676888 0.025805506855249405 -0.012365284375846386 -0.007381607312709093 -0.0056235832162201405 0.009194711223244667 -0.006381944287568331 0.005943335127085447 -0.02735314331948757 0.0015609709080308676 0.01977403461933136 2.460259129293263E-4 0.016200609505176544 0.0151954535394907 -0.033614933490753174 -0.027438435703516006 -0.005557985045015812 0.004449343308806419 -0.0047668954357504845 0.0022453938145190477 0.02172906883060932 0.015033097937703133 -0.015989646315574646 -0.01777038536965847 0.010130627080798149 -0.0017149728955700994 0.02195563353598118 -0.03358331695199013 -0.006962656043469906 -0.005745760165154934 -0.006576150190085173 0.007108362857252359 -0.004165027756243944 0.021595848724246025 0.02190343663096428 -0.02812032774090767 0.01099784392863512 -0.03181116282939911 0.01745796762406826 0.037297919392585754 0.02357545495033264 -0.007772590033710003 -0.006369527895003557 6.260416121222079E-4 -0.03706130012869835 -0.00666391383856535 0.017888884991407394 -0.019100651144981384 -0.009974508546292782 0.014869105070829391 -0.012145508080720901 -0.0036653783172369003 -9.218112681992352E-4 -0.012317955493927002 0.017913658171892166 -0.014076102524995804 -0.003425964852795005 0.0038955400232225657 -0.018801139667630196 0.0032854003366082907
B64:6K+0 -0.00926468800753355 0.013944139704108238 0.01750977523624897 0.004254815634340048 0.010782545432448387 0.007543680723756552 -0.007824845612049103 -0.019211016595363617 0.005929746199399233 0.0021907722111791372 0.01875358447432518 0.010973691008985043 -0.007088168989866972 0.001826722058467567 -0.007929290644824505 -9.570219554007053E-4 0.0028840189334005117 0.023480305448174477 0.0032643009908497334 0.006451712921261787 0.006066434551030397 0.0068769194185733795 0.004646646324545145 -0.029529716819524765 0.01988123171031475 -0.023158112540841103 4.5077200047671795E-4 -0.02605181746184826 -0.0061325677670538425 -0.005197100341320038 -0.017707159742712975 -0.02655838243663311 0.007071179803460836 -0.004781830124557018 0.01172748114913702 -8.715600706636906E-4 0.014195344410836697 -0.008080318570137024 -0.005505333188921213 0.034166716039180756 0.0116809057071805 0.01523013599216938 -0.003942552953958511 -0.005262457765638828 -0.011301230639219284 -0.004065622575581074 -0.02603297121822834 0.0011652769753709435 -0.008955596014857292 -0.005497838370501995 0.012891940772533417 0.013235680758953094 0.02304268069565296 0.005659786053001881 -4.118741780985147E-4 -0.009282667189836502 -0.003678114851936698 -2.255939762108028E-4 -0.021740954369306564 -0.014743402600288391 0.014836982823908329 -3.1533377477899194E-4 -0.012866382487118244 -0.007179193198680878 0.012016803957521915 -0.008862495422363281 0.005589429289102554 -0.011661747470498085 -0.012636222876608372 0.0017070529283955693 -0.0200375784188509 -0.008909370750188828 -0.01242210902273655 0.00439284136518836 0.0128205306828022 -0.02971041202545166 0.017850076779723167 -0.015395169146358967 0.002782430499792099 0.02883579023182392 0.026055991649627686 -0.01462599914520979 0.0026165589224547148 -0.0016015216242522001 -0.0360550582408905 -0.013549636118113995 0.007060482166707516 -0.006046035327017307 -0.006840259302407503 0.011373769491910934 -0.0016631359467282891 1.287002523895353E-4 0.0041116829961538315 -0.0045271641574800014 0.008998044766485691 -0.008019525557756424 0.0038984527345746756 0.0036531626246869564 -0.011591445654630661 0.0043582553043961525
B64:5pyJ5aaC -0.00972270779311657 -9.486742783337831E-5 0.011663663201034069 -0.004582669120281935 -0.007001381833106279 3.331064945086837E-4 0.011010461486876011 -0.0029718244913965464 0.003498465521261096 -0.006124005187302828 0.006807385478168726 0.001038670539855957 -0.009435245767235756 4.5278010657057166E-4 -0.0037664209958165884 -0.006263242103159428 0.013928353786468506 0.015358006581664085 -0.004687303211539984 -0.0028762698639184237 0.0035898478236049414 -0.0027986003551632166 -7.661656709387898E-4 -0.011792456731200218 0.015416795387864113 -0.003016052069142461 0.010038918815553188 -0.007609834894537926 -0.012413696385920048 0.002012532437220216 -0.007252947427332401 -0.008443295955657959 0.01467208843678236 -0.0017208214849233627 0.007650488056242466 0.002741533564403653 -6.459313444793224E-4 0.0044791013933718204 0.00855355616658926 0.008837549015879631 -0.005455649923533201 -0.0032885035034269094 0.005788088776171207 -0.003589525120332837 -0.008255638182163239 0.0017113396897912025 -0.019721180200576782 -0.013930111192166805 -0.003842519363388419 -0.0015196027234196663 0.0063775936141610146 0.0077203866094350815 0.007422865368425846 -0.0070172869600355625 0.007691457401961088 0.0030053032096475363 0.0044672610238194466 0.004318427760154009 -0.019475197419524193 -0.014327838085591793 0.003404241520911455 -0.004357733763754368 0.006642996799200773 0.007487236522138119 0.007785649038851261 -0.004971131682395935 -0.0012444861931726336 0.004193264525383711 -0.00831961166113615 0.005551870446652174 -0.007721537258476019 0.008570647798478603 -0.00648728059604764 -0.008356680162250996 -0.00376116787083447 0.004315532743930817 0.0022604414261877537 0.0019022389315068722 -0.0053945970721542835 -3.6764168180525303E-4 0.015003603883087635 -0.015752822160720825 0.004806201905012131 -1.9763434829656035E-4 -0.0022158364299684763 0.004759958945214748 0.004005884286016226 0.01343602780252695 0.009433262050151825 -0.004669214598834515 -0.006917223799973726 0.0014029530575498939 0.011102409102022648 -0.002431168220937252 -0.004881327040493488 0.0068979766219854355 -0.005631329026073217 -0.005744279827922583 -9.097296861000359E-4 -0.005397444125264883
B64:5aW9 -0.0059543936513364315 0.0029006029944866896 0.006070015020668507 -0.001453976146876812 0.0035603055730462074 0.0019410125678405166 0.006941559258848429 -0.01371480617672205 0.005154469981789589 -0.008621505461633205 0.005305606871843338 0.009106829762458801 8.13318241853267E-4 0.0029468541033566 0.002538456115871668 -0.004569850862026215 0.008251841180026531 0.0061341929249465466 0.005124141462147236 -0.008112621493637562 -0.0030929401982575655 3.384984447620809E-4 -0.004800894297659397 -0.006226136349141598 0.008285821415483952 -0.011841680854558945 0.012190102599561214 -0.011741082184016705 -0.0064169964753091335 -0.00675120810046792 -0.0031141447834670544 -0.01484973356127739 0.011164692230522633 -0.008199532516300678 0.011041023768484592 0.0029051699675619602 0.0024867586325854063 -0.006553034298121929 0.010064181871712208 0.002699656877666712 1.231549249496311E-4 0.0010747801279649138 0.005424281116575003 1.0705451131798327E-4 9.929793886840343E-4 -0.002793875290080905 -0.011262227781116962 -0.0030565012712031603 -7.016289746388793E-4 -0.004908503498882055 0.0035710097290575504 4.20904194470495E-4 0.010809998959302902 -0.012940235435962677 0.0023586275056004524 0.0037990189157426357 -0.004842092748731375 0.0025378884747624397 -0.009900452569127083 -0.009160289540886879 0.006149165332317352 -0.007823904044926167 0.006261806003749371 -0.002390057547017932 0.005494339857250452 -0.005504057742655277 -0.00863424502313137 0.006667086388915777 -0.007953247986733913 -0.0018136980943381786 -0.007286242675036192 -0.008661223575472832 -0.0057159471325576305 -0.003543136641383171 9.759156964719296E-4 -0.002458132803440094 0.0013719516573473811 0.003216809593141079 0.0019976578187197447 0.0017183787422254682 0.014790629036724567 -0.006568433716893196 0.0033086182083934546 0.007425750605762005 -0.00484639685600996 -0.0036574567202478647 -5.939367110840976E-4 0.005333864130079746 -5.2339524700073525E-5 -0.0013370709493756294 -0.002022945089265704 -8.34333710372448E-4 7.969647413119674E-4 -0.0022940547205507755 0.002052922733128071 0.005297855939716101 3.298162773717195E-4 0.0029240783769637346 0.008920618332922459 0.002067957306280732
B64:5YWI -0.005077047273516655 0.004714942537248135 6.489081424660981E-4 -0.008462068624794483 4.656755190808326E-4 -7.866581290727481E-5 -3.970405086874962E-4 -0.009692523628473282 4.823746276088059E-4 -0.0037290845066308975 0.008895214647054672 0.005797130987048149 -0.005823082290589809 3.212921001249924E-5 8.615045226179063E-5 -0.009493947960436344 0.012708707712590694 0.0033701250795274973 -0.0018448489718139172 -0.008341224864125252 0.0021238906774669886 9.229207353200763E-5 5.0960729822691064E-6 -0.0032395150046795607 0.004771959502249956 -0.008961815387010574 0.007995601743459702 -0.005993303377181292 0.001338050700724125 -0.009026134386658669 -0.005999509710818529 -0.003529943758621812 0.011926339007914066 7.23169301636517E-4 0.010640555061399937 -0.00950913317501545 -0.0038652666844427586 -0.009592532180249691 0.01032312773168087 0.0043208422139286995 -0.008752447552978992 -0.003242277540266514 0.0029157199896872044 0.0026767398230731487 0.0035676860716193914 -0.004208465106785297 -0.008005119860172272 -0.002238576766103506 0.011184114031493664 -3.2201968133449554E-4 0.0071340384893119335 0.0039038946852087975 0.006249108351767063 -0.00896561611443758 0.014741456136107445 0.009843775071203709 0.003741299966350198 5.871320609003305E-4 -0.010032279416918755 -0.008455983363091946 -0.002838470973074436 -0.0018479973077774048 -0.0025113190058618784 0.0027513843961060047 0.003128079464659095 -0.0038986082654446363 -0.012667372822761536 0.009098447859287262 -0.011721568182110786 0.0036323436070233583 -0.009253878146409988 -0.004077078774571419 0.004306490998715162 -0.003528324421495199 0.0011445205891504884 -0.005617743823677301 6.797745591029525E-4 0.010857431218028069 -0.007551188580691814 8.695166907273233E-4 0.0020956287626177073 -0.013685072772204876 0.0022551100701093674 0.011287675239145756 -0.004586190450936556 0.0015052229864522815 -0.0030438266694545746 -3.529930836521089E-4 0.0026244891341775656 -3.801136335823685E-4 0.005309396423399448 0.0035319707822054625 -0.002646218053996563 0.008087354712188244 9.697414352558553E-4 0.003817184129729867 -0.004351912532001734 0.004635817836970091 0.008265126496553421 -0.001187303219921887
B64:5aSq -0.009314758703112602 0.006679825484752655 0.019548246636986732 -0.00472955172881484 -6.78167212754488E-4 -0.001814526622183621 0.005969671998172998 -0.014689965173602104 9.048120118677616E-4 -0.004548617638647556 0.006106195971369743 0.013300633989274502 -0.013014135882258415 0.010780584998428822 0.0013501083012670279 -0.010120077058672905 0.016536055132746696 0.012628455646336079 0.007685807067900896 -0.005072447471320629 6.091951509006321E-4 0.0029901969246566296 0.0036892436910420656 -0.01192842423915863 0.016619067639112473 -0.017919836565852165 0.015893278643488884 -0.017878614366054535 -0.010670132003724575 -0.005541933700442314 -0.017377890646457672 -0.019381502643227577 0.02339438535273075 -0.005916411988437176 0.013267649337649345 -0.007340541575103998 -0.004443339537829161 -0.0021330888848751783 0.012933590449392796 0.02045230008661747 -0.005886488128453493 0.0019755754619836807 0.0044521065428853035 -0.0077587999403476715 -0.009907853789627552 -0.009872015565633774 -0.021135486662387848 -0.014634729363024235 0.004445959348231554 -0.007017911411821842 0.0031327593605965376 0.016790123656392097 0.015330612659454346 -0.009763423353433609 0.01813543029129505 0.006608725991100073 -0.004284359980374575 -0.0020401361398398876 -0.02514566481113434 -0.010111426003277302 0.0025507393293082714 -0.008672570809721947 0.0037635082844644785 0.00666471803560853 0.0053385472856462 -0.004084883723407984 -0.0074341921135783195 0.005740215070545673 -0.023124482482671738 0.009764652699232101 -0.021011270582675934 -0.007233966141939163 -0.004414824768900871 -0.0062046898528933525 -0.0011027319123968482 -0.005247971974313259 0.0012696170015260577 0.006818201392889023 -0.009099207818508148 0.005135687999427319 0.017744656652212143 -0.01840708963572979 0.013827991671860218 0.011470160447061062 -0.01900644786655903 -0.007838441990315914 0.001095858053304255 0.005171305034309626 0.003443389665335417 9.698380599729717E-4 -0.004300824366509914 0.0017033627955242991 0.010087053291499615 0.005143945571035147 -7.164641283452511E-4 0.007551051676273346 1.5909079229459167E-4 -7.885663071647286E-4 2.7228574617765844E-4 -0.00833773985505104
B64:5oiR5Zyw -0.005531685426831245 0.021454045549035072 0.008376655168831348 0.009686654433608055 -0.003806165186688304 0.014253472909331322 -0.014249664731323719 0.006956296041607857 0.0035144761204719543 -0.0024469003546983004 0.007527173031121492 0.009991789236664772 -0.008947320282459259 0.003089664503931999 0.006641660816967487 0.014402296394109726 -0.004302713554352522 0.010498348623514175 -0.006198108661919832 0.00603375444188714 0.005035067442804575 0.011745034717023373 -7.788118091411889E-5 -0.021114196628332138 0.014606893062591553 -0.004825604613870382 -0.01541071105748415 -0.0160854309797287 0.0032304597552865744 2.826386480592191E-4 -0.0026420033536851406 -0.013038086704909801 -0.019973712041974068 -0.0017499076202511787 -0.006143562961369753 0.01607937552034855 0.012377924285829067 -4.2744341772049665E-4 -0.011366130784153938 0.012061161920428276 0.022394957020878792 0.011332718655467033 -0.009350285865366459 5.55574893951416E-4 -0.015138537622988224 0.008391608484089375 -0.013294897973537445 0.004123215563595295 -0.017457928508520126 -0.002380952937528491 0.006514411419630051 0.005198483821004629 0.004352990537881851 0.01046170387417078 -0.01829378493130207 -0.021530279889702797 -0.00444716727361083 0.004737975541502237 -9.809568291530013E-4 -0.0033530164510011673 0.010774663649499416 0.008930616080760956 -0.01612114906311035 -0.021531222388148308 0.01366072241216898 -0.0027441801503300667 0.018540045246481895 -0.02809062972664833 -0.006742214784026146 -0.006295494735240936 0.005692849401384592 0.012686779722571373 -4.194173379801214E-4 0.0045582870952785015 0.003965278621762991 -0.025647930800914764 0.012065893039107323 -0.027001941576600075 0.01404484361410141 0.01935385726392269 0.006961049512028694 -0.0018743533873930573 -0.005919640883803368 -0.010013950988650322 -0.020199686288833618 -0.0018784103449434042 0.008346603251993656 -0.011399777606129646 -0.016759080812335014 0.006931628100574017 -0.01302831806242466 -0.005562296602874994 -0.0028643631376326084 0.004391275346279144 0.0046502272598445415 -0.012334509752690792 0.007608247455209494 -0.0010299411369487643 -0.015052232891321182 -0.0034006424248218536
B64:5Li6 6.540960166603327E-4 -0.007882916368544102 -0.010913711972534657 0.004002662841230631 0.003941090311855078 -0.0075479294173419476 -0.009199053980410099 -0.004931573756039143 0.00213581882417202 0.005267017986625433 0.009795955382287502 -0.009831614792346954 -4.261889844201505E-4 -0.004406043794006109 -0.008144402876496315 -0.006911953445523977 -4.438901087269187E-4 -0.009423496201634407 0.0072069233283400536 -0.0048940423876047134 -0.006630983203649521 -0.011370247229933739 -0.004075563978403807 0.01585596613585949 -0.006969667971134186 -0.015213612467050552 -0.004977647215127945 0.0023185117170214653 4.961500526405871E-4 0.0027505126781761646 -0.01101947296410799 -0.00862081442028284 -0.006925536319613457 -0.007868119515478611 -0.007704879157245159 -0.012410144321620464 0.0029404424130916595 -0.01441809069365263 0.02130776271224022 -0.007170881610363722 0.005557239055633545 8.42906127218157E-4 -4.3646711856126785E-4 -0.004686346743255854 0.006092492025345564 0.0016508691478520632 0.016756700351834297 -7.985838456079364E-4 0.0046548559330403805 0.009871588088572025 -4.795799031853676E-4 -0.016218949109315872 -0.002466882113367319 0.010369214229285717 0.007528161630034447 0.009312538430094719 -0.0019042605999857187 0.0016664477298036218 0.010601351037621498 0.013255301862955093 -0.00879028532654047 0.001564839156344533 -0.0057184104807674885 0.005779528059065342 -0.00212840735912323 8.974289521574974E-4 0.007915032096207142 0.006264320109039545 -0.010000352747738361 0.004236013162881136 0.003885851241648197 -0.0047171469777822495 -0.0037889094091951847 0.0017738789319992065 -0.002967164618894458 7.808131340425462E-5 0.00928674265742302 0.0026106464210897684 -0.009173850528895855 0.008334523998200893 -0.00552721181884408 0.0021652632858604193 -0.011277468875050545 0.0036492336075752974 0.008243847638368607 7.712244987487793E-4 -0.010329161770641804 -0.009770765900611877 -0.016866272315382957 -0.0013252283679321408 0.0020776696037501097 0.004104627761989832 -0.017506971955299377 -0.001265868078917265 -0.003056303597986698 0.011526725254952908 0.017780976369976997 0.008714322932064533 -0.00969653856009245 -0.005318903364241123
B64:5ZCn 5.563935847021639E-4 -0.0031686436850577593 0.008172395639121532 -2.555866085458547E-4 0.005695991218090057 0.0011528063332661986 -0.0019363226601853967 -0.01253060344606638 0.0048185125924646854 -0.0030725039541721344 0.0014068440068513155 0.004364513326436281 -0.002176531357690692 0.004270914942026138 -0.0037395390681922436 -0.006239555310457945 0.00398813234642148 0.0023492975160479546 0.0020545462612062693 -0.00885834265500307 -0.0023776227608323097 -0.008561572059988976 -1.581507094670087E-4 -0.007858958095312119 -0.0013884834479540586 -0.009389827027916908 0.00594524247571826 -0.0056541780941188335 -6.247743149287999E-4 -0.0037742876447737217 -0.011231443844735622 -0.007083254866302013 0.012427289970219135 -0.006615873426198959 0.013142520561814308 1.6035125008784235E-4 0.0015757963992655277 -0.008763437159359455 0.002624109387397766 0.00709893275052309 -0.0023404830135405064 0.00341601250693202 9.811808122321963E-4 -0.004692225717008114 0.003533742157742381 0.002204882213845849 -0.0014677512226626277 -0.006679720710963011 0.003933614585548639 -0.0030633360147476196 -0.001987042836844921 0.0059431493282318115 0.012782853096723557 -0.002326905494555831 0.009647476486861706 0.002759267808869481 -0.002553247846662998 0.0011074200738221407 -0.009357212111353874 -0.006674518808722496 0.007559617981314659 -0.0013809133088216186 -0.0015300894156098366 0.0024482368025928736 0.004063910339027643 -0.004864677786827087 1.2479175347834826E-4 0.0067107840441167355 -0.002124897437170148 0.007073656655848026 -0.014166459441184998 -0.003893764689564705 -0.0017609891947358847 1.3882193889003247E-4 7.523655658587813E-4 -0.005376438610255718 0.006716861855238676 -0.0038738383445888758 -0.002676368923857808 0.0053406162187457085 0.008802651427686214 -0.00803364161401987 0.003838977077975869 0.008790899999439716 -0.004443285521119833 -0.0035743871703743935 -4.518901987466961E-4 0.0018016572576016188 0.003611764870584011 -0.003967016004025936 9.110142127610743E-4 -0.0018373638158664107 -0.0045836870558559895 3.1250668689608574E-4 1.304701145272702E-4 0.003187167923897505 -0.0018126985523849726 0.0025723555590957403 0.006329223979264498 9.172334684990346E-4
