41 100 47
B64:5piv -0.004370674956589937 0.002455119276419282 0.0018037930130958557 -0.002924027619883418 -0.0026171719655394554 -0.0010393947595730424 -0.001734765712171793 -0.003286208026111126 -1.5480638830922544E-4 -0.00156164460349828 0.004178883042186499 -0.0030210334807634354 -0.00346758053638041 0.0026270714588463306 0.0012174263829365373 0.0013128170976415277 -0.0027269322890788317 -3.110512625426054E-4 1.958922657649964E-4 0.002232721308246255 -0.0019778080750256777 5.661588511429727E-4 0.0032690868247300386 -0.002317046048119664 0.004449300933629274 8.124668383970857E-4 0.0012432748917490244 -0.0031076697632670403 0.0015718668000772595 7.299573626369238E-4 0.0036141476593911648 8.433384937234223E-4 0.004808543715626001 -3.7405165494419634E-4 0.004039314109832048 0.0020686821080744267 -5.143062480783556E-6 -0.0028145548421889544 0.0020654425024986267 0.0034430106170475483 -0.0012329427991062403 -0.004638433922082186 0.003532328410074115 -7.651909254491329E-4 0.002157218288630247 -0.0011293698335066438 -0.0041736881248652935 -0.004662955645471811 0.003152879187837243 -0.001009958446957171 -6.360519910231233E-4 0.004631483927369118 6.247526034712791E-4 -0.004742366727441549 0.004082722123712301 4.381990875117481E-4 0.0038164749275892973 4.782553296536207E-4 -0.004042775370180607 0.0019616771023720503 -0.0033802282996475697 0.002533762250095606 -0.0022906954400241375 -8.161368896253407E-4 0.0026820111088454723 -9.318914380855858E-4 0.0016018350142985582 0.0019192836480215192 -0.004014406818896532 0.003640534821897745 -0.004769434686750174 -0.0012800287222489715 9.331152541562915E-4 0.003378132125362754 0.0013583069667220116 9.682063828222454E-4 0.004251394886523485 0.004672842100262642 1.9190460443496704E-4 -7.511922158300877E-4 0.002061295323073864 -0.0041121006943285465 0.004806519020348787 7.344738696701825E-4 -0.0030568439979106188 0.004734049551188946 -0.001463414286263287 0.004992337431758642 8.091558702290058E-4 -0.003009313251823187 -0.004028677009046078 0.004533105529844761 0.0048291333951056 -0.0010119554353877902 -6.18660997133702E-4 -0.004397933837026358 -0.0033035636879503727 0.0025881899055093527 -0.001144207315519452 -0.0019051909912377596
B64:5Y+q 0.003469809191301465 0.0035869311541318893 0.0023619697894901037 0.0015989457024261355 0.005391925107687712 0.006769328378140926 0.0017597635742276907 -0.002422374440357089 0.006590500008314848 -0.00619520666077733 -0.006143977865576744 -0.0020313095301389694 0.004609575029462576 0.0032067422289401293 -0.00283551262691617 -0.004951725713908672 -9.736926294863224E-4 0.005043708719313145 7.432105485349894E-4 -0.0041197799146175385 -0.004645364824682474 -0.005106345284730196 0.006520742084830999 0.00404663011431694 0.003345524426549673 -0.005856045987457037 0.0064780088141560555 -0.0036655704025179148 -0.005708075128495693 0.003774643409997225 -0.001163718057796359 -2.8814782854169607E-4 0.005171882454305887 -0.005346014630049467 0.0014220598386600614 -0.0016031545819714665 -0.005786231718957424 0.004914272576570511 0.0015534469857811928 0.004053323995321989 -0.0049065276980400085 7.616570219397545E-4 8.886316209100187E-4 3.774933284148574E-4 -0.005294046830385923 -0.0038473824970424175 0.0028560615610331297 0.005485565867275 0.005780298728495836 -8.8306242832914E-4 0.0017931961920112371 -7.257823017425835E-4 0.0034505119547247887 -5.882729310542345E-4 0.0020747336093336344 -0.005248419474810362 0.004203298129141331 -0.007247673347592354 0.002278900006785989 -0.004320275038480759 -0.002705454360693693 -0.005192374344915152 0.004630818497389555 0.002469373168423772 0.0024056988768279552 0.003371385857462883 -0.002447467064484954 0.005399720277637243 -0.005735273938626051 -0.004164018668234348 8.897052612155676E-4 -0.0011408672435209155 -0.006418394856154919 0.0050560166127979755 0.004357297904789448 0.004569306969642639 0.0019106717081740499 -0.0011472231708467007 0.004506017081439495 0.002917218953371048 0.006899002008140087 2.8509935873444192E-5 -0.004045792389661074 0.0038856237661093473 0.001838065916672349 -2.8750667115673423E-4 -0.004860628396272659 -0.005432085134088993 0.003982138819992542 -0.0010924747912213206 0.005354979541152716 -8.608083007857203E-4 -0.00397157296538353 -0.005327699240297079 0.006256802007555962 0.005035764537751675 0.0010596696520224214 -0.0024167774245142937 -8.027825970202684E-4 0.0029831891879439354
B64:6IKl5amG -0.003572372952476144 0.0026254754047840834 6.293909973464906E-4 -0.001564124715514481 -0.0031556610483676195 0.00469439709559083 -0.0014742761850357056 -0.0022757421247661114 0.0024189394898712635 -0.006408974528312683 0.006038976833224297 -1.8528093642089516E-4 -0.005337192211300135 0.004542206414043903 -0.005175214260816574 0.0014165017055347562 0.0033270048443228006 -0.004696249961853027 -4.2104560998268425E-4 0.0024742281530052423 4.3297160300426185E-4 0.004574564751237631 0.007534882519394159 -0.004926823079586029 6.593249418074265E-5 -0.003467416390776634 5.35131199285388E-4 0.004013479221612215 -8.033984340727329E-5 -9.73953225184232E-4 0.005310647189617157 -0.004721484147012234 0.0028565835673362017 -0.0033119898289442062 0.0018412756035104394 -0.004364349879324436 -0.003637001384049654 -0.0021578550804406404 -0.0031934017315506935 0.00461660185828805 -0.0030249939300119877 0.0024394881911575794 -0.0047878543846309185 8.961084531620145E-4 0.004249654710292816 0.004610522650182247 -4.797811561729759E-4 0.003928292077034712 -0.004493174608796835 -0.0033621781039983034 -0.004143109545111656 0.004938462283462286 0.0013319466961547732 0.003446637187153101 -0.0036731697618961334 -2.686895022634417E-4 0.001168129383586347 -0.002308883937075734 -0.0036371147725731134 4.274955135770142E-4 0.0031452744733542204 4.0889604861149564E-5 -0.005580266006290913 -3.68237670045346E-4 0.006451454479247332 -0.0010144638363271952 -0.0025465309154242277 2.7898391635972075E-5 -0.0034693116322159767 -0.005147017538547516 -0.0019325186731293797 -0.002595375059172511 7.306381594389677E-4 0.0014138544211164117 0.002058645710349083 -0.0030562684405595064 0.004640152677893639 1.172413321910426E-4 0.002979164244607091 0.002048861002549529 0.003526517190039158 -5.849553272128105E-4 -0.0047343820333480835 0.0033714021556079388 -0.0037519284524023533 -0.0015658361371606588 0.0016349643701687455 -0.006835979409515858 0.004426018334925175 0.005046690348535776 0.001712577068246901 5.712424754165113E-4 0.0033353520557284355 -0.0018416428938508034 2.1516015112865716E-4 -0.004716383293271065 7.506329566240311E-4 0.005042762029916048 -4.2222897172905505E-4 -0.0031274883076548576
B64:5L2g 0.004048339556902647 0.004043486434966326 0.001968358876183629 -0.00420756172388792 -0.0013014074647799134 0.004688981920480728 -0.002216411754488945 3.426648327149451E-4 -0.0035789154935628176 8.078575046965852E-5 0.0044626351445913315 0.00528887752443552 -0.005031675565987825 6.565417861565948E-4 -0.0012398607796058059 -0.0020043151453137398 -0.004610731732100248 -0.001403629663400352 -0.005177654791623354 -3.647694829851389E-4 -0.0013532357988879085 0.003894236171618104 0.0028514123987406492 0.0035233069211244583 -0.0019534912426024675 -0.00433391472324729 -5.730225166189484E-5 -0.0036501239519566298 6.884548347443342E-4 -0.0019089714623987675 -0.0053236219100654125 -0.0031086960807442665 -0.0027197927702218294 -0.00160312931984663 0.0012984396889805794 -0.004237892106175423 0.004933995194733143 0.0044058263301849365 0.0034980573691427708 0.004728430416435003 -0.001071064849384129 -0.003852489171549678 2.2335681933327578E-5 -0.00249893544241786 -0.0031656024511903524 7.101049413904548E-4 -0.004014140460640192 0.0025223002303391695 0.003741219639778137 -0.00423150509595871 -0.0020253502298146486 -0.002680143341422081 -0.002748229308053851 0.0034200195223093033 -0.0028414649423211813 -0.004725827369838953 0.003601283999159932 -9.671986335888505E-4 8.251678082160652E-4 -0.0037196322809904814 -0.002299901796504855 0.0023802032228559256 -0.003263398539274931 -0.004334033001214266 0.0016683433204889297 6.503204931505024E-4 0.004247794859111309 -0.0036108135245740414 -0.004370388574898243 -0.005193739663809538 0.0016943822847679257 0.0030679258052259684 0.00226738047786057 2.931710332632065E-4 -0.0011178983841091394 -0.004934686701744795 0.004902656655758619 -0.002725271275267005 0.0033401730470359325 4.110551963094622E-4 0.0051462166011333466 -0.0038315525744110346 -7.780454470776021E-4 3.545945801306516E-4 -0.004923628177493811 0.0034633923787623644 -3.4339321427978575E-4 -0.0012454306706786156 -0.002311740769073367 -0.002802882343530655 2.8992845909669995E-4 -0.004379638005048037 -0.0040025534108281136 0.00351640279404819 -0.0016687551978975534 -0.0035885947290807962 -3.621625655796379E-4 -6.073192926123738E-4 0.0028630304150283337 -0.0022173444740474224
B64:54uX 0.005240574013441801 0.006675592623651028 0.007087812293320894 -0.001588723505847156 0.004541728645563126 0.0010758762946352363 0.001079684472642839 -0.0033270465210080147 0.0029998216778039932 -0.001990844029933214 0.006638281047344208 0.0039491113275289536 -0.0036243824288249016 -0.0034585727844387293 -5.067033343948424E-4 -0.00446298997849226 0.005196192301809788 -0.005549824796617031 5.708995158784091E-4 -0.0010689086047932506 0.0018483231542631984 0.00413651205599308 0.008154608309268951 -0.0036063268780708313 -0.0011898106895387173 -0.006652160547673702 0.0014463684055954218 -0.005504995118826628 -5.677164881490171E-5 -0.0031515909358859062 -0.004108772147446871 5.171324592083693E-4 0.005139629356563091 0.0018279497744515538 0.0045712608844041824 -0.006721216253936291 0.0055522797629237175 -0.004290035925805569 0.0034961490891873837 -0.0020748204551637173 -0.0038558493833988905 0.007116544991731644 1.8130571697838604E-4 0.00427126232534647 0.004702273290604353 -2.3808542755432427E-4 -0.003374094609171152 -0.0011600257130339742 -3.5639447742141783E-4 0.002754323882982135 -5.764365196228027E-4 0.004228068981319666 -0.0020467143040150404 0.0019702923018485308 -0.0024506531190127134 -0.004419653210788965 0.0017813030863180757 0.0023408939596265554 -0.003076753579080105 2.113376249326393E-4 0.0010656993836164474 -0.00556510966271162 0.0019126406405121088 0.0017591187497600913 0.005270309746265411 -0.005195904057472944 -0.004129672423005104 0.002054077573120594 0.004492544569075108 4.6241312520578504E-4 0.0037082654889672995 -0.003121432149782777 -7.959840586408973E-4 -0.005300989840179682 0.002807862125337124 -9.673229069449008E-4 0.002632914111018181 0.005746603477746248 8.968323236331344E-4 -0.0036354619078338146 -9.790792828425765E-4 0.0033132918179035187 0.004947066772729158 -0.0016664308495819569 -0.005883389618247747 -0.0014857309870421886 -0.002298207487910986 -0.007661431096494198 0.005548976361751556 0.0015530702657997608 -1.3798927830066532E-4 -0.002277722582221031 0.005104786716401577 0.001325707184150815 -6.755228387191892E-4 -0.005479029845446348 -0.0025442850310355425 0.0011100727133452892 0.005442287307232618 -0.00532568758353591
B64:55qE 5.476819933392107E-4 -0.00335024856030941 -0.0040668947622179985 1.9256820087321103E-4 -3.3913651714101434E-4 -0.005165329203009605 -0.003453109646216035 -0.002434054622426629 -0.0014054705388844013 0.00366040482185781 -0.0040239132940769196 0.0037043923512101173 0.0029762168414890766 -0.0015841396525502205 -6.371482741087675E-4 -0.004636479075998068 -0.0021738295909017324 0.003917788155376911 -0.003681641537696123 -0.0038174064829945564 0.0036213297862559557 -2.078714460367337E-4 -0.0033210671972483397 0.0014725358923897147 -0.004116313997656107 0.0019607620779424906 0.003737993771210313 -5.094446241855621E-4 4.895594320259988E-4 -0.005098348017781973 -0.004813801031559706 -0.0023066983558237553 0.0019755365792661905 -0.0026782797649502754 -2.7992320246994495E-4 -0.0016240521799772978 -0.004206137731671333 2.355860488023609E-4 -0.0013311478542163968 -0.002724575810134411 0.002502781106159091 0.0015154972206801176 -8.721772464923561E-4 -0.0012025280157104135 0.003887008409947157 9.074723930098116E-4 -0.003765976522117853 0.002607475034892559 0.0019965851679444313 -0.004722372628748417 -0.0027638068422675133 -0.004655956756323576 -0.0048323459923267365 -0.0014079123502597213 -0.0042577264830470085 -0.0012496337294578552 0.0014554245863109827 0.002035516779869795 7.439611945301294E-4 -0.003866212908178568 0.00162604043725878 0.002490137005224824 -0.002209271537140012 0.0024642820935696363 -0.004056931007653475 -0.0011240809690207243 0.004576301667839289 -8.068516035564244E-4 0.0028614536859095097 -0.0023856479674577713 4.268397460691631E-4 5.494063952937722E-4 0.0013323321472853422 -0.004021196160465479 -0.004920026287436485 -9.011056972667575E-4 0.003143192734569311 0.0028660164680331945 -0.0019497891189530492 -7.547708228230476E-4 -0.004823808092623949 0.0036638437304645777 0.0010378822917118669 -6.535532302223146E-4 0.0047385478392243385 0.001499720150604844 -0.0028180165681988 0.004760616458952427 0.003861350240185857 1.3112647866364568E-4 8.182197343558073E-4 -0.0013532656012102962 0.003982066176831722 -0.004624039400368929 0.00427593756467104 0.0010460434714332223 -0.0030785503331571817 0.004904910922050476 0.004354335367679596 -0.0023268740624189377
B64:5Liq 0.004294290207326412 -0.0045912298373878 0.0031385724432766438 -0.0015777533408254385 -0.0015070367371663451 0.004618855193257332 0.0029549296014010906 -0.0010842311894521117 -0.002859614323824644 6.619484629482031E-4 7.416063454002142E-4 0.003907885402441025 -0.003207599511370063 0.003033555345609784 -0.003246615407988429 -0.0013649789616465569 0.001815245603211224 -1.969954464584589E-4 0.0013260116102173924 0.004384513478726149 -0.0017629184294492006 0.003495095996186137 -0.004559708759188652 0.0019470321713015437 0.002029426395893097 -0.004896682687103748 -0.0038031013682484627 0.0019992885645478964 0.004598790314048529 -6.757411174476147E-4 -0.001831267960369587 -0.004177522845566273 -7.399071182589978E-5 0.0021000399719923735 -0.003992221783846617 0.0019520444329828024 -0.002893034601584077 0.0027470295317471027 -0.002608702750876546 0.003832283429801464 5.554627859964967E-4 -0.003408807795494795 0.0022230627946555614 0.0024132688995450735 4.0290792821906507E-4 -0.0034850304946303368 0.0018896707333624363 -0.002641081577166915 0.0015767901204526424 -0.005493032280355692 0.003955737687647343 3.6155598354525864E-4 0.0012752971379086375 0.00134072988294065 0.004397937562316656 0.005072439089417458 -0.002013603923842311 -0.004826006945222616 -0.0035768295638263226 -4.6453202958218753E-4 6.792463827878237E-4 0.002980357501655817 -4.376212600618601E-4 9.996730368584394E-4 -0.0019317365949973464 9.781954577192664E-4 -0.0029730249661952257 -0.0015138883609324694 0.0020012331660836935 2.423434634692967E-4 3.402667061891407E-4 0.0034485578071326017 0.0024903223384171724 -5.672495462931693E-4 -0.004432839807122946 -6.392745417542756E-4 -0.0021875458769500256 0.0025597605854272842 5.560306017287076E-4 0.002962879603728652 0.004728314466774464 0.002206404460594058 -0.004103378392755985 6.500740419141948E-4 -0.0029567694291472435 -0.0036511633079499006 -0.0019148002611473203 0.005038795527070761 9.085727506317198E-4 -0.0043903375044465065 0.00341327884234488 -0.0024431853089481592 2.7404234060668387E-5 0.004132429603487253 0.0015890495851635933 -1.0734073293861002E-4 0.00412885844707489 -0.0016932609723880887 -0.005025988444685936 0.004974758718162775
B64:6bih -2.798950590658933E-4 0.004318590741604567 0.0072037396021187305 0.002307264832779765 0.0027345125563442707 0.0033045345917344093 0.0017833125311881304 -0.004574127029627562 0.006933724042028189 9.871621150523424E-4 0.003500575665384531 -0.00405817711725831 0.0017641318263486028 4.0476355934515595E-4 0.004931992385536432 3.759532773983665E-6 0.005276669282466173 0.004337648395448923 0.002107613254338503 0.001227094209752977 -0.0034263685811311007 -8.702713530510664E-4 0.0035462272353470325 -0.0029873710591346025 0.004968242719769478 -2.646936336532235E-4 -0.0024827406741678715 -0.006437224801629782 -0.006677534431219101 0.0011424978729337454 0.0017549085896462202 1.8550471577327698E-4 0.002188347978517413 -0.0034447968937456608 1.8774706404656172E-4 -1.785598033166025E-5 0.003662816947326064 -0.006121879909187555 -0.0020373319275677204 0.004221372306346893 0.0041015190072357655 0.006854296196252108 -0.005573182366788387 -0.0014157654950395226 -0.004047954920679331 -0.0012711896561086178 5.935316439718008E-4 0.0021557947620749474 -0.0016107972478494048 0.0028884364292025566 8.626982453279197E-4 0.00536191463470459 0.004568642005324364 -0.005745429079979658 7.443485665135086E-4 -0.007404906675219536 -0.003618015442043543 -1.6425906505901366E-4 -0.00322337681427598 0.004377106204628944 0.0018357576336711645 0.003754174802452326 -0.005388916004449129 -0.0023784784134477377 0.0059870099648833275 -0.005737383849918842 7.134501356631517E-4 7.53517379052937E-4 0.0017395283794030547 0.006042817607522011 -0.0014654187252745032 -0.0016781880985945463 -0.0035417897161096334 0.00413966691121459 0.004018484149128199 0.0011719070607796311 -0.0024407533928751945 0.0042802137322723866 0.003277625422924757 0.005591555032879114 -0.003866342594847083 0.0025063874199986458 -7.32924381736666E-4 -0.004505901597440243 -0.005256880074739456 -0.004962639417499304 0.0031819548457860947 -0.005413671024143696 0.001122198416851461 -3.19682207191363E-4 -0.001973880222067237 -0.00306933606043458 -0.002426233608275652 -8.439194061793387E-4 0.002704331884160638 -0.004772231914103031 0.0029791530687361956 0.0059693786315619946 0.003574633738026023 -0.00364882405847311
B64:5oiR 7.14813475497067E-4 -6.471521919593215E-4 -0.00532086007297039 0.0031797385308891535 0.004823833703994751 -0.004639155231416225 -0.0017616383265703917 -0.0023698112927377224 -0.001678408239968121 0.0010947103146463633 0.003633690532296896 0.0036719178315252066 0.0016400571912527084 -0.004067420493811369 -0.0048441095277667046 0.0016358529683202505 -0.004696990828961134 -0.0035248082131147385 -0.0025544939562678337 0.0022653809282928705 -4.6652747550979257E-4 -0.0027491895016282797 -0.004706079140305519 0.004813697654753923 -0.0012880711583420634 -0.0037107598036527634 -0.002560064662247896 -0.003916677553206682 -0.004200865048915148 0.0014826954575255513 1.300089934375137E-4 0.0025696628727018833 -0.004835174418985844 -5.01322268974036E-4 0.004523737821727991 4.563155525829643E-4 -0.0036118226125836372 -0.003785018576309085 0.0021964835468679667 -0.004656999837607145 -0.0017305177170783281 0.002426724648103118 8.608187781646848E-4 -0.003802940482273698 0.00247875414788723 -0.00397766288369894 0.0012574599822983146 -0.0034399719443172216 0.002944977255538106 -0.003133597318083048 0.0019393600523471832 8.205370977520943E-4 0.0020743871573358774 -0.003255882067605853 -0.003646448254585266 0.002792385406792164 0.004921236541122198 0.003287585685029626 -0.0013765055919066072 -0.003960650414228439 -0.004120026249438524 -0.0010548465652391315 -0.003719503525644541 -0.0012696186313405633 -0.0024291614536195993 2.0787188259419054E-4 0.0013186591677367687 -0.0031902065966278315 -0.0021996358409523964 -0.0037764660082757473 0.002652857918292284 -0.004567115567624569 0.005240491591393948 0.002310063922777772 -0.004555935971438885 -0.0014922777190804482 0.0021530429366976023 -0.002486675512045622 0.0030018379911780357 0.0049659921787679195 -5.314565496519208E-4 -3.321177791804075E-4 0.0024353894405066967 -0.004314722027629614 -0.0033931643702089787 0.0038350343238562346 0.0015109581872820854 -0.0022378491703420877 -0.005854572635143995 -0.005148528143763542 0.004433023743331432 0.002238332061097026 -0.004809133242815733 0.003331927815452218 0.0014434299664571881 2.886432921513915E-4 9.9437334574759E-4 0.002774651860818267 -0.00250024045817554 -0.0014992394717410207
B64:5pyJ -3.6124736652709544E-4 0.0014930907636880875 0.003805245039984584 -6.736407522112131E-4 -0.003904254175722599 0.005386630073189735 -0.0018287103157490492 0.0015298069920390844 0.004342102911323309 0.002114332979544997 0.003177160397171974 -8.898475207388401E-4 0.0014844272518530488 0.001963546732440591 0.0020263264887034893 0.0010662311688065529 0.0035452856682240963 0.001768857822753489 0.003650027560070157 -0.0044875009916722775 5.094069638289511E-4 0.0026228337083011866 0.002749735489487648 0.0027583499904721975 0.002870866796001792 -2.1622905478579924E-5 3.956737054977566E-4 0.0016882185591384768 -0.0016011274419724941 0.0014418619684875011 0.0027522286400198936 -0.001306683523580432 0.0017978177638724446 -0.005196257960051298 -0.0034485068172216415 0.002645312575623393 -0.0022120876237750053 -0.0018286736449226737 0.0027220759075134993 0.0019420591415837407 0.0036115681286901236 -0.0012896559201180935 0.0014517302624881268 -0.00304747954942286 0.0018821631092578173 0.0010810523526743054 -0.004239613190293312 0.002640360500663519 0.0017706353683024645 0.002559217857196927 -0.0025816287379711866 -0.0012696137418970466 -0.0023604375310242176 -5.495814839377999E-4 0.003078202251344919 0.0031717929523438215 0.0033787423744797707 -0.002466171281412244 -0.0017598200356587768 -1.8806656589731574E-4 0.0033199824392795563 -0.002297159982845187 -0.004758824594318867 -6.106829387135804E-4 3.103607377852313E-5 -0.0032242508605122566 -0.004845509771257639 0.0017216461710631847 -0.0015700164949521422 -0.0016382497269660234 -0.004783504642546177 0.0016652507474645972 -0.001252604997716844 -0.0035923400428146124 -0.0034641544334590435 -4.8156449338421226E-4 -0.0037876039277762175 -0.0033206630032509565 -0.00276175606995821 -0.003701122710481286 0.002745929406955838 -0.003718640888109803 -0.003162459470331669 -6.196817266754806E-4 0.002830409910529852 -0.005021349992603064 0.002976386807858944 -1.2159036850789562E-4 0.0022552870213985443 0.0012190303532406688 0.004001394379884005 -0.003227007342502475 -0.0019440846517682076 0.003376292996108532 -0.004043564200401306 -0.0022655585780739784 -1.5591511328238994E-4 -0.0025249291211366653 0.004987692926079035 0.004660901613533497
B64:6KaB -0.0030143235344439745 0.002215834567323327 3.339377581141889E-4 0.0013461221242323518 -0.002001951914280653 -0.0019564470276236534 -8.981165010482073E-4 0.0034556330647319555 0.0026794534642249346 0.0042252317070961 0.0014649786753579974 -0.005212217569351196 0.0036377371288836002 -0.00373860658146441 -2.0848737040068954E-4 -0.0025659454986453056 0.0019262507557868958 -1.3109705469105393E-4 0.004832236561924219 -0.002563648158684373 -0.0036415879148989916 -0.00442563695833087 -8.374759345315397E-4 0.004615355748683214 0.0026722487527877092 -0.003133497666567564 -0.0022155609913170338 6.635009194724262E-4 -0.004027217626571655 -0.003402264090254903 0.001170707051642239 -0.004455762915313244 0.0016925191739574075 0.004596891347318888 0.0010370457312092185 -0.0014062324771657586 -0.00397948594763875 -0.0027667463291436434 0.0018514286493882537 -0.0041779689490795135 -4.2720744386315346E-4 6.0461119574029E-5 0.0016723648877814412 -0.005002895835787058 0.002255713799968362 -0.002291901968419552 -3.0560651794075966E-4 0.0032656448893249035 0.004096770193427801 0.005156832747161388 0.0049357302486896515 0.0052918847650289536 -1.4901818940415978E-4 -0.004954891745001078 0.0014017574721947312 -0.006091088987886906 0.002827598247677088 -2.9956374783068895E-4 -1.5323073603212833E-4 0.001873355358839035 -0.0047338129952549934 0.004057755693793297 -6.223844247870147E-4 -0.0014894045889377594 -0.0011108455946668983 -0.001633526524528861 0.0037901990581303835 0.005185325164347887 -0.0034660508390516043 0.002279945882037282 -4.893100704066455E-4 0.002450348576530814 1.8030744104180485E-4 -0.0018580688629299402 0.005411405581980944 0.0017089651664718986 0.0018078871071338654 0.005726582836359739 -2.7543347096070647E-4 0.0026255296543240547 0.004855246748775244 -0.0027609935496002436 -7.660883129574358E-4 0.0012594759464263916 6.800687988288701E-4 -0.0047773211263120174 -0.002599855652078986 -0.004921553656458855 0.002894712844863534 0.0022890600375831127 1.8156615260522813E-4 -0.0053541893139481544 0.0038358927704393864 -0.005375874228775501 7.073432207107544E-4 -0.00441935146227479 -3.7182896630838513E-4 0.004435960669070482 -7.423206698149443E-4 -0.004680924117565155
B64:5LiA56eN 0.0021322001703083515 -0.0019334029639139771 -3.394800005480647E-4 -0.004650969058275223 0.004382458049803972 -0.004211723804473877 0.003666084725409746 -0.004926901776343584 0.0011672915425151587 0.0014188475906848907 6.895055994391441E-4 -0.0021955808624625206 0.0031131599098443985 -0.0044954679906368256 -0.0026908977888524532 -0.004107085056602955 8.671411778777838E-4 -0.0024492493830621243 -8.722987258806825E-4 0.0034811461810022593 -0.0018276122864335775 -0.0029552236665040255 0.004405867774039507 -0.0030645891092717648 -3.0019873520359397E-4 -0.001788294524885714 0.004640453029423952 -1.489314017817378E-4 -0.00116477080155164 5.844055558554828E-4 -0.003119614440947771 -0.0015572718111798167 0.005087700672447681 -1.9713696383405477E-4 0.0023026075214147568 -8.079061517491937E-4 -0.001325025805272162 -0.004914206452667713 0.002977999160066247 -0.002711823908612132 -0.0032569756731390953 -0.003382639028131962 -0.004022842273116112 0.003966015763580799 -0.0033208043314516544 -0.0030231561977416277 1.4938005188014358E-4 -0.0026533722411841154 -0.0038181066047400236 0.002686213469132781 0.0019471700070425868 0.003418663516640663 -9.733120677992702E-4 -3.3673204598017037E-4 -0.0031646827701479197 0.0034127566032111645 -0.004834771156311035 -0.0032576939556747675 0.0028829697985202074 -0.002850468037649989 0.0016445135697722435 0.00220402586273849 0.00448208162561059 0.004875047132372856 -0.003476758487522602 -0.002415855647996068 -0.0010259264381602407 0.0025471418630331755 -0.0021603547502309084 4.673671501222998E-4 -0.003712594276294112 0.0023349663242697716 0.004312815144658089 -0.003404243616387248 -0.0035350648686289787 0.0012656975304707885 0.0015882696025073528 -0.0019605483394116163 0.003330119652673602 -0.0031530431006103754 0.00269106007181108 -0.00210005696862936 0.0021982500329613686 4.4146948494017124E-4 -0.00409662164747715 1.1528280447237194E-4 1.787995861377567E-4 0.0013648741878569126 0.0020591234788298607 -0.0021446156315505505 -0.002640184247866273 0.004372466821223497 -0.003970885183662176 0.0037989066913723946 0.004817829001694918 0.004659363999962807 8.968541515059769E-4 0.0035060110967606306 -8.491389453411102E-4 -8.269086247310042E-4
B64:57O7 -0.0033665511291474104 0.002510413061827421 -8.993913070298731E-4 0.001950323348864913 -7.329333457164466E-4 0.0034738355316221714 0.0020892310421913862 2.0925850549247116E-4 -0.003321146359667182 0.004722506273537874 0.0029705213382840157 0.004148056264966726 -0.0023562349379062653 0.002033027820289135 7.582007092423737E-4 0.0035769811365753412 -0.0041368878446519375 -0.0027024694718420506 -0.005289249587804079 -0.0015541936736553907 -0.003221863182261586 0.003480382729321718 -0.0021453816443681717 6.128395325504243E-4 0.0015851344214752316 0.0021753113251179457 9.85458493232727E-4 -0.0022686999291181564 0.0051894295029342175 -0.0043739029206335545 -0.0050350818783044815 0.0036781239323318005 -0.0017074390780180693 -0.004256737884134054 -0.001104115042835474 -0.002403992461040616 -0.005240062717348337 7.84051779191941E-4 -0.00303802452981472 0.0022747379262000322 0.001271062414161861 -0.001596353598870337 0.003327985294163227 -0.00365917244926095 -8.17164487671107E-4 -0.0028181783854961395 -0.004793405067175627 -5.211987299844623E-4 0.003760075196623802 -7.749134674668312E-4 0.001944730174727738 0.0023951223120093346 4.8772236914373934E-4 1.2904721370432526E-4 0.004365161061286926 0.0028984525706619024 0.00246024108491838 -1.3251558993943036E-4 0.004374024458229542 -0.002909962320700288 -0.001534092822112143 -7.408192323055118E-5 0.005198013968765736 -0.0014666975475847721 0.0015097273280844092 -0.0036006064619868994 -0.0010800895979627967 -0.0031913751736283302 -5.895948852412403E-4 -0.00557938264682889 -0.0049192458391189575 -0.0032293188851326704 -0.0016803913749754429 -7.731096702627838E-4 -0.002878183266147971 -0.0047670453786849976 7.314984104596078E-4 -0.00514295743778348 -4.6187218686100096E-5 0.0020090851467102766 -1.824954670155421E-4 0.0029861554503440857 0.004546705167740583 0.00417077261954546 0.004824855364859104 0.0013098905328661203 0.0019749177154153585 0.004214315675199032 -0.0043309591710567474 0.0021440996788442135 0.005122629925608635 -6.235432811081409E-4 0.004626518115401268 -5.317571922205389E-4 -0.0012800219701603055 -0.0028508524410426617 -0.0017115605296567082 0.002095932373777032 -9.221518994309008E-4 -0.00422001164406538
B64:5rOi -0.004078715108335018 0.0032330842223018408 -2.1572971309069544E-4 -0.005277610849589109 0.004293658304959536 0.004983709659427404 -0.003951686434447765 0.002618222963064909 0.0027473079971969128 -0.003944123163819313 0.001261210534721613 0.004465676844120026 0.0012192662106826901 0.002804672345519066 0.003913701977580786 -0.0015051085501909256 0.003098223591223359 0.0013812981778755784 6.243133102543652E-4 0.003383963368833065 -0.003556450828909874 0.0030753742903470993 -0.003737740684300661 -0.0031573965679854155 -0.0029322144109755754 0.0030807291623204947 -1.794183044694364E-4 -0.0017170949140563607 0.0054604471661150455 -0.002954567316919565 -0.003577163442969322 9.997176239266992E-4 -0.005084426607936621 -0.0024530296213924885 0.004514142405241728 -2.2641479154117405E-4 0.002631603740155697 0.004757378716021776 0.004985244479030371 0.0016194876516237855 -0.004052949603646994 -0.0021716204937547445 0.0035453694872558117 9.82422730885446E-4 -2.475522705935873E-5 1.847621169872582E-4 -0.0030749307479709387 -0.004069620743393898 -0.002404181519523263 -0.005401420872658491 0.0032054083421826363 1.501345104770735E-4 0.003354560350999236 -0.004051049239933491 0.003351278370246291 0.0022503812797367573 -0.004738824442028999 0.004010607022792101 4.77990455692634E-4 -0.00320128770545125 0.0016634342027828097 5.028659361414611E-4 -0.0032494347542524338 0.0019200172973796725 0.0016594432527199388 0.0032946858555078506 -0.003975551109761 4.60584182292223E-4 -0.005039442330598831 0.002823801478371024 -0.0020602724980562925 -0.0034867371432483196 -2.3119950492400676E-4 0.003494055476039648 0.003137339372187853 -0.0011934456415474415 0.00444435840472579 0.002122589386999607 1.7627960187382996E-4 0.003317051799967885 -2.452916232869029E-4 -0.004351515788584948 -5.12395054101944E-4 -3.3717849873937666E-4 -0.0038603669963777065 -9.507620125077665E-4 -0.0036928546614944935 -0.0016005453653633595 -3.387072356417775E-4 -0.0027824982535094023 -0.0038817040622234344 0.0016178900841623545 -6.687998538836837E-4 0.0010143588297069073 -0.0037883264012634754 0.0019387571373954415 0.00422274973243475 1.5448227350134403E-4 -9.262534440495074E-4 0.0028807607013732195
B64:5aW95ZCD 0.0041294763796031475 3.886900085490197E-4 8.436523785348982E-5 -0.0024053382221609354 -8.013141341507435E-4 -0.002368904883041978 7.803922635503113E-4 9.854112286120653E-4 0.0029248991049826145 0.0010328431380912662 -0.0026986992452293634 0.003225451335310936 0.003232758492231369 0.00361652672290802 -0.004894730634987354 1.8054233805742115E-4 0.003164285095408559 0.004380013793706894 -0.0048105716705322266 0.0021389727480709553 0.00375620205886662 -0.001833709655329585 -0.005490792449563742 3.3486285246908665E-4 -0.00494394451379776 -8.934732177294791E-4 -2.1688611013814807E-4 9.822130668908358E-4 -0.002265955787152052 0.0023036343045532703 -0.003426452400162816 -0.004302687011659145 0.004330998286604881 0.002270256634801626 0.0032090884633362293 -0.001700229593552649 -7.060536299832165E-4 0.0035387729294598103 -0.002247763331979513 0.003301862394437194 -0.0035712115932255983 0.004723274614661932 -0.001554543967358768 -0.0028310948982834816 6.518471636809409E-4 0.0027713479939848185 0.004418440628796816 0.0032239535357803106 -7.958777714520693E-4 -0.0028612299356609583 0.0026295159477740526 -0.0049486663192510605 -0.0011891109170392156 2.853967307601124E-4 7.460155175067484E-4 5.61463413760066E-4 2.522023278288543E-4 0.0011284520151093602 -0.0015024878084659576 0.0015247343108057976 0.004225566983222961 0.0010485573438927531 4.646519082598388E-4 -0.0014645715709775686 -0.0026884994003921747 0.004783085081726313 -0.00527551956474781 0.0016468079993501306 0.0024470428470522165 -0.0017934140050783753 -0.004831061232835054 -5.786857946077362E-5 0.003954670857638121 -0.0021825458388775587 0.0029818331822752953 0.004482775926589966 -5.459399544633925E-4 -0.0016928387340158224 -0.0038638897240161896 0.004230663646012545 0.003651973558589816 -3.2844702946022153E-4 -0.0030309909489005804 0.0035615121014416218 0.0025175800547003746 -0.0034754618536680937 0.0019596198108047247 -0.0039224401116371155 -0.0028823779430240393 6.958335870876908E-4 0.002255047671496868 1.4030146121513098E-4 -0.003393283812329173 0.0042479680851101875 0.002071780851110816 -0.003922830335795879 0.00434385659173131 -0.0033813591580837965 0.003266393207013607 0.0035287048667669296
B64:5q+U -0.0014246527571231127 -0.003617927199229598 0.005465482361614704 0.001559210242703557 -0.001581067219376564 0.004805248696357012 -0.002948057372123003 0.0027106956113129854 0.004944093991070986 0.0032287738285958767 -0.0055528790690004826 0.001118658808991313 -0.004181268624961376 -0.002555702580139041 -0.0032488114666193724 -0.0027064920868724585 -0.0042963530868291855 -0.004558756947517395 0.002769744023680687 9.337154915556312E-4 0.003839523997157812 -0.005020075477659702 0.0052711134776473045 -7.560051744803786E-4 -0.003315145615488291 1.2707107816822827E-4 -5.615073023363948E-4 0.0030946058686822653 5.525966407731175E-4 9.950081584975123E-4 -8.029221789911389E-4 -0.005378657951951027 -0.003880290314555168 -0.0023799678310751915 -0.004560061730444431 -0.004480279516428709 -3.2131909392774105E-4 -7.377346628345549E-4 -9.896671399474144E-4 0.0017900526290759444 -0.002206296194344759 0.0036964588798582554 -0.002383353654295206 0.003601243020966649 0.004493396729230881 0.001001526485197246 -0.001704669906757772 -0.004725372884422541 0.0042050485499203205 0.003678451059386134 0.002599623752757907 0.0022080540657043457 0.003321089781820774 9.375851368531585E-4 0.0024086046032607555 0.0024344846606254578 -0.0016416425351053476 -0.004259506706148386 0.0017172142397612333 0.001963891787454486 0.001604691962711513 -0.005200320389121771 5.616607377305627E-4 4.479346898733638E-5 -0.004837133921682835 -0.003979402594268322 0.004860356915742159 0.0050582680851221085 -0.002538043074309826 0.0025296907406300306 -8.206542115658522E-4 -0.0051801069639623165 -0.005488398019224405 1.8870677740778774E-4 7.415489526465535E-4 8.540319977328181E-4 0.004634951241314411 0.0019482759525999427 0.005803826730698347 -0.002434397581964731 0.0035433766897767782 -0.002755481284111738 0.002053716918453574 -0.0012572529958561063 0.003585068043321371 0.0018924883333966136 0.005254759918898344 1.1875045311171561E-4 0.0012618234613910317 0.0015888693742454052 -6.972405244596303E-4 -0.00390905374661088 -7.815134595148265E-4 0.0038479783106595278 -1.1970300693064928E-4 0.004360174294561148 -0.004645823501050472 0.00423711771145463 0.0038135198410600424 -0.002572977915406227
B64:5rC05p6c -0.0017835485050454736 0.0016522430814802647 2.0780095655936748E-4 0.002201440278440714 -0.0037809566128998995 -0.005334736779332161 -7.451587007381022E-4 8.79416533280164E-4 -0.003131865756586194 -0.0017722677439451218 -0.003560626180842519 5.031446198699996E-5 -0.0037348337937146425 -0.0010167110012844205 -1.664327828621026E-5 -0.004537801258265972 0.001345959841273725 -0.004242633935064077 0.0019361528102308512 -0.0012913462705910206 -6.736963405273855E-4 -0.0011390001745894551 -4.469972336664796E-4 -0.001227731816470623 -5.627874052152038E-4 -0.004864629358053207 0.0010104747489094734 8.060864638537169E-4 -0.00422704266384244 -0.005135057028383017 -0.003933402709662914 -0.0036865537986159325 -0.00234729191288352 0.0011741818161681294 -8.931754273362458E-4 -0.002949160523712635 0.002654070034623146 0.003114378312602639 0.00275818700902164 1.9566841365303844E-4 -0.0015882254811003804 4.7271043877117336E-4 -0.0029593047220259905 -1.9753356173168868E-4 -0.00147530110552907 0.0017260850872844458 -0.0035396055318415165 -0.0026373048312962055 3.1523563666269183E-4 0.0010335022816434503 -0.0018000499112531543 -0.002665087580680847 -0.0029397306498140097 -0.0029627829790115356 -0.0028830571100115776 -0.0018095036502927542 -0.004090529400855303 0.005237015429884195 0.002727087587118149 4.506948171183467E-4 0.00259030400775373 -0.0034934449940919876 0.004004308488219976 7.025153026916087E-4 -0.004286700394004583 0.004039225168526173 -0.0045248595997691154 -0.0039938814006745815 -1.6218743985518813E-4 -0.00508646946400404 -7.780855521559715E-4 -0.004597227089107037 6.536383298225701E-4 -6.966943037696183E-4 -0.0010245813755318522 7.112785242497921E-4 -0.00421715946868062 -7.233761134557426E-4 -0.0029155651573091745 -0.0016063343500718474 -0.0037652067840099335 -0.003987768664956093 0.004039882682263851 -0.004233093932271004 -0.00481489859521389 0.0019967088010162115 0.00448942556977272 -0.003919544629752636 2.1948663925286382E-4 0.00432888837531209 0.003957574255764484 0.0036462731659412384 0.002637990051880479 -0.00422319071367383 -0.002341615967452526 -0.004168546758592129 -0.002668499480932951 -0.0014621062437072396 -0.003939504269510508 0.0020317158196121454
B64:56iz 0.004719720222055912 -0.0022026996593922377 0.0017616443801671267 0.0017277447041124105 0.00176316371653229 0.0011653612600639462 -0.0048455907963216305 -0.0031932275742292404 -0.0011379133211448789 -0.004919001832604408 0.0049010831862688065 -0.0037363162264227867 -5.8315890782978386E-5 -8.18282860564068E-5 0.0011323293438181281 -0.0021662218496203423 0.002388735068961978 -0.004280725959688425 0.004238476045429707 -0.0015080021694302559 -0.005201041232794523 -0.002604179782792926 0.006617198698222637 0.0037618607748299837 -0.004323537927120924 0.003096261527389288 -4.624618304660544E-5 9.106319630518556E-4 -0.0037526206579059362 -0.0012973691336810589 0.0038712918758392334 -0.0036996142007410526 0.0036010558251291513 -0.0010455105220898986 -0.0010707074543461204 0.0011112317442893982 -0.0038313057739287615 8.343031513504684E-4 0.003382634837180376 -0.004237159620970488 -0.0023995458614081144 -5.284914514049888E-4 -0.004847869277000427 -3.1256143120117486E-4 -2.019214298343286E-5 0.003724082140251994 -0.001407724805176258 -0.0010351627133786678 -0.0038459727074950933 0.005715181119740009 1.9213807536289096E-4 4.65209101093933E-4 0.0051558660343289375 -0.0025817176792770624 0.003375509986653924 -0.0023729316890239716 6.484233308583498E-4 -0.003232239745557308 0.004717781208455563 7.965725963003933E-4 -3.230026632081717E-4 -0.0050497897900640965 -0.0018958207219839096 0.003923746757209301 0.0016616963548585773 -0.0024799408856779337 0.004808378405869007 0.005361777264624834 -0.005355402361601591 0.004852607846260071 -0.002818872220814228 0.001289921347051859 -0.0032402232754975557 -0.004969821777194738 0.00612608389928937 -0.004411900416016579 -0.0019244183786213398 -0.0013157193316146731 -0.004111102782189846 0.004165265709161758 0.0038812982384115458 3.4137417969759554E-5 0.0017195458058267832 0.00106655596755445 -0.0026034654583781958 -0.0011795725440606475 -0.00287512200884521 -0.005193839315325022 0.004616515710949898 -6.235682521946728E-4 -0.0035334518179297447 0.0013121040537953377 -0.002407822525128722 -0.003058883361518383 0.0018994493875652552 -0.001961746020242572 -0.0024913086090236902 0.0032208324410021305 -0.001624769764021039 -5.7105571613647044E-5
B64:5Y+I -0.0047196815721690655 6.238665082491934E-4 3.381497517693788E-4 0.004453559406101704 -9.600684279575944E-4 0.002805148484185338 -0.003478016471490264 0.0029487465508282185 0.0017993049696087837 0.0013478596229106188 0.0032532818149775267 -1.8206136883236468E-4 -0.0018019827548414469 0.003929303027689457 -6.170374690555036E-4 0.004885197151452303 0.0031004566699266434 0.004304986912757158 2.2087453544372693E-5 9.060334414243698E-4 -9.133426938205957E-4 0.0037683271802961826 -0.0017609581118449569 -0.001616652705706656 -0.0030249785631895065 0.0037957883905619383 -0.002023181412369013 -0.001010836916975677 0.0015969518572092056 0.0019934591837227345 5.723469075746834E-4 0.0027638780884444714 -0.0011826094705611467 9.094587876461446E-4 -0.0019898866303265095 -7.450697012245655E-4 0.001896833535283804 0.0016315312823280692 -0.0024623440112918615 0.0025531817227602005 0.002832981990650296 0.0028633116744458675 0.0028206398710608482 0.0031550778076052666 -0.0028216626960784197 -0.0034473075065761805 -0.003308844519779086 6.790673942305148E-4 0.003802213352173567 4.6287066652439535E-4 -9.526745998300612E-4 -0.002492445521056652 1.4363083209900651E-5 0.0031266026198863983 0.0037018819712102413 -8.843766991049051E-4 0.0019548889249563217 -0.0028484130743891 0.004149912856519222 0.003498226637020707 -0.0016262093558907509 -6.627851398661733E-4 -5.324418452801183E-5 -0.0020219648722559214 -0.0032421539071947336 -3.1519256299361587E-4 4.694278759416193E-4 -0.00397566519677639 -0.002115364419296384 0.002348254667595029 -2.5777675909921527E-4 8.585226896684617E-5 1.4699051098432392E-4 -0.0017090531764551997 -0.0013129942817613482 -0.004906811751425266 0.0037419216241687536 0.0022564795799553394 0.001472360105253756 -0.0043906052596867085 -0.003649018472060561 -0.0018858149414882064 -0.0022192432079464197 0.005250141955912113 0.0035474116448312998 -0.004020609427243471 -0.004756907466799021 -9.914260590448976E-4 -0.0036515791434794664 0.0021350656170397997 0.0028005982749164104 -0.0025789046194404364 -0.001529126544483006 -0.0032207646872848272 0.0019571264274418354 -0.003448390867561102 6.900184671394527E-4 -3.7903484189882874E-4 -0.001382177695631981 0.001746953814290464
B64:6K6y5pWw 0.002152672503143549 0.0014736297307536006 -0.0010616665240377188 2.435835631331429E-5 4.685524618253112E-4 -0.004537620116025209 -6.996849551796913E-4 3.962653281632811E-4 -0.0010852072155103087 -5.226716530160047E-5 -0.0038110713940113783 -0.0037923629861325026 0.004381084814667702 6.735043716616929E-4 -0.0020373601000756025 -0.0012061562156304717 0.006317670922726393 4.381503094919026E-4 -6.393074872903526E-4 0.002604388864710927 0.0030209196265786886 0.002526944736018777 0.007183572743088007 -0.003541780635714531 -0.0011732232524082065 -1.4921654656063765E-4 0.0024059161078184843 -0.0016356647247448564 -0.004431264940649271 0.004824994131922722 0.0030716988258063793 -0.004391905386000872 0.003252253169193864 0.00489236693829298 -0.0022135665640234947 -0.004757806658744812 -6.770589970983565E-4 0.004359459038823843 -0.0018349916208535433 -5.068466416560113E-4 0.0045507787726819515 0.0012805490987375379 -0.0027546698693186045 -0.002368937013670802 0.0019169540610164404 -0.003457369515672326 -0.004117683041840792 -0.0035990483593195677 0.002848602132871747 0.0016349051147699356 0.004181902389973402 -0.004170675296336412 0.00442382600158453 -0.00507004838436842 -5.634334520436823E-4 -0.0018899074057117105 0.004137659911066294 -0.0023916088975965977 0.0033830287866294384 -0.0016180367674678564 0.0022326046600937843 -9.043634636327624E-4 -0.0055750589817762375 0.004955521784722805 0.003662071656435728 5.883518024347723E-4 0.005085776560008526 0.0043764859437942505 -0.005131011363118887 -0.0041250200010836124 0.0032653091475367546 -8.799118804745376E-4 -0.0020692532416433096 0.0014917581574991345 -0.0032312748953700066 -0.002535398816689849 -0.005168955307453871 -7.749937940388918E-4 -0.004837912507355213 0.0016966720577329397 0.0018774602795019746 -0.003414117731153965 -0.005215601529926062 -0.002595559461042285 0.0016110205324366689 -0.001759272301569581 -0.0024136260617524385 9.168192045763135E-4 -0.003715053666383028 0.003570341505110264 -0.0018425979651510715 -0.005630090832710266 -0.0022526406683027744 5.921553820371628E-4 0.0015986888902261853 0.0023068012669682503 0.001306228805333376 0.004783980548381805 0.004185035824775696 -0.003902213182300329
B64:6bmr 0.0024019822012633085 -0.0034278137609362602 -0.004236765671521425 -0.003027859842404723 3.337250673212111E-4 -0.0011222537141293287 0.002466510748490691 0.002302677370607853 -0.0027081267908215523 -0.004572829697281122 0.002421635901555419 8.71865195222199E-4 0.0012456191470846534 -4.7661428106948733E-4 0.0026205582544207573 -0.002841983688995242 0.0027358666993677616 0.0035461564548313618 -0.0026860004290938377 0.002805314725264907 -0.00292990542948246 -0.004018452018499374 -0.004287114366889 -1.5424721641466022E-4 -8.394687902182341E-4 -0.0035160898696631193 -8.239189628511667E-4 0.003822202328592539 -0.004172991961240768 -7.835415308363736E-4 7.325149636017159E-5 0.0015659509226679802 0.002248686971142888 0.0028254049830138683 -8.989589405246079E-4 -0.0035470020957291126 -0.001345402211882174 -0.0027946140617132187 0.001413409598171711 0.001743241911754012 -0.0011103564174845815 0.003978490363806486 -0.0025003256741911173 -0.004462761804461479 7.474459707736969E-4 0.00464319484308362 -6.532351835630834E-4 -5.3929008572595194E-5 -0.0016075372695922852 0.004903626162558794 -0.004380143713206053 -0.0017653083195909858 0.0024145878851413727 -0.003634985536336899 0.003956066444516182 8.871320751495659E-4 -0.003453240031376481 0.003412490477785468 -0.004521384835243225 -0.0015418593538925052 0.0035661046858876944 -0.003320504678413272 0.0013207594165578485 -0.004897417034953833 -0.004834837280213833 8.936604135669768E-4 -0.0024476193357259035 0.0032458275090903044 0.001552216475829482 -0.001525304396636784 0.001431384589523077 -0.0010745505569502711 0.003310163039714098 6.410428904928267E-4 -0.0028513027355074883 0.004853592719882727 -0.0028554839082062244 8.314436418004334E-4 -0.004863617476075888 -0.0038088124711066484 -0.0046521578915417194 0.002760023344308138 -0.0030154783744364977 4.471403080970049E-4 0.001813128823414445 -0.0028143178205937147 -0.0030448599718511105 -0.003998262342065573 0.004747816827148199 0.0027117852587252855 9.208046831190586E-4 -0.004043069202452898 0.0037537203170359135 0.0032574180513620377 -0.0040302155539393425 0.004778580274432898 -4.423506325110793E-4 0.0012383238645270467 0.001755360746756196 -0.003896993352100253
B64:5q27 -0.003166037378832698 -0.00412315409630537 0.003186245448887348 -0.00196542008779943 -0.0049389442428946495 0.0011546900495886803 8.81606712937355E-4 -0.0022068298421800137 -0.001252987771295011 9.057202842086554E-4 0.0029037632048130035 -2.3900368250906467E-4 0.002367756562307477 0.0011090512853115797 -0.004292162600904703 -0.0014906793367117643 -1.5050475485622883E-4 0.004551688674837351 0.0018218699842691422 -0.004587160889059305 0.0034363488666713238 -0.0012573176063597202 -2.7370546013116837E-4 -2.3717973090242594E-4 8.691474795341492E-4 -0.0029863580130040646 -4.651902709156275E-4 0.0012583070201799273 -0.0041465675458312035 -0.0025831456296145916 -0.003865546081215143 -0.0047171046026051044 -7.105452823452652E-4 -0.0012569042155519128 0.002158825984224677 0.002319107763469219 -1.396786974510178E-4 -0.002897093305364251 0.0034411130473017693 0.004809016827493906 -0.004605317022651434 -0.00459005031734705 -0.0019513895967975259 -0.001616414519958198 -8.468895975966007E-5 -0.0021475795656442642 -6.904093897901475E-4 1.2025744945276529E-4 0.0037649855948984623 -0.002416296163573861 -0.003728891722857952 0.003338770242407918 -0.0022666004952043295 -0.0017149242339655757 6.33437477517873E-4 6.996310548856854E-4 -0.0030633597634732723 0.004553883336484432 -0.002595403464511037 5.035488866269588E-4 -0.001912395586259663 -0.001864159945398569 -6.12655421718955E-4 -0.00327781168743968 -0.0036350926384329796 -0.0042274813167750835 -1.4024623851582874E-5 0.005009203217923641 -1.993983896682039E-4 -0.004438340198248625 -9.526625508442521E-4 0.001359487185254693 -0.0031914610881358385 -0.0047938148491084576 0.0032130242325365543 -0.004552860278636217 -0.0048407381400465965 -0.0025602097157388926 -0.004137599840760231 0.003624134697020054 -0.004122771322727203 -0.0012733957264572382 -0.004503973294049501 0.001471858937293291 3.510473179630935E-4 -0.002076903125271201 -0.003156418912112713 0.003559788689017296 0.0022612889297306538 -5.5717583745718E-4 6.568169337697327E-4 0.0025099734775722027 -0.0012251214357092977 -0.0018604830838739872 -5.1862932741642E-4 6.905252230353653E-4 0.002837439998984337 -0.004464989062398672 0.0030051942449063063 0.002002936555072665
B64:6aOe56a9 0.0031387389171868563 -0.004861027002334595 -0.0015873298980295658 0.0023154106456786394 -0.004057123325765133 0.0011942160781472921 0.003515776712447405 0.0027647551614791155 -0.004574852529913187 -0.0023190241772681475 -4.991618916392326E-4 9.994769789045677E-5 -2.1221322822384536E-4 -0.0014902076218277216 -5.800760700367391E-4 0.0026864404790103436 -1.8414549413137138E-4 -0.003374372608959675 0.0013213903876021504 0.0019766404293477535 0.004016609396785498 5.508473259396851E-4 -0.0039872294291853905 0.0011644758051261306 0.004083835054188967 -0.0017385728424414992 0.0048668296076357365 0.004307963885366917 0.004374373238533735 7.068978738971055E-4 0.002674845978617668 0.003744386835023761 -0.004053400829434395 0.001384852104820311 -0.0038436080794781446 0.0025531952269375324 7.902500219643116E-4 0.003936487715691328 -0.002530810423195362 -6.786171579733491E-4 -0.0011566479224711657 0.001777982572093606 3.86392894142773E-5 -0.004198691342025995 -0.002788820303976536 -0.0034578863997012377 0.0027907134499400854 7.610940956510603E-4 -3.3572452957741916E-4 -0.0020611800719052553 0.004008923657238483 7.578140357509255E-4 -0.004544442985206842 -0.004241707269102335 0.001466431887820363 0.0019682259298861027 -6.969639798626304E-4 0.004061118233948946 -0.004578703083097935 -7.188635208876804E-5 -0.0022943050134927034 0.003921650815755129 0.00198217760771513 0.0010875945445150137 0.00502201309427619 -0.0021115303970873356 0.0036663240753114223 -9.284110856242478E-4 0.0037986156530678272 -0.0017109685577452183 0.004787631332874298 -0.0044885179959237576 -6.396219250746071E-4 3.7267664447426796E-4 1.5796000297996216E-5 0.0037227997090667486 0.0013884500367566943 -0.003551461501047015 0.0013545744586735964 -0.004716627765446901 0.0029751735273748636 0.004596672020852566 4.381215840112418E-4 0.0032724409829825163 -0.003992434591054916 -0.003567046718671918 -0.002903340384364128 3.40802434948273E-5 0.0012066749623045325 0.00456320820376277 0.003760171588510275 -0.002657125471159816 -0.0026260402519255877 0.0035515008494257927 0.0030573387630283833 -5.890223546884954E-4 0.002819695509970188 -0.004748176317662001 0.004970008507370949 -0.0017276701983064413
B64:5a6e6KGM -0.003243853338062763 0.0010478171752765775 0.0048702191561460495 0.0031489809043705463 -0.0018676805775612593 0.004330961033701897 -0.0034308633767068386 -0.0032595456577837467 -0.0023272933904081583 0.004394415766000748 0.0038030510768294334 -8.214060799218714E-4 -0.0037099092733114958 0.003835184033960104 -5.325219826772809E-4 7.300214492715895E-4 -0.003468817099928856 0.0012159629259258509 0.002075186697766185 -0.004565746523439884 0.0035211776848882437 0.003996648360043764 0.00160822959151119 -0.003034275257959962 -0.0011229966767132282 -0.0048872255720198154 0.003387753153219819 9.235227480530739E-4 -0.004031755030155182 -0.0016967662377282977 -0.003297948045656085 -1.9482136121951044E-4 0.002763971919193864 2.2336686379276216E-4 0.0011142466682940722 0.003408216405659914 -0.0015565368812531233 0.004307307302951813 1.283162273466587E-4 3.6297354381531477E-4 -0.004873864818364382 -5.829671863466501E-4 0.0025611293967813253 -0.0015433809021487832 -5.995890824124217E-4 9.289406589232385E-4 1.8063871539197862E-4 -4.175978247076273E-4 0.004200316034257412 0.0018021982396021485 -0.0022105579264461994 2.1859310800209641E-4 -0.0010837074369192123 -0.0024025635793805122 -0.004858761094510555 0.0027325316332280636 0.003865726524963975 -0.0037860420998185873 -0.004393029026687145 0.0014885814161971211 7.827421650290489E-4 -0.004298096522688866 0.0023504747077822685 0.001975097693502903 -0.003039914183318615 0.002121217781677842 -0.0025137600023299456 5.504218861460686E-4 0.002342056017369032 0.004851638805121183 0.002747628604993224 -0.0040781134739518166 -0.0012527982471510768 -0.0028218161314725876 -0.004468254745006561 -0.0030705572571605444 0.002595952246338129 0.0027560442686080933 9.36051772441715E-4 -0.004489736165851355 0.0037386883050203323 0.0019089162815362215 0.002013521734625101 0.0015532829565927386 -0.004225908778607845 -3.457570855971426E-4 -9.989149402827024E-4 0.003533627837896347 0.004333595745265484 6.142706843093038E-4 -0.0010661709820851684 -0.004412115551531315 0.0023285115603357553 -0.0028405780903995037 -0.0034157719928771257 -0.002846347400918603 0.0043812096118927 -0.004936146549880505 0.0027515811379998922 0.003941084258258343
B64:5pel5pel -0.003984776325523853 -0.0030319734942167997 -6.520456518046558E-4 0.0029015238396823406 -0.002815315267071128 -0.004068615846335888 -6.508231163024902E-4 0.002986814361065626 -0.00298115867190063 2.2091198479756713E-4 -0.0036548601929098368 -0.001199587364681065 -0.003387629520148039 -0.003050152910873294 0.0016263205325230956 0.002054216805845499 0.0021327119320631027 0.0014287021476775408 -0.003662513103336096 -7.721880101598799E-4 0.0033052891958504915 -0.0017473096959292889 -0.0020463946275413036 -0.0021865805611014366 -0.0031881581526249647 -0.0029674444813281298 0.0022791922092437744 -0.0023138897959142923 -0.0038770828396081924 -0.002532337326556444 0.00139775057323277 -0.0020369207486510277 -0.001818888122215867 0.003832748858258128 3.976660082116723E-4 -3.323153068777174E-4 0.0042729452252388 0.002302513923496008 0.0013800490414723754 -4.411706468090415E-4 0.00429629348218441 0.004646616522222757 -0.003936929628252983 0.0038256668485701084 0.002531138714402914 0.0020249865483492613 -0.00411307904869318 -0.0047910576686263084 -1.595030480530113E-4 0.002422462683171034 0.005004296079277992 -1.3268270413391292E-4 0.0036534706596285105 -0.0015738680958747864 -0.002716780873015523 -1.95237371372059E-4 -0.00396840600296855 0.002360701095312834 -0.0028284164145588875 0.0023717666044831276 0.0034686236176639795 -0.00431891530752182 -0.004442197270691395 -0.0032524466514587402 0.002915509743615985 0.0034172863233834505 -0.0032924837432801723 4.649891925510019E-4 7.837757584638894E-4 0.0013194953789934516 -7.225061999633908E-4 -0.00427038362249732 0.004559075925499201 0.004125230014324188 -0.0014073667116463184 0.0025915182195603848 -0.001021313015371561 -0.004641066305339336 -0.00178277469240129 0.0021221479400992393 -0.0029474750626832247 0.0015252112643793225 3.320983378216624E-4 1.1881254613399506E-4 0.002793312771245837 -0.004710113164037466 8.308839751407504E-4 0.0035921735689044 0.0014345531817525625 -0.004770324565470219 0.002350889379158616 1.5207068645395339E-4 -0.0011209463700652122 -6.701244856230915E-4 0.001505863736383617 -0.0027980217710137367 -0.0015246218536049128 7.068137638270855E-4 0.004373874980956316 -1.0251955245621502E-4
B64:5oGt56Wd 4.3013322283513844E-4 -0.0037067735102027655 -0.002170888939872384 0.0015802944544702768 0.0029163984581828117 -0.003417152212932706 0.0011562231229618192 0.0011729311663657427 -0.0032437399495393038 -0.002886009169742465 -0.0026901226956397295 -0.004220226779580116 -0.003539818339049816 0.0028271630872040987 -0.00186950305942446 -0.004861901514232159 8.206780184991658E-4 -0.0015479665016755462 -0.0030005958396941423 -0.0038438010960817337 -0.004010377451777458 0.002688708947971463 0.0033595748245716095 -0.004449187777936459 -7.844810897950083E-5 -0.0014522491255775094 0.00464298389852047 -0.001371003221720457 -0.0012741780374199152 -1.402802809025161E-5 -0.001354335225187242 0.0030196632724255323 0.0027093796525150537 0.003993688151240349 -0.001991207944229245 7.716013351455331E-4 -0.004669954068958759 0.0037800269201397896 0.0035534794442355633 0.002984478371217847 -0.002279144711792469 4.8154653632082045E-4 0.003135023405775428 -0.0019067454850301147 -8.918167441152036E-4 -0.004881436936557293 -0.0026399041526019573 0.004515988286584616 -0.002977545140311122 0.003617175854742527 0.0020907330326735973 -0.0015321741811931133 -7.606081198900938E-4 0.003566636936739087 -0.002427036641165614 -0.0011552071664482355 -0.0017604560125619173 1.6349674842786044E-4 0.0025629422161728144 0.0011355438036844134 -4.1297785355709493E-4 -0.004536887165158987 -0.002384302904829383 0.004483272787183523 0.0038270780351012945 0.003300120821222663 1.51572996401228E-4 -0.0012357474770396948 0.002641530241817236 0.002685438608750701 0.0019197602523490787 -0.004750116262584925 -5.786624969914556E-4 -1.6656727530062199E-4 0.004802591633051634 0.004095605108886957 -0.0034946368541568518 0.0020767883397638798 -0.003913844004273415 0.0030808034352958202 -0.003294464200735092 0.004502139054238796 -0.0023089759051799774 -0.003073373343795538 -0.002405707258731127 8.516752859577537E-4 0.004639576654881239 0.004918745253235102 -0.004487878177314997 0.004025728441774845 -0.0025595177430659533 8.632976096123457E-4 0.0033578567672520876 -0.0021678749471902847 -0.00494264205917716 4.869739932473749E-4 -1.605765864951536E-4 -0.0021291847806423903 -0.0032025317195802927 0.0015691120643168688
B64:5rC06Z2i 0.0019852137193083763 0.0032885707914829254 0.0031059500761330128 0.0022540574427694082 0.00196136930026114 -0.003964231349527836 9.469939977861941E-4 0.0022659022361040115 -0.002861402463167906 0.003527836874127388 0.005702863913029432 -4.02756966650486E-4 0.002654380863532424 -0.0031230745371431112 -0.0034710990730673075 -7.569947629235685E-4 0.0020726427901536226 0.003719765692949295 8.061822736635804E-4 0.0027885599993169308 4.451718705240637E-4 -0.0022988091222941875 -0.00443700747564435 -3.320989781059325E-4 -0.0012307455763220787 0.002110067754983902 -0.0028051016852259636 0.004232537932693958 -0.0022549175191670656 -0.0024529669899493456 -0.002601893153041601 -0.0011976194800809026 9.99287934973836E-4 -0.003889653133228421 -8.143142331391573E-4 -3.41117091011256E-4 0.0010649675969034433 -2.920921251643449E-4 -0.0013164124684408307 -0.0020454872865229845 -0.0035018636845052242 0.0041530742309987545 -0.0027566137723624706 -0.0034090366680175066 -0.0017752161948010325 0.0012510920641943812 -6.023767637088895E-4 -4.3346782331354916E-4 6.298726657405496E-4 -0.003976540174335241 0.003449958050623536 7.310654036700726E-4 1.2320198584347963E-4 0.0027972443494945765 0.0030083726160228252 -0.0021441522985696793 0.004912334028631449 0.002307443879544735 -0.00431056460365653 2.8511547134257853E-4 -0.004535610321909189 6.182261276990175E-4 0.004212485160678625 -0.0033482147846370935 1.4989044575486332E-4 0.0030116690322756767 -7.951054139994085E-4 -0.0024730076547712088 -0.004720392171293497 7.815117132849991E-4 -0.003059118753299117 0.002986813196912408 -1.0622417903505266E-4 -0.0022867575753480196 6.581758498214185E-4 -0.0010772832902148366 0.0013210191391408443 0.0036273880396038294 0.0029984156135469675 8.550279308110476E-4 0.004549939185380936 -0.002872664947062731 0.004472188651561737 -0.0025310716591775417 -0.0026372361462563276 -0.00461206492036581 0.0015258310595527291 -0.003643633332103491 -0.004967854358255863 6.68093329295516E-4 0.0013221617555245757 -4.103532410226762E-5 -7.616837392561138E-4 -0.003558457363396883 -5.723804933950305E-4 -0.0015171912964433432 0.0014720200560986996 0.0036933955270797014 -0.004695879761129618 0.004469658713787794
B64:54K56Kej -0.001502583152614534 0.00448624137789011 -0.00224020192399621 0.004822590388357639 -0.0025679811369627714 -0.003952299244701862 -0.0032839251216500998 -0.004304511472582817 0.0022724203299731016 -0.0011528870090842247 0.0043616024777293205 -0.004647394642233849 -0.0038336615543812513 -0.0010903154034167528 -1.1677153815981E-4 -0.0011457290966063738 -0.004043367225676775 -0.001959045184776187 0.0033016689121723175 -5.399569636210799E-4 -0.0034886100329458714 3.2026931876316667E-4 -0.0011545016895979643 0.0047959573566913605 -0.004632593132555485 4.385221691336483E-4 -2.6786993839778006E-4 -0.001285445294342935 0.004250724799931049 0.002185313729569316 0.001396351377479732 -0.002472794847562909 -6.070354720577598E-4 0.0020138798281550407 5.560742574743927E-4 -0.0026913154870271683 -0.004683591425418854 3.261147649027407E-4 -0.0033941511064767838 -7.394604617729783E-4 -8.164049941115081E-4 -8.971451316028833E-4 0.0020395307801663876 -3.0796771170571446E-4 0.003858966752886772 0.001029327162541449 -0.0039119054563343525 -0.004651540424674749 0.0035304974298924208 -9.58024465944618E-4 0.003739376785233617 0.0037231578025966883 0.0015385953010991216 -0.004244688432663679 -0.0051698265597224236 0.0028544252272695303 0.0024155988357961178 5.331906722858548E-4 0.004710887558758259 0.004557118751108646 -7.46119549148716E-5 0.0029835724271833897 -0.0018402790883556008 -0.002566353417932987 0.005213403142988682 -0.0017574160592630506 0.004298308398574591 0.002448008395731449 -0.0027639211621135473 -0.0051041292026638985 9.379230323247612E-4 8.436717325821519E-4 0.001981534995138645 -0.002094410825520754 0.004094212781637907 -0.00415400555357337 -0.001680188812315464 6.374348886311054E-4 3.8258350105024874E-4 -0.002092574490234256 -0.004992539528757334 8.677469450049102E-4 -0.004641611594706774 -0.003620621981099248 0.003837160998955369 -0.0023041910026222467 -0.0016682331915944815 -0.0050725191831588745 -6.500784656964242E-4 -0.002347852336242795 0.0022680482361465693 0.0031331114005297422 1.7835665858001448E-5 0.0017176993424072862 0.0020038262009620667 0.004420723300427198 -0.003752049757167697 -0.004739727824926376 -0.0018120435997843742 0.004707901738584042
B64:5b6I 0.003724181093275547 -0.002745324280112982 0.0026940759271383286 0.0035370064433664083 -0.0012318106601014733 -7.586987339891493E-5 0.0020959286484867334 -6.512579857371747E-4 4.4419485493563116E-4 -0.003416626714169979 2.182428870582953E-4 -0.0021642083302140236 -0.0018356197979301214 -7.216315716505051E-4 -0.0025288318283855915 0.004187414888292551 0.004574790596961975 -0.0018919571302831173 0.003275820054113865 -0.0018334239721298218 -0.0028256166260689497 -0.004041222855448723 0.0022423092741519213 -5.998308770358562E-4 0.001997352344915271 0.001812635688111186 0.002891970332711935 9.009654750116169E-4 0.0016898269532248378 -3.051352105103433E-4 -0.003555889241397381 -0.005006005987524986 0.0012716616038233042 -8.830197621136904E-4 -0.002588035073131323 -9.263289975933731E-4 -0.0033431861083954573 -0.00477991346269846 0.0015904332976788282 0.0027644981164485216 -0.001588347484357655 0.002555697690695524 0.004050686489790678 0.0010202211560681462 -4.4533441541716456E-4 -0.003680523717775941 -0.0052131288684904575 0.003923972137272358 0.0015217068139463663 -0.0029860609211027622 -0.004417093470692635 -0.00400523841381073 -0.002575345803052187 -0.0010927466209977865 -7.864129147492349E-4 0.0036474750377237797 -8.522864663973451E-4 -5.488817114382982E-4 -0.0013193240156397223 -0.004602087661623955 0.001322109717875719 -0.002110939472913742 -6.663969834335148E-4 -0.001559183350764215 0.004760368727147579 0.004879985470324755 -0.004417378921061754 -0.0022974018938839436 0.004313795827329159 -0.0019530468853190541 -0.004457892384380102 -5.542943108594045E-5 -0.0016127998242154717 0.0024784512352198362 -0.0010379665764048696 0.0016160019440576434 -0.004729941952973604 -0.004028082359582186 0.002026834525167942 -0.00485732639208436 -0.001649193000048399 0.002009277231991291 -0.004933658055961132 -0.003211583709344268 0.0023281052708625793 -0.003646685741841793 -0.005083587486296892 -0.004343257285654545 -0.003272597212344408 -0.003864952130243182 -6.272356258705258E-4 0.0036124123726040125 0.003847972024232149 0.002876518527045846 0.005066840443760157 0.003753366181626916 -7.418341119773686E-4 -1.8740876112133265E-4 0.0034079584293067455 0.004215274937450886
B64:5bim -7.349212537519634E-4 8.778387564234436E-4 0.0033134433906525373 0.003661005524918437 0.004542446229606867 -0.001478726277127862 -0.0034222258254885674 -0.004919842816889286 -9.111619147006422E-5 -0.0017184428870677948 0.004166350234299898 -0.004961647093296051 0.0032317470759153366 -0.0014783451333642006 8.799200440989807E-5 0.0015337128425017 0.004288148134946823 0.0034853005781769753 -0.0035839935299009085 -5.932693602517247E-4 3.2449758145958185E-4 0.002370686735957861 1.4998734695836902E-4 0.003643157659098506 8.203823235817254E-4 -0.0035049873404204845 -0.0015144530916586518 -0.003468902548775077 0.0017403321107849479 8.21380119305104E-4 -0.0038878286723047495 0.002742136362940073 -0.002317820442840457 0.0028242843691259623 -3.0893171788193285E-4 0.002290640026330948 -1.0341236338717863E-4 -0.0037971872370690107 -0.004116759169846773 -0.0027498912531882524 -0.0010600675595924258 0.003823576495051384 -0.003010532818734646 -0.00260228686966002 7.069126586429775E-4 0.004921928979456425 -2.1244375966489315E-4 -6.238629575818777E-4 -0.001170043251477182 9.364752331748605E-4 -0.00445879390463233 6.340325344353914E-4 -0.0038288591895252466 0.003238997422158718 -0.004180707037448883 0.0020178696140646935 0.0016698153922334313 -0.00316993216983974 -0.0044975909404456615 0.0015229086857289076 -9.701823000796139E-4 0.0017447794089093804 -8.572673541493714E-4 -0.004035457968711853 0.004363914951682091 -5.580733413808048E-4 0.004545467905700207 0.0012280039954930544 -3.3499894198030233E-4 0.0010612771147862077 0.0014638503780588508 -0.001633243402466178 2.7734346804209054E-4 -0.005065919365733862 0.0027912012301385403 0.0047665368765592575 0.004092384595423937 -0.002265653572976589 8.451389730907977E-4 -0.001043164636939764 -0.0019054891308769584 0.0034369586501270533 0.003843099344521761 0.0016403967747464776 6.009666831232607E-4 0.0016336090629920363 0.0028641584794968367 -0.004106666427105665 0.0013269121991470456 0.0014724029460921884 0.0032503458205610514 3.781827399507165E-4 -0.004015123937278986 0.002488507190719247 -0.0026114745996892452 1.1138438276248053E-4 1.2187602260382846E-4 6.491901003755629E-4 -0.002128975000232458 2.3525222786702216E-5
B64:5Y+R6LSi -0.0029691141098737717 0.0037721418775618076 -0.004371021408587694 -0.0012018581619486213 0.0037782685831189156 0.0029306786600500345 0.003825539955869317 4.990422748960555E-4 0.001156569691374898 0.00248449738137424 3.469949879217893E-4 0.0035232871305197477 -0.0011909862514585257 0.0018646209500730038 -0.004491834901273251 -0.004722506273537874 -0.0031268782913684845 -0.0029584525618702173 1.5643893857486546E-4 -0.0010660177795216441 6.140673067420721E-4 -0.004494483582675457 -0.004149929154664278 -0.004349749069660902 -0.0016989486757665873 -0.004860775079578161 -0.0017268630908802152 0.001199975609779358 -0.004985854495316744 2.624630906211678E-5 -9.82801546342671E-4 0.001390542951412499 6.982237100601196E-4 -0.0040350016206502914 -0.0036071750801056623 -0.0026698331348598003 0.004916284698992968 0.002246968215331435 -1.5274524048436433E-4 9.392493520863354E-4 0.0040690540336072445 -0.0020645144395530224 0.003944990690797567 0.004987018648535013 -0.004786117933690548 0.0028250550385564566 0.0013831353280693293 0.0017709201201796532 -0.003655463457107544 -4.664218286052346E-4 0.0016391640529036522 -0.003792939940467477 -0.002261956688016653 -0.0034737547393888235 -0.0037846919149160385 0.0015854340745136142 8.331990102306008E-4 -0.00222264532931149 -0.003495560260489583 0.0032584613654762506 6.179213414725382E-6 -0.0026248504873365164 0.00434613972902298 -0.0036727217957377434 -0.001684688264504075 -0.0029081760440021753 0.004134105518460274 -0.002479386981576681 -0.0013793078251183033 3.175097517669201E-4 0.003976036328822374 -0.0011204013135284185 -0.0041339825838804245 0.003857768140733242 -0.0022066032979637384 0.003929268568754196 -0.0042990283109247684 0.004090889822691679 -0.0037853941321372986 0.0024872254580259323 -8.222570759244263E-4 0.004334274213761091 0.0017915433272719383 0.0038002936635166407 -0.004882839974015951 -7.278859266079962E-5 0.004766004625707865 -0.003939188551157713 -5.731665878556669E-4 -0.002198384841904044 0.004331387113779783 0.0038190935738384724 -0.0019642161205410957 6.19111058767885E-4 -0.002666692715138197 -0.003979324828833342 0.002658047014847398 0.0016028915997594595 -0.0016871839761734009 0.001908636069856584
B64:5LiA56KM 8.257792796939611E-4 0.0010782534955069423 -0.005069412756711245 -2.868235460482538E-4 -0.002177685499191284 -0.002729360479861498 -0.002116182819008827 0.00344450818374753 -9.611824061721563E-4 0.004203057382255793 0.0015915726544335485 0.003229169175028801 0.0021709527354687452 0.0036631529219448566 -5.766599788330495E-4 0.002055385150015354 4.282362060621381E-4 0.002802711445838213 8.277732413262129E-4 0.0029918032232671976 0.0049825324676930904 7.030375418253243E-4 -0.0025023198686540127 -0.00490906834602356 0.0019747354090213776 0.003953995648771524 -0.004929532762616873 3.808778419625014E-4 0.0036389590241014957 -0.0011315731098875403 -0.0037062957417219877 0.0011834973702207208 -0.001652034930884838 -0.004366314969956875 -0.004830349236726761 0.002836690517142415 -0.002932379487901926 -0.004639509133994579 -4.4146462460048497E-4 -0.004107845015823841 0.003827390493825078 -0.0010366213973611593 -0.0037607429549098015 -0.0025771651417016983 -0.0027938697021454573 0.004073397256433964 0.0023064000997692347 -8.760638884268701E-4 0.003978694323450327 0.0029986887238919735 0.0012076498242095113 0.004639524966478348 0.0021039550192654133 -0.0023236919660121202 2.466084551997483E-4 -0.0034646710846573114 -1.292461238335818E-4 3.537868324201554E-4 -0.004848882555961609 -6.203980883583426E-4 -0.0044100116938352585 0.0044540707021951675 0.0032012704759836197 0.001323161763139069 -0.004453939851373434 -0.0030659842304885387 -9.417368564754725E-4 -0.0051488070748746395 6.815945380367339E-4 -0.004827479831874371 0.0019138638162985444 -0.0010987203568220139 3.615441673900932E-4 -0.002782257040962577 0.002358495956286788 7.721472065895796E-4 0.002540725050494075 0.0018419057596474886 0.00344232190400362 -0.0013842417392879725 -2.897591912187636E-4 -0.0023032331373542547 0.0037678941152989864 -0.0030208155512809753 -3.2827488030306995E-4 -0.002260642359033227 7.443040376529098E-4 -0.001058626570738852 9.275949560105801E-4 0.002112125512212515 -9.948741644620895E-4 -4.118264187127352E-4 0.003547391388565302 1.010014457278885E-4 9.820660343393683E-4 -3.1507524545304477E-4 -6.981592159718275E-4 0.0015730112791061401 7.382213516393676E-5 -2.924669533967972E-4
B64:5biu 4.0530410478822887E-4 9.782611159607768E-4 0.005151784047484398 0.003910914529114962 6.136129959486425E-4 -0.002353896154090762 0.0023518444504588842 0.0037206877022981644 -0.004424410872161388 0.0013587054563686252 0.004046667367219925 1.443239743821323E-4 2.286960370838642E-4 -0.002948384964838624 -0.003777387784793973 -0.004718664102256298 -0.0028875418938696384 -0.0023705775383859873 -0.004489913582801819 0.0010073090670630336 -0.001561267301440239 -0.003404881339520216 0.005333914887160063 2.3791746934875846E-4 0.002777062589302659 0.0030818963423371315 0.0014350572600960732 -0.0017863897373899817 -0.0027793701738119125 -4.817655135411769E-4 -0.0019617280922830105 -0.002353148302063346 -0.0013890783302485943 -0.004502184223383665 -0.004818523768335581 8.336621103808284E-4 0.0014296596636995673 -0.004016978666186333 -8.346291724592447E-4 -0.003625017125159502 0.0025963590014725924 -0.004536892287433147 -1.577800139784813E-4 0.0017036095960065722 -0.0027043179143220186 9.051928645931184E-4 -0.004726092796772718 -0.0015567124355584383 0.005091146100312471 -0.0019522774964571 -5.754281301051378E-5 -0.002933422103524208 0.001864949124865234 -0.0017811614088714123 -0.004427775740623474 -0.003835919313132763 0.003120710840448737 0.00356800714507699 -0.0031744856387376785 0.0021974958945065737 0.0031755424570292234 -0.003809737041592598 -0.003665766678750515 -0.0037119928747415543 0.0015590579714626074 0.005013704765588045 0.00305127608589828 -0.001328050158917904 -0.0026831256691366434 -0.003742044558748603 -0.0036140515003353357 0.0019704464357346296 -0.004369955975562334 0.0015796303050592542 -0.0017344182124361396 -0.001906541408970952 -1.5173229621723294E-4 -8.274682331830263E-4 -0.0017370210262015462 0.003958720248192549 5.518244579434395E-4 -3.987670934293419E-4 0.00395557563751936 0.0029354505240917206 0.004273490980267525 0.003657399443909526 -0.003931878600269556 9.53805516473949E-4 -5.33049285877496E-4 -0.0024120351299643517 3.6870810436084867E-4 0.004191409796476364 -0.0012887269258499146 6.43109087832272E-4 0.0012674364261329174 -0.004933793563395739 9.837624384090304E-4 -0.0034005155321210623 -0.004599211271852255 0.0044518704526126385
B64:6Led 0.003215016331523657 -0.0014335690066218376 -0.002514032879844308 0.0014586597681045532 -0.0019988317508250475 0.0045687188394367695 -0.0034377784468233585 -0.003757722908630967 -0.001719253370538354 -0.0027934436220675707 -0.0037664093542844057 0.0030343474354594946 -0.0038713363464921713 0.0012682861415669322 0.0046659307554364204 0.0026365097146481276 0.0032254098914563656 -0.0024770095478743315 -8.542648865841329E-4 7.874663569964468E-4 0.001208402798511088 0.001982765970751643 -0.002890536095947027 0.004379811696708202 0.001292196218855679 -1.040915503836004E-5 0.0033049341291189194 0.0033746366389095783 0.002360778395086527 -0.004203885328024626 -0.004327049478888512 0.0036738973576575518 -0.0013536765472963452 -0.0017072929767891765 9.17907920666039E-4 -8.673973497934639E-4 -0.0017811574507504702 0.0015462902374565601 -2.4691547150723636E-4 0.0024381186813116074 -0.0017729215323925018 0.004575222730636597 -0.0020577595569193363 0.0011914880014955997 8.15140432678163E-4 0.004151112399995327 -0.0032829190604388714 0.0024176561273634434 0.003195372177287936 0.0015715297777205706 0.003870962653309107 0.004961272235959768 -2.0182736625429243E-4 -0.0023109600879251957 0.001975901424884796 0.004695320501923561 0.0036468321923166513 0.003278713673353195 -0.002209556056186557 8.316573221236467E-4 0.001372078200802207 -5.010520690120757E-4 0.00298225786536932 -0.0037541978526860476 0.003035845933482051 0.002777338959276676 -0.0016835774295032024 -9.388526668772101E-4 -0.002265513176098466 0.0013846063520759344 0.002352157374843955 0.0024851628113538027 -0.0029938591178506613 0.0037784187588840723 -0.002286480972543359 -2.8065220249118283E-5 0.004668072797358036 0.0044987015426158905 -0.001080143149010837 0.003244791878387332 3.8825292722322047E-4 -0.002660627942532301 -0.0042193192057311535 -8.024457492865622E-4 -0.0037478480953723192 -0.0013104674872010946 -0.003667629323899746 7.063473458401859E-4 -0.0010596440406516194 0.0022045753430575132 -0.005066538695245981 -0.003444031113758683 0.0015160435577854514 -9.046298218891025E-4 -0.0020951437763869762 0.0031668145675212145 -0.0013436834560707211 0.0036314933095127344 0.001130419783294201 -0.0016470145201310515
B64:6Zi05rm/ -0.0016342878807336092 0.004799025133252144 0.0028541446663439274 -4.3820388964377344E-4 -0.0011008904548361897 5.616269772872329E-4 0.0035428323317319155 -7.065199897624552E-4 0.0016780325677245855 0.004841283895075321 -0.0035769841633737087 0.0030919944401830435 -0.003340319497510791 -0.005062868818640709 -0.0030277124606072903 0.0024961871095001698 -0.001110071549192071 -0.004716670140624046 -9.980611503124237E-4 -0.0032570422627031803 0.0037997886538505554 -0.004847242496907711 -2.180819501518272E-5 0.002664232160896063 -0.002681280020624399 3.856685943901539E-4 0.0034607762936502695 -0.004137060604989529 -0.0033727367408573627 -0.004788495134562254 0.0014374847523868084 -0.004213457927107811 -0.002557432744652033 -0.0020860128570348024 0.0014493385097011924 3.6751996958628297E-4 -0.0012889895588159561 -0.0036802091635763645 0.0011889663292095065 -1.1156038817716762E-4 0.0019830369856208563 -9.339903481304646E-4 -0.00482378201559186 8.518369286321104E-4 -3.468696741038002E-5 -0.004498704802244902 0.004319328814744949 -0.004699619021266699 -0.002931407652795315 -2.974286035168916E-4 0.00476778345182538 -0.0046694097109138966 -0.0025006199721246958 -0.0025347485207021236 -0.0017779177287593484 -0.0024648038670420647 0.004652042407542467 -1.5370335313491523E-4 -0.0027001455891877413 -0.003713404992595315 0.002503917319700122 -0.0030647204257547855 0.0029381837230175734 0.00129133858717978 -0.00359535263851285 -0.0012154252035543323 0.0036163339391350746 -0.001712964614853263 -1.466011890443042E-4 -0.002129313535988331 3.75543866539374E-4 -0.004972353577613831 -0.004572590813040733 1.1043961421819404E-4 0.0040644374676048756 -0.00418256688863039 8.873935439623892E-4 4.731135559268296E-4 0.0011038805823773146 -0.0020409426651895046 -0.004019767511636019 0.001131540397182107 0.001323280157521367 -0.004541296511888504 0.001657289918512106 -0.0033688372932374477 -0.002680066041648388 0.004118739161640406 -0.0014076787047088146 -8.84108419995755E-4 0.003484158543869853 -1.9977062765974551E-4 -0.0014012368628755212 0.0013153624022379518 -0.004198538605123758 0.005086218938231468 0.002456572139635682 0.0015185282099992037 -4.908995470032096E-4 0.0039975568652153015
B64:6JGb -0.00393476290628314 -0.001777968485839665 -0.0010649821488186717 -8.61861917655915E-4 0.0018576428992673755 -0.0022891988046467304 5.993838422000408E-4 0.0033193123526871204 -2.5563043891452253E-4 0.0023864801041781902 0.002618710743263364 -2.4065544494078495E-5 0.002361540449783206 8.201304590329528E-4 -0.0020979647524654865 -7.673822983633727E-5 -0.0018127372022718191 0.0010498514166101813 -0.002625994849950075 -8.659434388391674E-4 0.0019107249099761248 0.0017133713699877262 0.0016166671412065625 -7.201451808214188E-5 -0.0016129346331581473 8.687785011716187E-4 -0.0013915746239945292 -0.0022818371653556824 -0.00456234673038125 -0.0017849777359515429 -0.0018780058017000556 0.0031160658691078424 -0.0043726335279643536 -0.003923509269952774 0.001971619436517358 -0.003123163478448987 0.003465026617050171 0.003028028178960085 -0.004625978879630566 -0.00284111057408154 -0.003193984040990472 -0.003984769340604544 -7.166191353462636E-4 0.002602372085675597 0.004749677609652281 0.0022859307937324047 -1.1913641355931759E-4 -0.0023598482366651297 -0.00457274354994297 0.00414887722581625 0.004089057445526123 0.004129187669605017 0.0020273630507290363 0.0011209840886294842 0.004509374499320984 -0.002833874896168709 -0.0017472112085670233 -0.0026134136132895947 -4.1614018846303225E-4 -2.909609756898135E-4 -0.004076000303030014 0.0021667007822543383 0.003600920783355832 -0.004801428876817226 7.669471960980445E-5 0.002731948858126998 -0.004884045571088791 -0.001454245881177485 -0.0027616017032414675 -0.00431450828909874 0.0035402863286435604 8.773047593422234E-4 0.003473543794825673 -0.0013842327753081918 -0.001268209656700492 5.9357666032155976E-5 0.002456388436257839 0.0013837093720212579 0.002824764233082533 0.0035196151584386826 0.001316264271736145 1.1770816490752622E-4 0.0031829390209168196 -0.0022203174885362387 0.004157774616032839 0.0018118276493623853 -0.002054629847407341 -8.923454442992806E-4 -0.002549603348597884 -0.00298759201541543 0.0041883853264153 0.003100035944953561 0.0024875844828784466 0.0027072604279965162 2.6200865977443755E-4 -0.003318763105198741 0.004063358064740896 4.3779329280368984E-4 -2.1829055185662583E-5 -0.00463832076638937
B64:55SY -0.004054581746459007 -0.0027954813558608294 -0.005285050254315138 0.0010139701189473271 0.00201125955209136 -0.0015542947221547365 0.0034703253768384457 -9.40589583478868E-4 -0.002697424730286002 0.0028294280637055635 -0.001942852628417313 -0.004161206539720297 0.0035104788839817047 -2.468396633048542E-5 -0.004625184461474419 -0.0016590184532105923 -6.271688616834581E-4 0.0010814080014824867 0.004061565268784761 0.004484247416257858 0.00296190707013011 0.0037372733931988478 -0.004358274862170219 0.0022135297767817974 -0.0022942551877349615 -0.0029592993669211864 -0.005303609650582075 -0.003675497602671385 8.882212569005787E-4 -0.00431768037378788 -0.0012084880145266652 0.0032682367600500584 -0.004306841641664505 -0.0025278725661337376 8.118816185742617E-4 0.002513593528419733 0.004839024040848017 -0.004279228858649731 -0.0020245504565536976 -0.0033763304818421602 0.0011295032454654574 -0.003587674116715789 0.0024686912074685097 -2.909493923652917E-4 -0.0022093262523412704 0.004756210837513208 0.003206349676474929 -0.001710194512270391 -0.004104768391698599 -0.0010181309189647436 0.002676507690921426 0.001095574232749641 0.0030022170394659042 -6.729222368448973E-4 -0.0034432625398039818 9.966691141016781E-5 0.003359484951943159 9.711243328638375E-4 1.4508790627587587E-4 -0.0013476143358275294 0.004468062426894903 -2.0064668206032366E-4 0.0012452411465346813 -0.004129516426473856 0.0012056867126375437 9.546377696096897E-4 -0.003977566491812468 0.00489334762096405 0.004593919031322002 -0.003441817359998822 -0.004406285937875509 -0.001331772655248642 -0.0018598473398014903 -0.005031762178987265 0.003933763597160578 0.002514703432098031 -6.288085714913905E-4 -8.144376915879548E-4 -0.00411674939095974 0.004433561582118273 -0.0019256439991295338 5.052476772107184E-4 0.004684934392571449 -8.556662942282856E-5 2.0688073709607124E-4 0.005152368918061256 -0.003361217677593231 0.0025197328068315983 6.543118506669998E-4 -0.0011261800536885858 0.003053093794733286 -2.748690312728286E-4 0.003737647784873843 -0.0015455702086910605 -0.0017773719737306237 -0.0018227880354970694 0.0032722793985158205 -0.004554063081741333 1.136918508564122E-4 0.0022099281195551157
B64:6ZuV 0.002711823210120201 0.002132101682946086 -0.0019427561201155186 -0.00457242876291275 0.003328585997223854 0.0020567430183291435 0.004657669924199581 -0.0024090721271932125 -0.0018749057780951262 0.0032921740785241127 0.0013622138649225235 -0.0031502561178058386 1.0105041292263195E-4 -0.0045271748676896095 0.004036387894302607 0.004850002005696297 0.00229817908257246 0.0031354220118373632 -0.003749410156160593 0.002876824466511607 0.0017637540586292744 -0.0040505980141460896 0.0027092969976365566 0.0024474910460412502 -0.0015983731718733907 -0.004752905108034611 0.0032583652064204216 0.0015124599449336529 -9.36907425057143E-4 -0.0028091322164982557 -0.003944569267332554 -0.004622813779860735 0.0035308676306158304 -6.751839828211814E-5 0.0012678015045821667 0.0044755153357982635 -0.0037821640726178885 0.0017363508231937885 0.001231999951414764 0.004520651418715715 -0.0027890028432011604 0.002677057171240449 -0.0032718991860747337 -0.0016488051041960716 0.002115488750860095 -0.0011482315603643656 3.2768756500445306E-4 -0.002818465232849121 -0.004910777322947979 0.004213972482830286 0.004889961332082748 -0.004814562387764454 -7.178893429227173E-4 7.568098371848464E-4 -0.0037810946814715862 -4.233476356603205E-4 0.002456407295539975 0.0045976717956364155 -0.004581700544804335 0.0026422273367643356 0.002740386174991727 0.0015174316940829158 0.0037127879913896322 0.004283686634153128 -0.0022902265191078186 0.004213535226881504 -0.004076584242284298 -0.00117892911657691 -9.651856817072257E-5 -0.004446626175194979 -0.001080648391507566 0.004027186892926693 -7.59085378376767E-5 0.004355191718786955 0.001409974880516529 0.003695149440318346 -0.002264703856781125 5.490769981406629E-4 -0.00476020947098732 -9.815897647058591E-5 0.004840313922613859 -0.004158115480095148 0.0023630973882973194 0.004773817025125027 -0.0028751047793775797 -4.099796642549336E-4 1.0149710578843951E-4 -0.0024712183512747288 0.0022113944869488478 -0.001488722045905888 -2.2754962265025824E-4 1.6738010162953287E-4 0.0028812370728701353 -0.0035265737678855658 0.004072024952620268 0.0034252891782671213 -0.003243417711928487 -6.442413432523608E-4 0.004353180527687073 -9.085494093596935E-4
B64:Ym9tYg== 0.001445607515051961 -0.0031852226238697767 -0.001438302919268608 -0.002391842659562826 -4.2777106864377856E-4 -6.578149041160941E-4 -5.775573081336915E-4 -0.004286186769604683 -0.0028789632488042116 0.003292123321443796 0.002093336544930935 -0.004705274477601051 0.0046777562238276005 -0.003757457248866558 -0.003530138172209263 -7.233483484014869E-4 -0.0024907111655920744 -6.148329703137279E-4 -7.852765265852213E-4 0.0036334297619760036 0.0019622300751507282 0.003865808015689254 0.0025850937236100435 1.0944861423922703E-4 -7.715405663475394E-4 0.0019776716362684965 7.760750595480204E-4 0.0014363161753863096 0.002454908099025488 1.8129937234334648E-4 -0.0023733596317470074 -1.1531101336004212E-4 -0.0016310651553794742 0.0048573436215519905 -0.0014008538564667106 -0.0028703382704406977 0.004264646675437689 -0.004100616089999676 -0.0024731294251978397 -0.0010408958187326789 -0.002105651656165719 -0.004039820283651352 -0.003209257498383522 0.001139867352321744 -0.0031544086523354053 -0.0041869631968438625 -0.005069996230304241 0.004136180505156517 0.001708416035398841 -0.0010644496651366353 -0.0030903820879757404 0.001057594083249569 0.0039481716230511665 0.0046830675564706326 0.0018764686537906528 0.003617434063926339 0.003650065278634429 8.766967221163213E-4 -0.004240425769239664 -0.002601705025881529 -0.0028646676801145077 -0.0011832142481580377 0.0015347602311521769 4.7273834934458137E-4 0.0033666244708001614 -7.366039790213108E-4 -0.0014220784651115537 0.00265843840315938 0.0041400473564863205 -0.004559814929962158 -0.0035860035568475723 -0.0027640406042337418 -0.0039857979863882065 -0.0037435232661664486 0.0029912444297224283 -0.0029093832708895206 0.0014892249600961804 -0.0018894877284765244 -0.0036963503807783127 0.001839290140196681 0.002373775467276573 0.0038243860471993685 -0.002434738213196397 -0.001976525178179145 -0.0021824585273861885 -0.004671954084187746 0.0018353275954723358 7.379511225735769E-5 -8.824925753287971E-4 0.0022529505658894777 0.004266789183020592 0.001073631807230413 0.0016412920085713267 -0.0035865206737071276 -0.0018979385495185852 0.0012189896078780293 0.0016701312270015478 6.717541255056858E-4 1.6559816140215844E-4 0.004722134210169315
B64:5aS055uU -0.0026859319768846035 -0.002790760714560747 0.0020374739542603493 3.760291147045791E-4 -0.003222203813493252 0.0027166474610567093 0.004446593578904867 -1.43820889206836E-5 0.0022011089604347944 -9.640315547585487E-4 0.00430696876719594 -0.0023393388837575912 -0.003537239506840706 -0.0029273119289427996 -0.003913413733243942 0.003869707230478525 0.004981157369911671 0.004574866034090519 -0.004297908395528793 -1.6638523447909392E-6 0.0023525888100266457 -0.0022419539745897055 -9.17032957659103E-5 -0.0043520075269043446 0.004456365946680307 0.003957097418606281 8.450443856418133E-4 3.1428158399648964E-4 -0.002900834893807769 0.003146617440506816 0.0023729130625724792 -0.003289413172751665 4.7391047701239586E-4 5.830232985317707E-4 0.001827973872423172 0.0033573529217392206 0.0011266126530244946 -5.43337722774595E-4 -0.0016534036258235574 1.1746902600862086E-4 5.947985337115824E-4 0.0012971791438758373 7.199904648587108E-4 0.003427864983677864 -0.0019091259455308318 0.004651917610317469 -0.0032721725292503834 -0.004601584747433662 -0.004880073014646769 0.001441011088900268 0.004456961527466774 -0.0018147025257349014 0.0030005257576704025 0.0027402262203395367 -0.002916843630373478 0.0025487220846116543 0.0031709170434623957 0.003897882765159011 -0.003199581056833267 -0.004732873756438494 0.00301351398229599 2.3039817460812628E-4 0.001275873277336359 0.004921298008412123 0.00399520481005311 -0.004837239161133766 0.003807363798841834 -0.0015558636514469981 0.004265465307980776 0.0016414899146184325 0.002160315401852131 0.004140247590839863 -0.001494368421845138 -0.0048354873433709145 -4.501500370679423E-6 0.004205502104014158 0.003037107875570655 -2.3788498947396874E-4 0.0011812211014330387 9.494076948612928E-5 0.002067219465970993 -0.003996898420155048 -0.0033449644688516855 -0.0036764240358024836 0.0022368314675986767 0.0038440192583948374 0.0037856113631278276 0.0041726697236299515 0.0038834651932120323 -0.0027216682210564613 -0.0037372324150055647 -7.099556387402117E-4 0.004675236530601978 -0.0032735560089349747 -0.0030163072515279055 0.0021878897678107023 -0.0012920289300382137 -0.003053328488022089 -6.471618544310331E-4 -0.0020511760376393795
B64:5o2J5Yiw -0.003623582888394594 -5.292710266076028E-4 -0.002386285923421383 0.0019751025829464197 0.002157346811145544 0.002659506630152464 0.0029542907141149044 -0.003545018844306469 7.057348848320544E-4 -0.004929471295326948 -5.108757177367806E-4 0.0019744441378861666 0.0013957059709355235 -4.1493948083370924E-4 0.0042803105898201466 -6.486414349637926E-4 0.0025506147649139166 -5.613044486381114E-4 0.004997579380869865 -0.004978001117706299 -0.0012638780754059553 0.0019824907649308443 -0.0041489130817353725 4.0857872227206826E-4 0.0016839830204844475 -0.003727919887751341 0.004389496520161629 -0.0017603406449779868 -0.0025620609521865845 -6.907237693667412E-4 0.003242210252210498 -0.0053209965117275715 -1.1969610204687342E-4 -0.003374447813257575 -1.867816026788205E-4 0.004254614468663931 0.0018846496241167188 -0.003581313183531165 0.003909360151737928 -0.004452712368220091 0.002895354526117444 -3.601543721742928E-4 0.001829925342462957 0.002361274790018797 3.0431480263359845E-4 9.726627613417804E-4 -0.002332595642656088 1.9683866412378848E-5 -0.004500491078943014 -6.708333967253566E-4 4.682846774812788E-4 -0.004546602256596088 0.005290609318763018 -0.004448808263987303 -0.004712518770247698 0.0026886698324233294 -0.003687819465994835 0.0024381373077630997 9.217722690664232E-4 0.0013343982864171267 0.0015489186625927687 -0.004686522763222456 0.004808455239981413 -0.003407938638702035 0.003631342900916934 -0.002701456192880869 -0.0034921010956168175 0.0015673314919695258 7.727998308837414E-4 -0.004826980642974377 0.005113956984132528 -0.0025986130349338055 -0.00489110266789794 -0.0027481422293931246 0.001813563983887434 0.0019832311663776636 -0.002672940492630005 0.0025843651965260506 0.0029528324957937002 -0.0011790903517976403 0.0017872210592031479 0.002059973543509841 -0.0024205255322158337 0.001574802678078413 0.0039853304624557495 -5.610224325209856E-4 0.0024510191287845373 0.003040432697162032 -0.0020493832416832447 -4.5713077997788787E-4 -0.0017908444860950112 -0.0019098090706393123 -0.001241116551682353 -0.004386954475194216 -0.0016958448104560375 0.003865913487970829 0.003087140154093504 -7.715970277786255E-4 0.005196008365601301 0.002208276418969035
